,Gene-1,Gene-2,Gene-3,Gene-4,Gene-5,Gene-6,Gene-7,Gene-8,Gene-9,Gene-10,Gene-11,Gene-12,Gene-13,Gene-14,Gene-15,Gene-16,Gene-17,Gene-18,Gene-19,Gene-20,Gene-21,Gene-22,Gene-23,Gene-24,Gene-25,Gene-26,Gene-27,Gene-28,Gene-29,Gene-30,Gene-31,Gene-32,Gene-33,Gene-34,Gene-35,Gene-36,Gene-37,Gene-38,Gene-39,Gene-40,Gene-41,Gene-42,Gene-43,Gene-44,Gene-45,Gene-46,Gene-47,Gene-48,Gene-49,Gene-50,Gene-51,Gene-52,Gene-53,Gene-54,Gene-55,Gene-56,Gene-57,Gene-58,Gene-59,Gene-60,Gene-61,Gene-62,Gene-63,Gene-64,Gene-65,Gene-66,Gene-67,Gene-68,Gene-69,Gene-70,Gene-71,Gene-72,Gene-73,Gene-74,Gene-75,Gene-76,Gene-77,Gene-78,Gene-79,Gene-80,Gene-81,Gene-82,Gene-83,Gene-84,Gene-85,Gene-86,Gene-87,Gene-88,Gene-89,Gene-90,Gene-91,Gene-92,Gene-93,Gene-94,Gene-95,Gene-96,Gene-96.1,Gene-97,Gene-98,Gene-99,Gene-100,MutState-1,MutState-2,MutState-3,MutState-4,MutState-5,MutState-6,MutState-7,MutState-8,MutState-9,MutState-10
Gene-1,0.0,0.0,0.0,0.0,0.0,-0.18077875274187918,0.0,0.1154130632392948,0.0,0.04921941357588862,0.0,0.0,0.0,0.0,0.0,0.0,0.0,0.0,0.0,0.0,-0.012928366209981229,0.0,0.0,0.0,-0.017467644320948127,0.0,0.0,0.0,0.0,0.0,0.0,0.0,0.0,0.0,0.0,0.0,0.02988318060106189,0.0,0.0,0.0,0.0,0.0,0.0,0.0,0.0,0.0,0.0,0.0,-0.052590189652474056,-0.006680999712016463,-0.06214243024823971,0.0,0.025726555753747653,0.0,-0.10354482224833662,0.0,0.0,0.0,0.03439857709407102,0.0,0.0,0.0,0.0,0.0,-0.038154519569957704,0.0,0.0,-0.0075132327169276265,0.0,0.0,0.054233046443246335,0.0,0.023531491073551423,0.0,0.0,0.0,0.0,0.0,-0.0027416768304662116,-0.0,0.0,0.0,0.019495809554863998,0.0,0.0,0.0,0.0,0.0,0.0,0.0,-0.06790733763555137,0.0,0.0,0.0,0.046153154877122814,0.0,0.0,0.0,0.0,0.0,0.0,0.0,0.0,0.0,0.0,0.0,0.0,0.0,0.0,0.0,0.0
Gene-2,0.0,0.0,0.0,-0.0,0.0,0.0,0.0,0.0,0.0,0.0,-0.013433903690246137,0.0,0.0,0.0,0.0,0.041800538116629905,0.0,0.0,0.0,0.0,0.0,0.0,-0.0,-0.024733588024839128,-0.0,0.0,0.0,-0.0,0.016950761119471223,0.0,0.0,0.0,-0.0,0.0,0.0,0.0,0.0,0.03298431485797194,-0.0424127956002734,0.0,-0.0037861853394010633,0.0,0.0,-0.0,0.0,0.0,0.0,0.0,-0.0,0.0,-0.0,0.0,-0.0,-0.05734524233856433,0.05153954351025733,0.0,0.0,-0.0,0.0,0.024821737767002864,0.0,0.0,0.0,-0.0,-0.023845417044516058,-0.03953311258828787,0.0,0.0,0.0,-0.0,0.0,0.0,-0.0,0.0,0.0,0.0,-0.0,-0.0,0.0,-0.0,0.0,0.0,0.0,0.0,0.0,0.0,0.04362052565517626,0.0,0.0,0.0,0.0,-0.0,0.0,0.0,-0.04618034576471904,0.0,-0.0,-0.0,-0.033614587248557405,0.0,-0.0,0.0,-0.0,-0.24989770995509208,-0.0,-0.0,0.0,0.0,-0.0,0.0,0.0
Gene-3,-0.0,0.00710702745322062,0.0,0.0,0.0,0.0,0.014487715836963526,0.0,-0.0,0.0,-0.03303435071202324,-0.002453081667749584,0.0,-0.034812673684160494,0.0,-0.04994842154426174,0.0,-0.0,0.0,-0.0,-0.0,0.0,0.0326122075859855,0.0,0.0,-0.0,0.0,0.0,0.0,0.0,0.012245926454232895,0.0,0.0,0.0,-0.0,-0.0,-0.0,0.0,0.0,-0.0,0.0,0.0,0.0,0.0,-0.0,0.005510931519978237,0.02009219587530258,-0.00492192790546332,-0.0,0.0,-0.0022225488753799105,-0.00852845070518394,0.0,0.0,0.0,0.003947282137199817,0.0,0.0,0.0,0.0,0.0,-0.021837032853162224,-0.0,0.0,-0.0,0.0,0.0,-0.0,-0.0,0.023282040934527588,0.0,0.013004800548068596,0.05120740470532554,0.0,-0.0,-0.010250942754148153,-0.0,-0.0,0.0,0.0,0.0,0.0,-0.0,0.0,0.0,0.0,0.0,0.0,0.0,-0.0,0.0,0.0,0.005021578762752515,0.0,-0.046284748170024655,0.030044020840185787,0.0,-0.0,-0.0,-0.0,0.0,-0.0,0.0,0.0,0.0,0.0,0.04672762505588328,-0.055033529957999414,0.0,0.0,0.0
Gene-4,0.0,-0.0,-0.0,0.0,0.0,0.0,0.0,0.0,0.0,0.0,0.0,0.0,-0.0,-0.0,0.0,0.0,0.0,-0.0,-0.07638143172770984,0.044050404412743716,0.0,0.0,-0.0,0.0,0.0,0.0,0.0,0.0,0.006680366638098982,-0.0,-0.04320951619704722,0.0,-0.033082062909408724,0.0,0.0,0.0,-0.0,0.0,-0.0,0.0,-0.0,-0.006298907131937805,-0.053674722138135386,-0.0,-0.0,0.0,-0.0,0.0,-0.0,0.0,-0.0,0.0,0.0,0.0,0.0,0.0,0.0,-0.0,0.0,-0.0,0.0,0.0,0.0,0.0,0.0,-0.0,0.0,0.0,0.0,0.0,0.0,0.0,0.0,0.0,-0.0,0.0,0.0,0.0,0.0,0.0,0.0,0.0,0.0,0.04175370338819114,0.0,-0.0,0.0,0.033843373344844545,-0.0,-0.0,0.0,0.0,0.0,0.0,0.0,-0.019850709869030547,0.0,0.0,-0.0,0.0,-0.0,0.0,-0.0,0.0,-0.0,-0.0,-0.0,-0.0,0.0,0.0,0.0
Gene-5,-0.0,0.0,0.0,0.0,0.0,0.0,0.0,0.0,-0.0,0.0,0.0,0.0,-0.0,0.0,-0.050606257651633006,0.0,0.0,0.0,0.0,0.0036270254095872013,-0.0,0.0,0.0,0.0,0.0,0.0,0.0,-0.0,-0.0543121511417252,-0.01738777109971657,0.0,0.02529010878380998,0.0,0.0,-0.0,0.0,0.0037031298026378697,0.0,0.0,-0.0,0.0,0.0,0.0,-0.0,0.06615787262249959,0.05893651206475356,0.0,-0.0,-0.0,0.0,-0.0,0.0,0.0,0.0,0.0,0.0,-0.0,0.0,0.0,0.0,0.0,-0.0,0.0,0.0,-0.0,-0.0,-0.0,-0.0,-0.0,-0.0,0.0,0.0,-0.0,-0.0,0.0,0.011760395441482127,0.0,0.0,0.038202317772030134,-0.0,0.0,0.0,-0.01277163475834003,0.0,-0.0,-0.0,0.0,0.0,0.0,0.0,0.0,-0.00030739818049328136,0.0,0.0,0.0,0.0,0.0,-0.0,0.0035240878676046465,0.0,-0.0,0.0,0.0,0.0,-0.0,-0.0,-0.0,0.0,-0.0,0.0,0.0
Gene-6,0.0,0.0,0.0,0.0,0.0,0.0,0.0,0.0,0.0,-0.0,0.0,0.0,0.0,0.0,0.0,0.0,0.0,0.0,0.03542347712271655,0.0,0.0,0.0,0.0,0.0,0.0,0.0,0.0,-0.05818370983073552,0.0,0.05062678643804094,0.0,0.0,-0.005286616030401641,0.0,-0.029074289900901596,0.0,0.0,0.0,0.0,-0.13270115212673222,-0.004459784913737242,0.0,0.0,0.0,0.043965114810045273,0.07612070506378653,0.0,0.0,0.0,0.0,0.0,0.0,0.0,0.00806162519270172,0.0,0.0,0.0,0.0,0.0,-0.1496500687692224,0.0,0.0,0.0,0.01392522335037661,0.0,0.0,-0.011492139167964516,0.0,0.0,0.0,0.0,0.0,0.0,0.0,0.0,0.0,-0.04540831154787772,0.0035269378097597583,0.0,0.06655607909065236,0.0,0.0,0.0,0.0,0.0,0.0,0.0,0.0,0.0,0.0,-0.08591010108200596,0.0,0.0,0.0,0.0,0.040817606265870325,0.0,0.0,0.0,-0.03380163369415506,0.0,0.0,0.0,0.0,0.0,0.0,0.0,0.0,0.05315413414771766,0.0,0.0
Gene-7,-0.0,-0.0,0.0,0.0,-0.0,0.0,0.0,0.04726172410697865,0.0,-0.0,-0.04453998474875968,-0.06530272014067753,0.0,0.0,0.0,-0.07371593430790126,-0.06640298122421028,0.0,0.0,-0.004590628368538986,0.04478844846197474,-0.0809257843294164,-0.0,0.0,0.0,-0.00186442433803272,0.0,-0.0,-0.0,0.0,0.014086923754320059,0.0,0.0015143827182256076,0.0,0.0,-0.03868279911185533,0.0,-0.0,0.0,0.0,0.010810761849470668,0.0,0.0,-0.012259444866945642,0.0,0.0,-0.0,0.0,0.02483539532261295,-0.0,0.011982735446513864,0.0,-0.0,-0.0,0.0,0.0,-0.0,0.0,0.0,0.0,0.0,0.0,-0.0,0.0,-0.0,0.0,-0.0,0.0,0.0,-0.0691910961975836,-0.043629080207265594,0.0,0.0,0.0,0.0,0.0,0.007563924327567248,0.0,0.0,0.0,0.0,0.0,-0.0,0.0,0.0,0.0,-0.0,0.0,-0.0,0.0,0.0,-0.0,0.0,0.0,0.0,0.0,0.0,0.0,0.006247047305982012,-0.0,0.0,0.0,-0.0,0.0,-0.0,0.0,-0.0,-0.0,0.0,-0.0,0.0
Gene-8,0.0,0.0,0.0,0.0,0.0,-0.031103077966872148,0.0,0.0,0.0,0.0,0.0,0.0,-0.0,0.0,0.0,0.06441452223847476,0.0,0.0,0.0,0.0,0.0,0.0,0.0,0.0,0.0,-0.0,0.0,-0.0,0.0,0.0,0.0,0.0,-0.0,0.0,0.0,0.0,-0.0,-0.0,0.0,-0.0,-0.0,0.0,0.0,0.0,-0.0,-0.020063233842151033,0.0,-0.0,0.0,0.0,-0.0,0.0,-0.08239539519408551,-0.0,-0.0,-0.0,0.0,-0.0,0.0,0.0,0.0,0.0,-0.0,0.0,-0.0,0.0,0.0,0.0,0.0,0.0,0.0,0.0,-0.0,0.0,0.0,-0.0,-0.0,0.02588155655114701,-0.00490898464732544,0.0,0.0,0.0,0.0,-0.0010856190790241407,0.0,0.0,-0.02504167025203477,-0.08859997261530055,-0.0,-0.017835338971925005,0.0,0.0,-0.0,0.0,0.0,-0.0,0.0,-0.010595411156613284,0.0,-0.0,0.0,-0.0,0.0,0.0,0.0,-0.0,-0.0,-0.0,-0.0,-0.0,0.0
Gene-9,0.0,0.0,-0.0,-0.0,0.0,0.0,0.0,0.0,0.0,0.0,0.0,0.0,-0.18184733816955592,0.0,0.0,0.0,0.0,0.0,0.0,0.0,0.0,0.0,0.0,0.0,0.0,0.0,-0.0,0.0,0.0,-0.0,0.022986701155897404,0.0,0.0,0.0,-0.0,-0.009160192766393472,-0.0,0.0,0.0,0.0,-0.0912467270055009,0.008285979811719826,0.0,0.0,0.0,0.0,0.0,-0.0,-0.0,-0.0,-0.0,0.0,-0.0,0.0,-0.0,0.009577709166301336,0.0,0.0,-0.012226525610075421,0.0,-0.0,-0.0,0.0,-0.0,-0.0,-0.0,-0.0,0.0,-0.0,0.0,0.0,-0.0,0.0,0.0,0.0,-0.0,0.0,0.0,0.0,0.0,0.0,-0.0,-0.0,0.0,0.0,0.0,0.0,0.0,0.0,0.0,0.0,-0.0,0.0653244632151228,0.0,0.0,-0.0,0.0,0.0,0.0,0.0,0.0,0.0,0.0,0.0,0.0,-0.0,0.0,-0.0,0.0,-0.0,-0.14138727362539225
Gene-10,0.0,-0.0,-0.0,-0.0,0.0,-0.0,-0.0,0.0,0.017083718114125002,0.0,0.0,0.0,-0.0,0.06892301538455889,0.0,0.0,0.0,0.0,0.0,0.0,0.0,0.0,0.0,0.0,-0.0,-0.0,0.0,0.0,-0.0,0.0,0.06567957327377283,0.0,0.0,0.0,0.0,-0.0,-0.0,-0.0,0.0,-0.0,0.0,0.0,-0.0,0.0,0.0,0.0,0.07135128736000591,0.0,-0.0,0.0,0.0,0.0,-0.0,0.0,0.0,-0.0,-0.0,-0.0,0.0,0.0,-0.0,-0.0,0.0,-0.0,0.0,0.0,0.0,-0.013193153296785264,0.0,0.0,-0.0,0.0,-0.0,0.0,0.0,0.0,0.0,0.0,-0.0,-0.0,-0.0,0.0,-0.0,-0.0,-0.0,0.0,0.0,-0.08692800807287525,0.0,0.0,0.0,8.907506188351366e-05,0.0,0.0,0.0016084232056592716,-0.0,0.0,-0.0,0.0,-0.0,0.0,-0.0,-0.0,0.0,-0.0,-0.0,0.0,0.0,-0.0,0.0,0.0
Gene-11,-0.0,-0.0,-0.0,0.0,0.0,0.015887131253351273,-0.0,0.0,0.0,0.0,0.0,-0.017960908640333787,0.0,0.0,0.0,0.0,0.0,-0.0,0.0,-0.0,-0.0,-0.0,-0.0,0.0,0.0,0.0,0.0,0.0,0.0,0.0,0.0,0.0,0.0,0.0,0.0,0.0,0.0,0.0,0.0,0.0,0.0,0.0,0.0,0.0,0.0,0.0,-0.0,0.008355928340345042,0.0,0.0,0.0,0.0,-0.05833132934093122,0.0,-0.0,0.0,0.0,-0.0,0.044862032006491324,-0.03428342801116546,0.0,-0.0,0.0,-0.0,0.0,0.0,0.01078433857558588,0.0,0.0,0.0,0.0,-0.0,-0.0,0.0,0.0,0.0,-0.0434320982329254,-0.007071693883770772,0.0,0.0,0.0,0.059331025788796884,0.0,0.0,0.0,-0.0,0.0,0.06030939602852858,0.005984957893111643,0.0,0.0,0.0,0.0,0.0,0.014349088746684354,0.0,0.0,0.014798781831119644,0.0,0.0,0.0,0.0,0.0,0.0,-0.0,0.0,-0.0,-0.0,-0.0,-0.0,0.0
Gene-12,0.0,-0.0,-0.0,0.0,0.0,0.0,-0.0,0.0,0.0,0.0,-0.0,0.0,-0.0,0.0,0.0,0.0,-0.06578361244773191,0.0,0.0,0.0,0.0,0.0,0.0,0.0,0.006292652858641247,0.06150401992512953,-0.0,0.0,0.0,0.0,-0.04243460224537862,0.0,-0.0,0.0,0.0,0.0,-0.0,0.0,0.0,0.0,0.0,0.17739143382635122,0.0,0.0,0.0,0.0,0.0,0.0,0.0,0.0,0.0,-0.0,0.0,0.0,0.0,0.0,-0.0,0.0,0.0,0.0,0.0,0.006458080392045507,0.0,0.0,-0.0020015961454276183,0.0,0.0,-0.0024910710447742603,0.0,-0.0,-0.0,0.0,0.0,-0.0,0.0,0.0,-0.049054756866389645,0.0,0.0,0.0,0.0,0.0,0.0,-0.0,0.0,-0.0,0.0,-0.11284424641792358,0.0,-0.0,0.0,0.009020147810897983,-0.0,-0.0,-0.0,0.0,0.0,-0.0,-0.0,0.0,-0.0,0.0,0.0,0.0,-0.0,-0.0,-0.0,0.0,0.0,0.0,0.0
Gene-13,0.032258229886244306,-0.0,0.0,-0.0,0.0,0.0,0.0,-0.0,-0.0,0.0,0.021680410058925653,0.0,0.0,-0.0,0.0,0.0,0.0,0.0,0.0,-0.0,0.0,0.0,0.0,0.0,-0.0,0.0,0.0,-0.1958879732805457,0.0,-0.0,0.0,0.0,0.0,0.0,0.0,0.0,0.0,0.0,0.0,-0.0,-0.011247339637251046,0.0,0.0,-0.0,0.0,0.0,-0.0,0.0,-0.0,0.0,0.0,-0.0,-0.0,0.0,0.0,0.0,0.0,0.0,0.0,-0.0,0.0,-0.09390089168061047,7.399782001431351e-05,0.0,-0.0,0.0,0.0,-0.0,-0.0,0.06264914376915065,-0.042809151786159405,-0.0,0.0,0.03962772122013164,0.0,-0.0,0.0,0.0,0.0,-0.10474302743011975,0.0,0.0,0.0,0.0207246496593414,0.0,0.0,-0.06409589268474637,0.0,0.04109325675775426,0.0,0.002151788833400753,0.03792945857020512,0.0,0.0,0.0,-0.06827018059164627,0.0,0.0,0.0,0.0,-0.0,0.0,0.030300010512411758,0.0,0.0,-0.0,0.0,0.0,0.0,0.0,0.0
Gene-14,0.0,0.0,-0.0,-0.06403998032746928,0.0,0.0,0.0,0.01607074492283016,0.0,0.0,0.0,0.0,-0.02733868968372902,0.0,-0.13496653994526459,0.0,0.0,0.0,0.0,0.0,0.0,0.0,0.0,0.0,0.0,0.0,0.0,0.0,0.0,0.0,0.0,0.08485391411860918,-0.0,0.0,-0.025531650542064327,-0.0,0.0,0.0,-0.0,0.0,0.0,0.0,-0.0,-0.0,0.0,-0.0,0.0,-0.0,0.0,-0.016277378802887314,0.0,-0.0,0.0,-0.0,-0.0,-0.0,0.0,0.11786636705002028,0.0,0.0,-0.0,-0.0,-0.06129586412206365,-0.06089065358176066,-0.0,-0.0,0.005130496067358285,-0.0,0.0,-0.0,0.0,0.0,0.0,0.0,-0.0,-0.0,0.0,-0.0,0.0,-0.0690373773255276,0.01095909816167185,-0.07533578969557433,0.0,0.0,0.0,-0.06661542530344747,0.0,0.0,-0.0,0.0,-0.051516076167794196,0.0,0.0,0.0,0.0,0.0,-0.0,-0.0,-0.0,-0.0,0.0,0.0,0.0,0.0,-0.0,0.0,0.0,0.0,0.0,-0.0,0.0
Gene-15,0.0,0.0,0.0,0.012733298713240727,-0.0,-0.0,0.0,0.033808450424676145,0.0,-0.0,0.0,0.044469836372819455,0.0,-0.0,0.0,0.0,0.0,0.0,0.0,0.02212374429680897,0.0,-0.045212135810570014,0.0,0.0,0.0,-0.0,0.0,0.014276663503936464,-0.0,-0.0,-0.017882065039401557,0.0,0.0,0.0022122796300780775,0.0,0.0,0.0,0.002096800204240167,0.0,0.0,0.0,0.0,0.0,0.0,0.0,-0.0,-0.0,0.0,0.0,0.0,0.0,0.0,0.0,-0.0,0.0,-0.02690162708880704,0.0,-0.0,0.0,0.0,0.0,-0.0,-0.0033674529139736693,0.09336794074356217,0.0,0.0,0.0,0.0,0.0,0.0,0.0,-0.0257610784600112,-0.0,-0.0,0.0,0.08452368487593173,0.0,0.0,-0.0,-0.06122466389295507,0.0,0.0,-0.0,0.0,-0.0,0.0,0.0,0.0,-0.0,0.0,0.0,0.0,0.0,0.0,0.0,-7.069433224171229e-05,0.03785507959270408,-0.0,0.0,0.0,0.0,-0.0,-0.0,0.0,0.0,-0.0,-0.0,-0.0,-0.0,0.0,0.0
Gene-16,-0.05258879474670262,0.0,-0.0,0.0,-0.0,-0.0,-0.0,0.0,0.0,0.0,0.0,0.0,0.0,0.0,0.0,0.0,0.18156436979640908,-0.0,0.0,-0.03269598087764623,0.0,0.0,0.0,0.0,0.0,0.0,0.0,0.0,0.0,-0.09601058845629443,0.0,0.0,0.0,0.006346070049356121,0.0,0.0,0.0,-0.0,0.0,0.0,-0.0,0.0,0.007000196252039298,0.0,0.0,0.0,0.0,-0.0,-0.0,0.022431818156596454,0.0,0.0,0.0,0.0,0.0,0.05869980038698513,0.0,0.0,0.0,0.0,0.0,0.0,0.023935702792932487,0.0,0.0,0.0,0.0,0.0,-0.0,0.0,-0.0,0.0,-0.0,0.0,0.0,0.0,0.12307996022629782,0.0,0.0,0.0,0.0,0.0,0.0,0.0,-0.0,0.0,0.0,0.0,0.02409224139184429,-0.0,0.0,0.0,0.0,0.0,0.0,0.0,0.0,0.0,0.0,0.0,-0.0,0.0,0.0,0.0,0.0,-0.0,0.0,-0.0,0.0,0.0,0.0
Gene-17,0.0,0.0,0.0,-0.0,0.0,-0.0,-0.0,0.0,0.0,0.0,-0.024656521604279415,0.0,0.0,0.0,0.0,0.0,0.0,0.0,0.0,-0.06305747315493458,-0.0,0.0,0.0,0.0,0.0,0.0,0.0,0.0,-0.0,0.0,0.0,0.0,0.0,0.0,0.0,-0.0,0.0,0.0,0.0,0.0,0.0,0.0,0.0,0.040364445788554686,-0.0,0.0,0.0,0.022075681055291074,0.0,-0.0,-0.03735720904995786,0.0,-0.0,-0.0,-0.0,0.0,0.0,-0.0,0.0,0.0,-0.0,-0.0,-0.0,0.0,-0.0,0.04253182911487019,0.0,0.0,0.0,0.0,0.0,-0.0,-0.021151712402629405,0.0,-0.0,0.0,0.0,-0.0,-0.0,0.0,0.0,0.0,0.0,-0.0,0.0,0.0,0.0,0.0,0.0,0.0,0.0,-0.0,-0.0,0.0,0.0,0.0,0.0,0.0,0.0,0.0,0.0,-0.0,0.0,0.0,0.0,0.006985998682132709,0.0,-0.0,0.0,0.0,0.0
Gene-18,0.0,0.0,0.0,-0.0,0.0,-0.0,0.0,0.0,0.0,0.0,-0.0,0.0,0.0,0.0,0.0,-0.0,0.0,0.0,0.03288993801252588,-0.0,-0.0,-0.03919240527185797,0.0,0.0,-0.0,-0.0,0.0,0.0,0.027994268364377548,0.0,0.0,0.0,0.0,-0.0,0.0,0.0,0.05321913308866552,0.0,0.0,-0.0,0.0,0.0,0.0,0.0,0.0,0.0,0.0,-0.0,0.0,-0.0,0.0,0.0,0.0,0.0,-0.0,0.031036400276913297,0.0,0.0,0.0630984061194925,0.0,0.0,-0.0,0.0,-0.025912552423649683,-0.0,-0.0,0.0,0.0,0.0,0.0,0.0,0.0,0.0,0.0,0.0,-0.10778154044509058,0.0,0.09668025509445337,0.0,-0.020989911169675236,-0.0,0.0,-0.0,0.0,0.06466817780656958,0.0,0.0,0.0,-0.0,-0.0,0.0,0.0,0.015070153193059604,0.0,0.0,0.0,0.0,-0.0,0.0,0.0,0.0,0.0,0.0,0.0,0.0,0.0,0.0,-0.0,-0.0,0.0,0.0
Gene-19,-0.0,0.0,0.0,-0.0,0.0,0.0,0.0,0.0,0.0,0.0,0.0,0.0,0.0,0.0,0.0,-0.0,0.02830308542559556,0.0,0.0,-0.0,0.0,0.0,0.0,0.0,0.043847698767314376,0.0,0.0,0.0,0.0,-0.0,0.0,0.0,0.0,-0.0,-0.0,-0.0,0.0,0.0,0.0,-0.0700347605788053,-0.0,0.0,-0.0,0.01970938913282438,0.0,0.016512524515541478,0.0,0.0,0.0,0.0,0.0,0.0,0.09971862509756667,0.0,0.0,0.0,0.0,-0.0,0.0,0.0,0.0,0.0,0.0,0.0,-0.0,-0.0,0.0,0.0,0.0,0.0,0.0,-0.0,0.0,0.0,0.0,0.0,0.0,0.0,0.0,0.03207342755968108,0.0,0.0,0.0,-0.0,0.0,-0.0,0.0,0.0,0.0,0.0,0.0,0.0,0.0,-0.0,0.0,-0.0,-0.0,-0.0,-0.03867266427441315,0.0,-0.0,0.0,-0.0,0.0,0.0,0.0,-0.0,0.0,0.0,0.0,0.09808748859409203
Gene-20,-0.00622515551946173,0.0,-0.0,0.0,0.0,0.0,-0.0,0.0,0.0,0.0,0.0,0.0,-0.046877227677686394,0.0,-0.0,-0.0,0.0,-0.0,0.0,0.0,0.0695868937127283,0.0,0.0,-0.0,0.0,0.0,0.0,-0.0,0.0,0.0,0.0,0.0,-0.0,-0.0,0.0,0.0,-0.0,0.0,-0.027126600435069988,0.0,-0.0,0.0,0.0,0.03318524451552501,-0.0,0.0,0.0,0.0,-0.0,0.0,0.0,0.0,0.0,-0.05495597634341189,0.0,-0.0,-0.0,-0.0,0.0,0.013836547341328715,0.0,0.0,0.0,-0.0,-0.0,-0.003974334075971136,0.06340142774502905,0.0,0.0,0.0,0.0,0.0,0.0,0.0,0.0,0.0,0.0,-0.0,0.0,-0.029407287393022414,-0.0,0.0,0.0,0.0,0.0,0.0,0.0,0.0,0.0,0.0,0.0,0.0,0.0,0.016553470378287118,0.0,0.0,-0.04864450737466144,-0.007538748185252598,0.10052767771650786,0.0,-0.0,-0.043957490181879104,-0.13575977662285893,0.0,-0.0,-0.0,0.0,-0.0,-0.0,0.0,-0.004746505921849654
Gene-21,0.0,0.0,0.0,0.0,0.0,-0.008699654179060951,0.0,0.0,0.0,0.0,0.0,0.0,0.0,0.0,0.0,0.0,0.0,0.0,0.0,0.0,0.0,0.0,0.08612847131519685,-0.0025346955243451055,0.0,0.0,0.0,0.0,0.0,0.0,0.0,0.0,0.098380498700784,0.0,0.0,-0.06824441433645417,0.0,-0.029756812257742616,0.0,0.0,0.0,-0.1083647564416167,0.0,0.0,0.0,-0.06435929100933661,0.013377811640370557,0.0,0.0,0.0,0.0,-0.0109732457669566,0.0,0.0,0.0,0.05180479448353233,-0.0,0.0,0.0,0.0,0.0,0.0,0.0,0.0,0.0,0.0,0.12539349648571946,0.0,0.0,0.0,0.0,0.0,0.0,0.0,0.0,0.0,0.0,0.0,0.0,0.0,0.012926422661789212,0.0,0.0,0.0,0.0,0.0,0.0,0.0,-0.10298420782730255,0.0,0.0,0.0,0.0,0.0,0.0,0.0,0.037995049930504364,0.0,0.007252469295786592,-0.06621718120723032,0.0,0.0,0.0,0.0,0.09667110549050063,0.0,0.0,0.0,0.0,0.0,0.0
Gene-22,0.0,0.0,0.0,0.0,0.0,-0.0,-0.0,0.0,0.0,0.0,-0.0,0.0,0.05269605427488533,0.0,-0.0,0.0,0.0,-0.0,0.0,0.0,-0.0,0.0,0.0,-0.0,-0.10698409667158729,0.0,0.0,0.0,0.0,0.0,0.0,0.005019006517990046,0.0,0.0,0.0,-0.0,0.0,0.0,-0.0,0.0,-0.0,0.0,0.0,0.012098385831756125,-0.0,0.04827969456752321,0.0,0.0,0.0,0.0,0.0,-0.0,0.0,0.0,-0.0,-0.03647426641100587,0.0,0.0,0.0,0.0,-0.0,-0.0,-0.0,-0.0,0.05141004175745423,0.011957381836348233,0.0,0.0,0.0,-0.06762420001846886,0.0,-0.06744802954595487,0.0,0.0,0.0,0.0,-0.0,0.0,0.0,0.026114406693115873,0.0,0.0,0.0,0.0,0.0,0.0,0.0,0.0,0.0,-0.0,0.0,0.0,-0.02822731368892456,0.0,-0.0,-0.0,0.0,0.0,0.0,0.0,-0.0,0.0,-0.0,0.0,0.0,0.0,0.0,0.0,0.0,-0.04715637360660879,0.0
Gene-23,0.0,-0.07492573314281688,0.0,-0.12829469030401688,0.0,-0.0,-0.0,0.0,0.0,0.0,-0.0,0.0,0.0,0.0,0.0,-0.0,0.0,0.0,0.0,0.0,0.0,0.0,0.0,-0.0,0.0,0.0,0.0,0.0,0.0,0.0,0.0,-0.1290138118836585,0.0,0.0,0.0,0.0,0.0,-0.0,0.0,0.0,0.0,0.0,-0.0,0.0,0.0,-0.0,0.0,0.0,-0.0,0.0,0.0,0.0,-0.0,0.0,-0.015149561547896493,0.0,-0.02561045240174158,0.0,0.0,-0.0,0.0,0.0,0.0,-0.1467260357758661,0.0,0.0,-0.0,-0.0,-0.0,-0.0198750411381488,0.11974950621570057,-0.0,0.0,-0.0,-0.0,0.0,0.0,0.0,0.0,-0.0,-0.0,0.0,0.0,0.0,0.0,0.0,0.0,0.0,0.011238150872351175,0.0,0.0,0.0,-0.0,0.0,-0.011852472889286411,0.0,-0.0,0.0,0.0,0.0,-0.0,0.0,0.0,0.0,-0.08797926137839272,-0.0,-0.0,0.0,0.0,-0.0,0.0
Gene-24,0.0,-0.0,0.022440853145633873,0.0,0.0,-0.0,0.0,0.0,0.0,0.0,0.0,0.011795890806778713,0.0,0.0,0.009914167041721541,0.0,0.0,0.0,0.0,-0.10171354920761563,0.0,0.0,0.0,0.0,0.0,0.0,0.0,0.0,-0.0,0.0,0.052871183345684795,0.0,0.033819073032846814,0.0,-0.0,0.0,-0.0,-0.0,0.0,-0.0,0.0,0.10249197840671671,-0.0,0.0,-0.0,-0.0,0.0,0.0,0.024488769797526337,0.0,-0.002694818365176636,-0.06029410765705592,0.0,0.0,0.0,-0.0,0.0,0.0,0.0,0.0,0.0,-0.0,0.0,0.0,0.0,0.0,0.0,0.0,-0.0,0.0,-0.0,0.0,0.0,0.0,0.0,-0.0,-0.0,0.0,0.0,-0.0,0.0,0.0,0.0,-0.0,-0.0,0.016032156863766793,-0.01125118280576548,-0.033323211392114346,0.0,0.0308337932901504,0.0,-0.0,-0.026154478424932,-0.0,0.0,0.0,0.0,0.0,0.0,0.0,-0.0,-0.0,0.0,0.0,0.0,0.0,0.0,0.020039133207125557,0.0,0.03224289451704856,0.059187698928035194
Gene-25,-0.0,-0.08252891052792638,0.0,0.018813032493411902,-0.0,0.0,0.0,0.0,0.0,0.0,0.0,0.0,-0.0,0.0,0.0,0.0,0.0,-0.0,0.0,0.0,0.0,-0.0,0.0,0.0,0.0,0.0,0.0,0.0,0.0,0.0,0.0,-0.050723550225669795,0.0,-0.0,0.0,0.0,-0.0,-0.0,-0.0,0.0,0.0,0.0,-0.0,0.0,0.0,0.0,-0.0,-0.0,0.0,0.0,0.0,-0.0,0.0,0.0,0.0,-0.08984259722589248,0.0,0.0,0.0,0.0,0.0,0.0,0.0,0.0,0.0,-0.0,-0.03943686663614468,-0.0,0.0,0.0,0.0,0.0,0.0,0.0,0.0,0.0,0.0,0.0,-0.0,0.0,0.0,0.0,0.0,0.0,-0.0,-0.0,0.0,0.01152606635441872,0.008100278211476125,0.0,0.0,0.0,0.0,-0.0,-0.0,-0.0,-0.0,0.0,-0.04148635267099589,0.0,-0.0,0.0,-0.0,0.0,0.0,0.0,0.0,-0.0,0.0,0.03419021359061152,0.0
Gene-26,0.0,-0.051428797321014,-0.0,0.0,0.0,-0.0,-0.0,-0.0,0.0,0.0,0.0,0.0,0.0,0.0,0.0,0.0,0.0,-0.10292836813555388,0.0,-0.0,0.06740726372360409,-0.0,0.04340133884330052,0.0,0.0,0.0,0.0,-0.0,0.06874532987935986,0.0,0.0,0.0,0.0,0.0,0.0,0.0,0.0,-0.0,0.0,0.0,0.0,0.0,-0.0,0.0,0.0,-0.0,0.0,0.052628471056897864,-0.0,-0.0,0.0,0.0,0.0,0.030156305804884063,-0.0,0.0,-0.04131205556725775,-0.0,0.0,0.010140611431232424,0.0,0.0,0.0,0.0670126228560074,0.0,-0.0,0.0,-0.0,-0.020861664231478012,-0.0,0.0,0.0,0.0,0.0,0.0,-0.0,0.0,0.0,-0.04766075239917723,0.0,0.0,0.0,0.08561467640830198,0.0,0.0,0.0,0.0,0.0,-0.026990623499419678,0.0,0.0,0.0,0.0,0.0,0.0,0.0,-0.0,0.0,0.0,0.0,0.0,0.0,0.0,0.0,0.029626861090854273,0.0,0.0,-0.0,0.0,0.0,0.0
Gene-27,0.0,0.0,0.0,0.0,0.0,-0.0,0.0,0.0,-0.0,0.0,0.0,0.0,0.0,0.0,0.08193828935454693,0.0,0.0,0.0,0.0,0.009036371639083569,0.0,0.0,0.0,0.0,0.0,0.0,0.0,0.0,0.0,-0.042367126083941456,0.0,0.0,0.0,-0.0,0.0,-0.0,0.0,-0.0,-0.0,0.0,0.0,0.0,0.0,0.020665341751748677,0.0,0.0,0.0,-0.0,0.0,-0.0,0.0,0.0,-0.0,-0.0,0.0,0.0,0.0,-0.0,0.0,0.0,0.0,0.0,-0.006548849688033281,-0.0,0.0,0.004886479938896615,0.00387266752839113,0.0,-0.0,0.0,-0.0,0.0,0.0,0.0,0.0,0.007358951065646354,0.0,-0.006678170109096108,0.06620537813440792,0.0,-0.0,0.0,0.0,0.07865202440358922,0.0,-0.0,0.0,5.790236753062082e-05,-0.0,0.0,-0.030131943030204125,0.01275724957770658,0.021626571367022153,-0.014736959216613872,0.0,0.0,0.0,0.0,0.0,-0.0,-0.0,0.0,0.0,0.0,-0.0,0.0,-0.0,-0.0,0.0,0.0,0.08659867457917828
Gene-28,-0.0,-0.0,0.0,0.0,-0.0,-0.0,0.0,-0.0,0.0,0.0,-0.0,-0.021083797875884148,-0.0,0.0,0.0,0.0,0.0,0.0,0.0,-0.034883168081697384,-0.0,0.0,0.0,0.0,-0.0,-0.04954391458343838,0.0,0.0,0.0,0.0,0.0,0.0,-0.06431875637096257,0.0,0.0,0.0,-0.0,-0.0,0.0,-0.01901029137747619,0.0,0.0,-0.0,0.046217496390749346,0.0,-0.0,0.0,-0.04286432282601422,0.0,0.0,0.0,-0.05601950913009594,-0.0,-0.0,-0.034010331352258144,0.0,0.0,0.0,0.0,0.0,-0.0,0.0,0.0,0.0,0.0,0.0682839478321081,0.0,0.0,-0.0,-0.0,0.0,0.0,0.0,0.0,0.0,0.0,0.03213069760426415,0.06532178355655159,-0.006309861269868872,0.0,0.0,0.0,-0.0,0.0,0.0,0.0,-0.0,0.0,-0.0,0.0,0.0,0.0,-0.08874055714974444,0.0,-0.0,0.0,0.0,0.0,0.0,0.0,-0.0,-0.0,-0.06657014982776949,0.0,-0.0,-0.0,-0.010828495347387038,0.0,-0.037928783528765775,0.0,0.0
Gene-29,-0.0,-0.0,0.0,0.0,0.0,0.0,0.0,0.060565539111624545,-0.04564686046228087,-0.06774057694855656,0.0,0.0021867119761074284,-0.0,0.0,0.0,0.0,0.0,0.0,0.003710716874549165,0.0,0.0,0.0,0.0,-0.0,0.0,0.0,0.0,0.0,0.0,0.0,0.0,0.0,0.0,-0.0,-0.0,0.0,-0.0030458664069167303,0.0,0.0,0.0,0.0,0.0,0.0,0.0,0.0,0.0,-0.0,0.0,-0.0,-0.0,0.043155582010737506,0.0,-0.0,-0.0,0.0,0.0,0.0,0.0,0.0,-0.0,0.0,0.0,0.0,-0.0,0.0,-0.0,0.0,0.0,-0.0,0.0,0.0,-0.0,0.016487138736982612,-0.07597005998660362,0.0,0.0,-0.0,0.0071616702348856025,0.0,-0.0,-0.0,0.0,0.007851871703272556,-0.04138650694915229,0.0,-0.0,0.0,0.0,-0.048798221866748794,0.0,0.0,0.0,0.0,0.0,-0.0,0.0,-0.0,0.0,0.0,-0.0,0.0,0.0,-0.0,0.0,0.0,0.0,0.0,-0.0,-0.1141906028903091,-0.0,0.0
Gene-30,-0.0,0.0,0.0,-0.0,-0.0,0.0,0.0,0.0,0.008534057611311678,0.0,0.0,0.0,0.0,0.0,0.0,-0.0,0.00926577022302855,0.0,0.0,0.0,-0.0,0.0,0.0,0.0,0.0,-0.0,-0.0,0.0,-0.0,0.0,0.0,0.0,0.0,0.0,0.0,-0.0,-0.0,0.0,0.0,0.0,-0.0,0.0,0.0,-0.0351567987402336,-0.0,0.0,0.0,0.0,0.0,0.008595648579522957,0.0,-0.0,-0.0,-0.0,-0.0,0.0,0.0,-0.0,0.0,-0.0,-0.0,0.0,0.0,0.0,0.0,0.0,-0.0357225339375151,0.0,-0.0,0.0,0.0,-0.0,0.0,0.0,-0.0,0.0,0.0,-0.0,-0.0,0.04195012807960579,0.0,0.0,-0.027430651297126237,0.0,-0.0,0.0,0.0,0.0,0.0,-0.0045507676816583945,0.0,0.0,0.0,0.0,0.0,0.0,0.0,0.0,0.0,-0.0,0.0,0.0,0.0,0.0,-0.0,-0.0,0.0,0.0,0.0,-0.0,0.0
Gene-31,0.0,0.0,0.0,0.0,0.0,0.0,0.0,0.0,0.0,0.0,0.0,0.0,0.0,0.0,0.0,-0.04180660448281313,0.0,0.0,0.0,0.0,0.0,0.02691927424723148,0.0,0.0,0.0,0.0,0.0,0.0,0.0,0.0,0.0,-0.0,0.0,0.0,0.0,0.0,0.0,0.0,0.0,0.0,0.0,0.0,0.0,0.0,0.0,0.0,0.017696443119024796,-0.03555271033538963,0.0,0.0,0.016637776149791554,0.0,0.0,0.0,0.0,0.0,-0.05703294602455616,0.0,0.0,0.0,0.0,0.0,0.06550234326254259,0.0,0.0,0.0,0.0,0.0,0.0,0.0,0.0,0.14910784028366755,-0.01020722220587267,0.0,0.0,0.0,0.0,0.0,0.0,0.0,0.0,0.0,-0.0946834858879673,0.04812533491210276,0.0,0.0,0.0,-0.13069972560947551,0.0,0.0,-0.03511161273712066,0.0,0.0,0.0,0.0,0.0,0.0,-0.01851920422070239,0.0,0.0,0.0,0.0,0.0,0.0,0.0,0.0,0.0,0.0,0.0,0.0,-0.2040916348071065
Gene-32,0.0,0.0,0.0,0.0,0.0,0.0,0.0,0.0,0.0,0.0,0.0,-0.007037072907428965,0.0,0.0,0.0,-0.0,0.0,0.0,0.0,0.0,0.0,0.0,-0.0,0.0,-0.0,0.0,0.0,0.0,-0.0,0.0,0.0,0.0,0.0,0.0,0.0,0.0,0.0,0.0,0.0,0.0,0.0,0.0,0.0,0.0,0.0,0.0,0.0,0.0,0.0,0.0,0.0,-0.0,-0.0,0.0,0.0,-0.007130655106010041,0.0,-0.0,0.0,0.0,0.0,-0.0,0.0,0.0,0.0,0.0,0.0,0.0,-0.0050555844863914975,0.0,0.0,0.0,0.0,0.0,0.0,0.0,0.0,0.0,0.020411991664330473,0.0,-0.0,-0.0,-0.0,0.0,-0.0,-0.0,0.0,0.0,-0.0,-0.0,0.0,0.0,0.0,0.0,0.0,0.0,0.0,-0.0,-0.0,0.0,-0.0,-0.0,-0.0,0.0,0.0,0.0,0.0,0.009807133417587672,0.0,0.0,0.0
Gene-33,0.0,-0.0,0.0,-0.0,0.0,-0.0,-0.0,-0.0,-0.0,0.0,0.0,0.0,0.0,-0.0,0.0,0.0,0.0,0.0,0.0,-0.0,0.0,0.0,0.0,0.0,0.0,0.0,-0.0,-0.0,0.0,0.0,0.0,0.0,0.0,-0.029594880684350053,0.0,-0.0,0.0,-0.0,-0.0,0.0,0.0,0.0,0.0,-0.0,-0.0004643124564489238,0.0,-0.0,-0.0,0.0,0.0,0.0,0.0,0.0,-0.0,0.0,0.0,-0.0,0.008511969245098325,0.0,-0.010167814191197028,0.0,0.0,0.0,0.0,-0.0,0.0,-0.07577345987071431,0.0,0.0,0.0,0.0,-0.07074990615402009,-0.0,0.0,0.0,0.0,0.0,0.0,0.0,0.0,-0.0,-0.0,-0.0,-0.0,0.0,0.0,0.0,0.0,0.0,0.0,0.0,-0.0,-0.04994621264749853,-0.0,0.0,0.0,0.0,0.0,0.0,0.0,0.0,-0.0,0.0,0.0,0.0,-0.0,0.0,-0.0,-0.0,-0.0,0.0
Gene-34,0.0,0.0,0.0,0.0,0.0,0.0,0.0,0.0,0.0632412474390821,0.0,0.00324717711650768,0.0,0.0,0.0,0.0,0.0,0.0,-0.0,0.0,-0.0,-0.007092842747276649,0.0,0.0,0.0,-0.026897209365626316,0.0,-0.01517615965556742,0.0,0.0,0.0,0.0,0.0,-0.0,0.0,-0.0,0.0,0.0,0.0,-0.0,0.0,0.0,0.0,-0.0,0.0,0.0,-0.0,-0.0,-0.0,0.0,0.0,0.0,0.0,-0.011159319499605346,-0.0,0.0,-0.0,-0.0,0.0,0.1117495700150762,-0.0,-0.0,0.0,0.0,0.0,-0.0,0.0,-0.0,0.0,0.06354324301340757,0.0,0.0,0.0,0.0,0.0,0.0,0.0,0.0,0.0,-0.08882303350206387,0.0,-0.0,0.0,0.0,0.0,0.0,0.0,0.0,-0.046760461368322466,0.0,0.0,0.0,0.0,0.0,0.0,0.0,-0.0,0.0,0.0,0.0,-0.0,0.0,0.0,0.0,0.0,0.0,0.0,0.0,-0.0,-0.0,0.0,0.0
Gene-35,0.0,0.04294440605980078,-0.0,0.026914072123455472,-0.14019948418273703,-0.0,0.0,0.01319991199847291,-0.0,0.0,0.0,0.0,0.0,-0.0,0.0,0.0,0.0,0.0,0.0,0.0,-0.0,-0.0,0.0,-0.05496306824432738,0.0,-0.0,0.0,0.02287445306539769,-0.0,0.0,0.0,0.0,0.0,-0.0,0.0,0.0,0.0,0.0,0.0,-0.0,0.0,0.0,-0.0,0.0,0.0,0.0,0.0,0.0,-0.05282170883429299,0.009974424537117282,-0.0,0.0,0.0,0.0,0.0,0.0,0.0,0.0,0.0,-0.0,0.0,-0.07950779241179552,0.0,0.0,0.019724492762829213,0.0,0.0,-0.008215413809423755,-0.0,0.0,0.011573210949609574,0.0,0.0,0.0,-0.0,0.0,0.0,0.0,0.0,-0.03813972309855788,0.0,0.0,0.0,0.0,-0.0,0.07773691804629616,0.0,0.0,-0.0,0.0,0.0,0.0,0.0,-0.0,0.03551275826256878,0.0,0.0,-0.0,-0.0033209762229026783,0.0,0.0,0.0,-0.0,-0.13151335829165942,0.0,-0.0,-0.0,-0.0,0.0,-0.0,0.0
Gene-36,0.0,0.0,-0.0,0.0,0.0,-0.0,-0.0,0.0,-0.0,0.0,0.0,0.0,0.0,-0.0,-0.0,0.0,0.0,0.0,-0.08072880936185095,-0.01928477024790909,0.0,-0.010590330258369189,0.0,0.03223352122789681,0.0,0.0,-0.0,0.0,-0.0,-0.004272939165914346,0.0,0.0,-0.011124374451053132,0.0,0.0,0.0,0.0,-0.01611436636789277,0.0,0.0,-0.00551293041207666,0.0,0.0,0.0,0.0,0.0,0.0,0.0,-0.0,0.0,0.0,0.0,-0.0,-0.0,-0.0,0.0,0.0,0.0,0.0,0.07406218123311184,0.0,0.0,0.0,0.0,0.0,0.0,-0.0,0.0,0.0,-0.16901079384123788,0.10421461765618424,-0.0,0.02279928962677921,0.0,0.0,-0.0,-0.0,0.0,-0.0,-0.0,-0.0,0.0,0.032979613665879426,0.07070871917156686,-0.0,0.0,0.0,0.0,0.0,0.0,0.020039942106561216,-0.0,0.0,-0.0,0.0,0.0,0.0,0.0,0.0,0.0,-0.0,0.0,0.0,0.12813378130023492,-0.0,0.0,-0.0,0.0,0.0,0.0,0.0
Gene-37,-0.0,0.0,0.0,-0.0,0.0,-0.0,0.0,0.0,-0.0,-0.1802895965443829,0.0,0.0,0.0,0.0,0.0,0.0,0.0,0.0,0.0,-0.0,0.0,0.0,0.0,-0.0,0.0,0.0,0.0,-0.0,-0.0,-0.0,-0.010909908851714549,0.0,0.0,0.0,0.0,0.0,0.0,0.0,0.0,0.010231425417887793,0.0,0.0,0.0,0.0,0.0,-0.0,-0.0,0.047457103099227745,0.0,0.0,0.0,-0.0,-0.0,0.0,0.0,0.0,0.0,-0.12924717540847402,0.0,0.0,0.0,0.0,0.0,0.0,0.0,0.0,0.0,0.0,0.0,0.0,-0.0,0.0,-0.0,-0.0,0.0,0.0,0.0,-0.0,0.0,0.0,0.0,0.0,0.0,0.0,0.0,-0.0,0.014173875971136079,0.0,-0.0,0.0,0.0,0.0,0.0,0.0,0.0,0.0,0.0,0.0,0.0,0.0,0.0,0.0,-0.0,0.0,0.0,0.0,0.0,0.0,0.0,-0.0,0.0
Gene-38,0.0,0.0,0.0,0.0,0.0,0.0,0.0,0.0,-0.0,0.0,0.0,0.024805000994219208,0.0,0.0,0.0,0.04875998636386396,0.0,0.005212297602992124,0.0,0.0,-0.0,0.0,-0.0,-0.0,-0.0,-0.0,-0.0,-0.0,0.0,0.0,0.0,0.0,0.0,0.0,0.0,-0.0,0.0,0.0,0.0,0.0,-0.0,0.014373181930297088,0.0,0.0,0.0,0.0,-0.0,0.0,0.0,0.0,0.0,-0.0,-0.07159360098367847,-0.0,0.0,-0.0,0.0,-0.0,0.01493945201436401,0.0,0.0,-0.0,0.0,0.0,0.0,-0.0,-0.0,0.0,-0.0,-0.002365369797083288,-0.0,0.0,-0.0,0.0,0.0,0.0,-0.0,0.0,-0.0,0.041108958306735104,0.0,0.0,0.0,0.0,0.0,0.0,0.0,0.0,0.0,0.0,-0.06052303567109905,-0.07375242163949602,0.0,0.0,-0.0,0.0,0.0,0.0,0.0,-0.0,0.0,0.0,0.0,0.0,0.0,-0.0,0.0,-0.0,0.0,0.0,0.0
Gene-39,0.04986022050584415,-0.0,0.0,-0.0,0.0,-0.053977563339271215,0.0,0.0,0.0,0.0,0.0,0.0,-0.0,-0.0,0.0,0.0,0.0,-0.08229380027827728,0.0,-0.0,0.0,-0.0,0.016337607790405866,-0.0,-0.044609160035852885,-0.0,-0.0,0.0,0.0,0.0,0.0,0.062848462463721,-0.0,-0.09128001653732146,0.0,0.0,0.0,0.0,0.0,0.0,-0.0,0.0,-0.0,-0.07675866804473103,-0.0,0.0,0.0,-0.0,-0.0,0.0,0.0,0.0,0.0,0.0,0.0,-0.0,-0.0,0.0,0.0,-0.0,0.0,-0.0,0.0,0.0,0.0,-0.0,0.0,-0.0,0.0,0.0,0.0,-0.07835492466298773,-0.0,0.0,0.0,0.0,-0.0,0.0,0.0,0.0,0.0,0.022643252991464045,0.02553835550151193,0.0,0.0,-0.016359251724609204,0.006900674739030252,0.0,-0.04544840093368714,-0.0,0.0,-0.0,-0.0,0.0,0.0,-0.0,0.0,0.0,-0.0,0.0,-0.0,0.0,0.17693617677908902,0.0,-0.0,0.0,-0.0,0.0,0.0,0.0,0.0
Gene-40,-0.0,0.0,-0.0,0.0,-0.05935274289878522,-0.0,0.0,-0.0,0.0,0.0,0.0,0.0,-0.0,0.0,0.0,0.0,0.07536244395564069,-0.0,0.0,0.0,-0.026787417400916797,0.025788950680552813,0.0,0.004517032976474483,0.0,0.007761474980189187,0.0,-0.0,0.0,-0.0,0.0,0.0,0.0753350046770121,0.0,-0.0,0.0,0.0,0.0,0.0,0.0,0.0,0.0,0.0,0.0,-0.06268423724203592,0.0,-0.0,0.0,0.0,0.08180136520249602,0.0,-0.027819710735094105,0.0,-0.0,0.0,0.0,-0.003282702069414894,-0.0,0.0,0.0,0.014046188306399917,-0.0,0.0,0.0,0.0,0.0,0.0,0.0,0.0,0.0,0.0,0.0,-0.003243663223314041,0.007959490989233656,0.0,0.0,0.0,-0.007963597346501367,0.0,-0.0,0.0,-0.054196102915014456,-0.0,-0.0,-0.045131141389387314,0.0,0.0,0.0,0.0,0.0,0.0,0.0,-0.0,0.0,0.0,-0.0028756617148717094,0.0,0.0,-0.0,0.013401639771462769,0.0,-0.008429771705967603,-0.0,-0.02735944267068001,0.0,0.0,0.0,0.0,-0.0,0.0,0.0
Gene-41,0.0,0.0,0.0,-0.0,0.0,0.0,0.0,-0.0,-0.0,0.0,-0.0,0.0,-0.0,-0.0,0.0,-0.0,0.0,0.0,-0.022587501133388723,-0.011478360425646124,-0.0,-0.01620586700560451,0.0,0.0,0.0,-0.0,0.0,0.0,0.0,0.0,0.0,0.0,0.0,0.0,0.0,-0.0,0.003106467088839859,-0.0,-0.007082097971277488,0.0,0.0,0.0,0.0,0.0,0.0,0.0,0.0,0.0,0.0,0.0,0.0,0.0,-0.0,0.0,-0.0,0.0,0.0,0.0,0.0,0.0,0.0,0.0,0.0,0.0,0.0,0.0,0.0,-0.06017999419935437,0.0,-0.0,0.0,-0.0,0.0,0.0,0.0,0.0,0.0,0.0,0.0,0.04399780468884785,-0.0,0.0,0.0,0.0,0.0,0.0,-0.0,0.0,0.0,-0.0,0.0,0.0,0.0,0.05367237798155324,-0.0,-0.0,0.0,0.0,0.0,0.0,0.0,0.0,-0.0,0.0,0.0,0.0,0.0,-0.0,-0.0,0.0,0.0
Gene-42,0.0,0.0,-0.0,-0.0,0.0,0.0,0.0,-0.008127515074627405,0.0,0.0,-0.014972651137800407,0.0,-0.024565076514968347,0.0,0.0,0.0,0.0,0.0,-0.07759431348181156,0.0,-0.0,0.0,0.0,0.0,-0.0,-0.0,0.044663221267251196,0.0,0.0,-0.0,0.0,0.0,0.0,-0.0,-0.0,0.0,0.0,0.0,-0.0,0.0,0.0,0.0,-0.0,0.0,0.0,-0.0,0.08445327253056409,0.0,0.0,0.0,0.0,0.0,0.0,0.0,0.02227664782806498,0.0,-0.0,0.0,0.0,0.0010374290065717558,0.0,0.0,-0.0,0.0,-0.0,0.0,0.0,0.0,-0.012121467349317738,0.0,-0.0,0.0,0.0,0.0,0.0,0.0,0.0,-0.0,0.0,-0.0,0.0,0.0,-0.0,0.0,0.0,-0.0,0.0,-0.052253392182380703,0.0,-0.019803990961488348,0.0,0.0,0.0,-0.0,0.0,0.0,0.0,-0.08549466661555516,0.0,-0.0,-0.0,-0.0,-0.0,0.0,-0.05127030927644542,-0.0,0.0,-0.0,0.0,0.0,0.0
Gene-43,0.0,0.0,0.0,0.0,0.0,0.0,0.0,0.05481170762888317,0.0,-0.11133989514381615,0.0,0.0,0.0,0.0,0.0,0.0,0.0,0.0,0.0,0.0,0.0,0.0,-0.05643783965959864,-0.014139223070623576,0.0,0.0,0.0,0.0,0.0,0.0,0.0,0.0,0.0,0.0,0.0,0.07158143949821981,0.0,0.0,0.0,0.0,0.0,0.0,0.0,0.0,-0.023940575275578774,0.0,-0.0,0.0,-0.0,0.0,0.0,0.0,0.0,-0.006655398377316747,0.0,0.0,0.0,0.0,-0.07376663413364531,-0.0271294738416719,0.0,0.0,0.0,0.0,0.0,0.0,0.0,-0.06279739558921901,0.0,0.0,0.0,0.0,0.0,0.0,0.0,0.0,0.0,0.0,0.0,0.0,0.0,0.0,0.0,0.0,0.0,0.0,0.0,0.0,0.0,0.05958364996150867,0.0,0.0029100007885898248,0.0,0.0,-0.07054658160636644,0.0,0.0,0.0,0.010655233159237151,-0.07058218408671543,0.0,0.0,0.0,0.21551038594754834,0.0,0.0,0.0,0.0,0.0,0.0,0.0
Gene-44,0.0,-0.02875835061899333,0.0,-0.0,0.10115682200258795,0.0,-0.0,0.0,0.0,0.0,0.0,0.0,0.04130020639597403,-0.0,0.0,-0.02352697485914733,0.0,0.0,0.0,0.0,0.0,0.0,0.0,0.0,0.0,0.035958170965547986,0.0,0.0,0.0,-0.0,0.0,0.0,0.0,0.0,0.0,0.0,0.0,0.0,-0.0,0.0,0.0,0.0,0.019601303004595165,0.0,0.0,0.014186997582362686,0.0,0.0,0.0,0.0,-0.0,-0.0,0.0,0.0,-0.0,0.0,0.0,0.0,0.0,0.0,0.0,0.0,0.0,-0.024728119751046523,0.0,-0.0,-0.0,0.04954963909070026,0.0,0.0,0.0,0.0,0.0,0.0,-0.0,-0.0,-0.0,-0.0,0.0,-0.0,0.0,-0.0,0.0,0.0,0.0,0.0,0.0,0.0,0.04436995715308634,0.0,0.0,-0.007017259302575588,0.0,-0.0,0.0,-0.0,0.0,0.0,-0.0,0.0,-0.0,-0.12062634532246658,0.0,0.0,-0.0,0.0,0.0,0.06811608519566488,0.0,-0.0,0.0
Gene-45,0.0,-0.0,-0.0,0.0,0.0,0.0,0.0,-0.0,0.0,0.0,0.0,0.0,0.0,0.0,0.0,0.0,0.0,-0.0,0.0,-0.0,-0.0,-0.008822615298455634,0.0,-0.0,0.0018735852051115812,0.0,0.0,0.0,0.0,0.0,0.0,0.0,-0.0,-0.0,-0.0,0.0,0.0,0.0,-0.0,0.0,0.0,0.0,-0.0,0.0,0.0,0.024242660932027732,-0.0,0.0,0.0,0.0,0.0,0.0,0.0,0.0,-0.0,-0.0,-0.0,-0.0,0.037074259731123146,-0.0,0.0,0.0,0.0,0.002168077879178754,0.01425856426160254,0.0,-0.0,0.0,0.0,0.0,0.0,0.0,0.0,0.0,-0.0,-0.0,-0.021886311766867464,0.0,0.0,0.0,-0.0,-0.0,0.0,-0.0,-0.0,0.0,0.0,0.0,0.0,-0.04412565335791781,0.0,-0.0,0.0,-0.01909829041846662,0.0,-0.011962946843184285,-0.0,0.0,0.0,0.0,-0.0,-0.0,0.0,0.0,-0.0,-0.0,0.0,0.0,0.0,-0.0,0.0
Gene-46,0.0,0.0,0.0,0.0183505494216592,0.0,0.0,0.0,-0.0,0.0,0.0,0.0,0.0,-0.0,-0.0,0.0,0.0,0.0,0.0,0.0,0.0,-0.0,0.0,0.0,-0.0,0.0,-0.0,0.0,-0.0,-0.0,0.0,0.0,0.0,0.0,0.0,0.0,0.0,-0.0,0.0,0.0,0.0,0.0,0.0,0.0,0.0,-0.0,0.0,0.0,0.0,-0.0006848639692561966,0.0,0.0,-0.06934164697918914,0.0,0.0,0.0,0.0,-0.0,-0.0,0.0,0.0,0.0,0.0,-0.0,-0.0,0.0,0.0,0.0,0.0,0.0,-0.0,0.0,0.0,0.0,-0.0,-0.0,0.0,0.0,0.051488546730160574,0.0,0.07332489933934196,0.0,0.0011070200062559146,0.0,-0.043168523164094794,0.0,0.0,0.0,0.0,-0.0,0.016115695740459825,0.0,0.0,0.0,0.09206727279338257,0.0,0.0,0.0,-0.0,0.04500640264765685,0.0,0.0,-0.0,0.0,0.0,0.0,0.0,0.0,-0.0,-0.024793250767172162,-0.0,0.0
Gene-47,0.04945953950808606,0.0,0.0,0.0,-0.0,0.0,-0.0,0.0,-0.0,0.0,0.0,0.0,-0.0,0.0022015846172107334,-0.030990474570927483,0.0,0.0,0.0,0.0,0.0,0.0,0.0,0.0,0.0,0.0,0.0,0.0,0.020381339187279413,0.0,0.0,0.0,0.0,-0.02282896489495677,-0.02324349435117821,0.0,0.0,0.0,-0.03372539805775597,0.0554546110367927,-0.0,0.0,0.0,0.0,0.0,0.021257555218597415,-0.0015457418778407057,0.0,0.0,0.0,0.0,0.0,-0.0,-0.0,0.0,-0.0,0.00978634156529081,0.0,-0.0,0.0,0.0,0.0,0.0,0.0,-0.0,-0.0,0.0,-0.0,0.09613392242055578,0.0,0.0,0.0,0.0,-0.014538406439302057,-0.0,0.0,-0.0,-0.03954232637548199,0.0,0.0,0.0,0.0,0.0,0.0,-0.01845293611256715,0.0,0.0,0.0,0.0,0.0,0.0006005319259271435,0.0369717304966396,-0.0,0.0,0.0,0.0,0.0,0.0,0.0,0.0,0.15338615587752807,-0.0,0.0,0.0,0.0,0.0,0.0,-0.0,0.0,-0.0,0.0,0.0
Gene-48,0.0,0.0,0.0,0.002517323932881451,0.027210996813900653,0.0,0.0,-0.0,-0.006525906460681478,0.0,0.0,0.0,0.0,-0.0,0.0,-0.0,0.0,-0.0,0.0020819836363109648,0.0,0.0,0.0,0.0,-0.0,-0.1137969541680311,0.0,0.0,-0.0,0.0,0.0,0.0,0.0,-0.031188125921905133,-0.015197897639954576,0.0,0.0,0.0,0.0,-0.031147681035237282,0.0,0.0,0.0,-0.0,0.0,0.0,0.02639213523487984,0.0,0.0,0.0,0.0,0.0,0.0,0.0,0.0,0.0,0.0,0.0,0.0,0.0,0.0,0.0,-0.0,0.045456481781773896,-0.0,0.0,0.0,0.0,0.03163903601737407,0.0,0.0,-0.0,0.028666426800101532,0.036306144643718154,0.0,0.0,0.0,0.0,0.0,0.0,-0.0,-0.09601389675500607,-0.08053545054075405,0.0,0.0,0.0,-0.04320761509238527,0.0,0.0,0.0,0.09325686815710095,0.0,0.0,0.0,0.1157121967614126,-0.0,0.0,0.0,0.0,0.0,-0.0,-0.0,0.0,-0.0,0.0,0.0,0.0,0.0,0.0,0.0,0.0,0.0
Gene-49,-0.0,-0.0,0.0,-0.1140584988199854,-0.0,0.0,0.0,0.030286153522479285,-0.0,-0.11856060457346251,-0.0,0.0,0.0,0.0,0.0,-0.0027450395036549198,0.0,0.0,0.0,0.0,0.0,0.0,-0.005427492159995943,0.0,0.0,-0.0,0.0,0.0,-0.009003026523741933,0.0,0.0,0.03875505634509959,0.05424851930854758,0.0,-0.0,-0.0,0.0,0.0,-0.0,0.0,0.0,0.0,-0.0,0.0,0.0,-0.0,0.03126211208468909,0.059084833818964004,0.0,0.0,0.0,0.0,0.0,0.0,0.0,-0.002743822349158598,-0.0,0.0,0.0,0.0,0.0,0.0,0.0,0.0,0.0,-0.042693885032223676,0.0,0.0,0.0,0.0,-0.09680905468362455,0.0,0.0,0.0,0.0,0.0,0.0,0.0,-0.0,0.0,-0.024903700641131312,0.0,0.0,0.0,0.0,0.0,-0.0,0.0,0.0,0.0,0.0,0.0,0.0,-0.0,-0.02856991714134207,0.017730427875573686,0.0,-0.0,0.0,0.0,-0.0,0.0,-0.09257999023329799,0.0,-0.0,-0.0,0.0,0.0,0.0,-0.0,0.0
Gene-50,-0.0,0.0,0.0,0.0,0.0,0.0,0.0,0.0,-0.03370182177082987,0.0,0.0,0.0,0.10924443976414332,-0.0,0.0,0.0,0.0,0.0,0.0,0.0,0.0,0.0,0.0,0.0,-0.0,-0.0,-0.0,0.0,-0.0,0.0,0.0,0.06266391510549085,0.0,0.0,0.0,0.0,0.0,0.12119810523517463,0.0,0.0,0.0,0.0,0.0,0.07495381221757812,0.0,0.0,0.0,0.0,0.0,0.0,-0.002287560782424056,-0.0,-0.0,0.0,0.0,0.0,-0.0,0.0,0.030661377805301142,0.02658625603578665,0.0,-0.0,0.0,0.0027337805609488216,-0.0,-0.0,0.0,0.0,0.024619221939342226,0.0,0.0,-0.0,0.0,0.0,0.0,-0.02287093121205541,0.0,0.0,0.0,0.0,-0.0,0.07969098941276548,0.0,-0.0,0.0,0.0,-0.0,0.0,0.0,-0.04693983038277253,0.0,-0.0,0.0,-0.016853009377456298,-0.0,0.0,0.0,-0.0,-0.0,-0.0,0.0,-0.0,-0.0,0.0,-0.0,0.0,0.0,-0.0,0.0,0.0,0.04714318075315908
Gene-51,-0.0,0.0,-0.0,0.0,0.0,0.0,0.0,0.0,-0.0,0.0,0.0,0.0,0.0,0.0,0.0,0.0,0.0,0.0,0.06261723718128925,0.0,0.0,0.0,-0.0,-0.0,0.0,0.0,0.0,0.0,0.0,-0.0,0.0,0.0,0.0,0.0,0.0,0.0,0.0,-0.000730747772941079,0.0,0.004827315110468321,-0.0,0.1166135743456539,0.0,0.0,0.0,0.0,0.0,0.0,0.02505198464140531,-0.0,0.0,0.007740943411694003,0.0,-0.0,0.0,0.0,0.0,-0.006681874751061666,0.0,0.0,-0.0,0.0,0.0,-0.0,0.0,-0.0,0.0,0.0,0.0,0.0,0.0,-0.0,0.0,0.0,0.0,0.0,-0.0,0.0,0.0,0.0,0.0,0.0,-0.0,-0.011069049699136482,0.0,0.0,0.0,0.0,0.0,0.0,0.0,0.0,-0.0,0.0,0.0,0.042903252400006586,0.0,0.0,-0.0,0.0,0.0,0.0,0.0,0.0,0.0,-0.0,0.0,0.0,-0.0,0.0,0.0
Gene-52,0.0,0.0,0.0,0.0,0.0,0.003050687141095021,0.0,0.0,0.0,0.0,0.0,-0.0778693858578483,0.0,-0.011978703135586398,0.0,0.0,0.0,0.0,0.09440809643300635,0.0,0.0,0.0,-0.009417981509236858,0.0,0.0,0.0,0.0,0.0,0.10505566531718907,-0.12555911770457243,0.0,0.0,0.0,0.0,0.0,0.0,0.0,0.0,0.0,0.0,0.0,0.13396036333764647,0.0,-0.0828060261263365,0.0,0.0,0.0,0.0,0.0,0.0,0.0,0.0,-0.014650756338146786,0.0,0.0,0.03117165034842343,0.0,0.0,0.0,0.0,-0.05042469706423819,0.0,0.031883677855691434,0.0,0.0,0.0,0.0,0.07825927098293825,0.0,0.0,0.0,0.0,-0.05239465507015792,-0.00026332492286040214,0.0,0.0,0.0,0.0,0.0,0.0,0.0,0.0,0.0,0.0,0.0,0.0,0.0,0.0,0.0,-0.009962046593519049,0.0,-0.06289877535080916,0.0,0.0,0.0,0.0,0.0,0.0,-0.005906092731414662,0.0,0.0,0.0,0.0,0.0,0.0,0.0,0.0,0.0,0.0,0.0,0.0
Gene-53,0.0,-0.0,-0.0,-0.0,0.0,0.0,-0.0,-0.0,0.020226394418875436,0.0,-0.0,0.0,-0.04101811193321722,0.0,0.0,0.0,0.0,0.0,0.0,0.0,0.0,0.015228301266828568,0.0,0.0,0.0,0.0,-0.0,-0.0,-0.0,-0.0,0.0,0.0,0.0,-0.0,0.0,-0.008361851566420539,0.0,-0.0,0.0,0.0,-0.048157996954690495,0.0,0.0,-0.0,0.0,0.0,-0.015197126925077235,0.0,0.0,-0.0010251095030084027,0.0,0.0,0.0,-0.06064712986109755,0.09944097193941653,0.0,-0.0,-0.0,0.0,0.0,0.001196825731931261,0.0,-0.0,0.0,-0.0,-0.0,-0.0,-0.0,-0.0,-0.0,0.00852422531260831,0.0,0.0,0.0,-0.0,-0.0,-0.0,-0.0,0.0,0.0,0.010323309388811173,0.0,0.0,0.0,-0.0,0.0,0.0,0.0,-0.0,-0.010472406665161114,-0.05505436795230036,0.0,0.0,-0.0,0.0001699629862176351,0.0,-0.0,-0.0,0.0,-0.0,-0.0,-0.0,0.0,0.0,-0.007455780349478446,-0.0,0.0,0.0,0.0,0.0,0.0
Gene-54,-0.0,-0.0,0.0,-0.0,0.0,0.0,-0.0,0.0,0.0,0.0,0.0,0.0,-0.0,0.0,-0.0,0.0,0.0,0.0,0.0,-0.0,0.0,0.0,0.0,0.1266290185495359,0.0,0.0,-0.0,-0.0,-0.0,-0.012500909407686013,0.09479004651677721,0.0,-0.0,0.0,0.0,-0.096749765792419,0.0,-0.08438052743439028,0.0,0.0,0.0,0.0,-0.0,0.0,0.0,0.0,0.0350104218699557,0.0,0.0,0.0,-0.0,0.0,-0.0,0.0,0.0,0.0,1.8143310672484275e-05,0.006000891913014154,0.0,0.0,0.0,-0.008656468417971585,0.0,-0.0,0.0,0.03703279060833888,0.0,0.0,0.0,0.0,0.0,0.0,-0.0,0.0,0.0,0.0,-0.0,-0.0,-0.0,0.0,-0.0046453887453669195,-0.0,-0.0,-0.0,-0.0,0.057560519339415604,-0.0,0.0,0.0,0.0,0.0,0.0,-0.0,0.0,0.0,0.006289276394859386,0.0,0.0,0.05473250681449928,0.0,0.0,-0.0,-0.0,0.0,0.0,0.0,0.0,0.0,0.0,0.0,0.0
Gene-55,-0.0,0.0,0.0,0.0,0.0011555464994551705,0.0,0.0,-0.0,-0.0,0.0,-0.0,0.0729394964096978,0.0,-0.014452700542825795,0.0,0.0,-0.059465748137878624,-0.0007697048913263256,0.0,0.0,-0.0,0.0,-0.0,0.0,0.0,-0.0,0.0,-0.0,0.0,-0.0,0.0,0.0,0.008792650817619353,0.0,0.0,-0.03581057209161874,0.0,0.0,0.0,0.0,-0.0,0.0,0.0,-0.11533478050801402,-0.08167851462548006,0.0,-0.04095594648371828,0.0,0.0,-0.0,0.0,0.0,0.0,0.0,0.0,0.005163921226169245,0.0,0.03176041908150038,0.010670001997862296,0.0,0.0,-0.0,-0.0,0.0,0.0,0.0,-0.0,-0.0,0.0,0.0,0.0,-0.0571414686232996,0.0,0.0,0.0,-0.0,0.0,0.0,-0.0,-0.0,0.0,-0.0,0.0,-0.04175133956548182,0.0,-0.0,-0.0,0.0,0.0,0.0,0.0,0.0,0.0,-0.0,0.0,-0.0,0.0,-0.0,0.0,0.0,0.0,-0.0,-0.0,0.0,0.0,0.0,0.0,-0.0,0.0,-0.0,0.0
Gene-56,0.0,0.0,0.0,0.0,0.0,0.0950479317551882,0.0,0.0,0.0,0.15683476870164315,0.0,0.0,0.040100169559769264,0.0,0.0,0.0,0.0,0.0,0.0,-0.020422314672462135,0.0,0.0,0.0,0.0,0.0,0.0,0.0,0.0,0.0,0.0,-0.11117119648696167,0.0,0.0,0.0,0.0,0.0,0.0,0.0,0.0,0.0,-0.00961787103321166,-0.10062260179077845,0.0,0.0,-0.16026382132408362,0.0,0.0,0.0,0.0,0.0,0.0,0.0,0.0,0.0,0.0,0.0,0.0,0.002115103200785687,0.03648238172359054,0.015408385470398595,0.0,0.0,0.0,0.05262782675302212,0.017490910173023476,0.0,0.0,0.0,0.0,0.0,0.0,0.0,0.0,0.0,0.0,0.0,0.0,0.0,0.0,0.0,0.0,0.07246766619840389,0.0,0.0,-0.04206274923217625,0.0,0.0,0.0,0.0,0.0,0.0,0.0,0.0,-0.01763795653585585,0.0,0.0,0.0,0.0,0.0,0.0,0.0,0.0,0.0,0.0,0.0,0.0,0.0,0.0,0.0,0.0,0.0
Gene-57,0.1865722012795663,0.0,0.0,0.0,-0.18577371661930087,0.0,-0.006131609672002004,0.0029854469545545935,-0.004752949744558487,-0.03156398999954778,0.0,0.0,0.0,0.0,0.0,0.0,0.0,0.0,0.0,0.0,0.0,-0.0,-0.0,0.0,0.0,-0.0,0.0,0.0,0.0,0.0,0.0,0.0,-0.06205977750360029,-0.0,0.0,0.0,0.1807760732503435,-0.0,-0.0,-0.0,0.0,0.0,0.0,0.0,0.0,-0.0,0.0,0.0,-0.0,-0.0,0.015638248911615346,0.0,-0.0,0.0,0.0,0.0,0.0,-0.0,0.0,-0.0,-0.02473279224951581,-0.0,0.0,0.0,0.0,0.0,0.0,0.0,0.0,-0.0,0.0,0.0,0.0,0.0,0.0,0.0,0.0,0.0,0.0617619144518039,0.0,-0.0,0.0,0.0,0.0,0.0,0.0,0.0,0.0,-0.0,-0.0,0.0,-0.0,0.0,-0.0007136697633271641,0.0009902283035484209,-0.126702858274394,0.0,0.0,-0.029102852528626776,-0.0,0.0,0.0,-0.0,0.0,0.0,0.0,-0.0,-0.0,0.0,0.0,0.0
Gene-58,0.0,0.0,0.0,-0.0,0.0,0.0,0.0,-0.0,0.0,-0.0,-0.0,0.0,0.0,-0.0,-0.0,0.0,0.0,0.0,0.0,-0.005448948479944341,0.00718640328838295,0.0,0.0,0.0,0.0,-0.0,-0.0,0.0,0.0,0.0,0.0,0.0,0.0,0.0,-0.0,0.0,0.0,-0.0,0.0,-0.0,0.04037582296694583,0.0,0.0,0.0,0.0,-0.0,0.0,0.0,0.0,0.0,-0.0,0.0,-0.0,0.0,0.0,0.0,-0.027496080279991744,0.0,0.0,0.0,0.0,-0.0,0.0,-0.0,0.0,-0.0,-0.0,0.0,0.0,0.0,0.0,0.0,-0.0,0.0,0.0,-0.05387637557156012,0.0,0.0,0.01716756694520507,0.0,0.0,0.0,0.0,0.0,-0.0,0.05445783344836463,0.0,0.0,0.0,0.0,0.0203919647739211,0.0,-0.0,0.0,-0.03358806802604142,0.005365122337004176,0.0,0.0,-0.03237109221258613,-0.0,-0.0,0.0,-0.0,0.007780194149823574,0.0,0.0,0.0,0.0,0.0,0.0,0.0
Gene-59,0.0,0.0,0.0,0.0,0.0,0.0,0.0,0.0,-0.0,0.0,0.0,0.0,0.0,0.0,0.0,0.0,0.0,0.0,0.0,-0.0,-0.030896196546459906,-0.0,0.0,-0.01125732324545838,0.0,0.0,-0.0,-0.0,0.0,0.0,0.0,0.0,0.0,0.0,-0.0,0.0,0.0,0.0,0.09937260149485175,0.0,-0.014400574919280073,0.0,-0.0,0.0,0.0,0.0,-0.0,0.0,0.0,0.0,-0.06451203962269089,-0.0,-0.0,0.0,0.0,0.0,0.0,-0.03686213256379155,0.0,0.0,-0.0,-0.0,-0.0,-0.0,-0.0,-0.0,0.0,0.0,-0.006102370292285662,0.0,0.0,0.0,0.0,0.0,-0.0,-0.0008241303706765127,0.0,0.0,0.0,0.0,0.0,0.0,-0.0,0.0,0.0,0.0,0.0,0.0,0.0,0.0,0.0,0.0,0.0,0.0,0.0,0.0,0.0,0.0,0.0,0.0,0.0,0.0,0.0,0.0,-0.0,-0.0,0.0,-0.0,0.0,-0.0,0.0
Gene-60,0.0,0.0,0.0,0.0,0.0,-0.0,0.0,0.0,0.0,0.0,-0.0,0.0,0.0,0.0,0.0,0.0,0.018306364972683845,0.0,0.0,0.0,0.0,0.0,-0.0,-0.0,0.0,0.0,0.0,0.0,0.0,-0.0,0.0,0.0,-0.0,0.022999369522218906,0.04439989227743603,0.0,-0.0,0.0,-0.04181048360700809,0.0,0.0,0.0,0.0,0.0,-0.0,0.0,0.0,-0.0,-0.0,0.0,0.0,0.0,0.0,0.0,0.0,0.0,-0.09490849612970935,0.0,0.0,0.0,-0.0,0.0,0.0048086127629331935,-0.022759141351793716,0.0,0.0,-0.033438241071236,0.0,0.0,0.0,0.0,0.07675555204127649,0.0,-0.04708420171048128,-0.00253465422457359,0.0,0.0,-0.0,-0.09645279738155403,0.02526242782742899,0.0,0.0,0.0,0.0,0.0,0.0,0.0,-0.023233023529710184,0.0,0.0,0.0,0.0,0.0,0.0,0.0,0.0,0.0,0.0,0.0,0.0,-0.0,0.0,-0.0,0.0,0.0,-0.0,-0.0,0.0,0.0,0.0,0.0
Gene-61,0.0,0.0,0.0,0.0,0.0,0.0,0.0,0.0,-0.0,-0.05602350008346689,0.0,0.0,0.0,-0.0,0.0,0.0,0.0,0.0,0.0,0.0,-0.014003839503904774,-0.02149486765991191,0.0,0.0,-0.0,0.0,0.0,-0.0,0.0,-0.0,0.0,0.0,0.005564432545954861,-0.0,0.0,0.0,0.0,0.0,0.0,0.0,0.0,0.0,0.0,-0.0,0.0,0.10084307383414225,0.0,0.0,-0.0,0.0,-0.0,-0.0,0.0,0.0,0.0,0.0,0.0,0.0,0.0,0.0,0.0,0.0,0.0,-0.017108977820318068,-0.0,-0.0,0.0,0.0,0.0,0.0,0.0,0.0,0.06556333055979424,0.0,-0.00982376016958241,-0.0,0.0,0.0,0.0,0.0,-0.0,-0.050642226465613754,0.0,-0.0,-0.0,-0.0,0.0,0.0,-0.0,-0.0,0.0,0.0,-0.0,-0.0,0.0,0.0,0.0,0.0,0.0,0.0,0.0,0.0,0.0,0.0,0.0,0.0,0.0,-0.0,-0.0,-0.0,-0.0018827756782137176
Gene-62,0.01923651992054576,0.0,-0.0,0.0,0.0,-0.0,0.0,0.013181019107616876,0.0,-0.0,0.002088478018826844,0.0,-0.0,0.0,-0.0,0.0,-0.10349843846786383,-0.0,0.04943772961273331,0.0,0.0,-0.07944655385413994,0.0,-0.0,0.0,-0.0,0.0,0.0,0.0,0.0,-0.06229472103350061,0.0,0.0,0.0,-0.0,0.0,0.0,0.0,-0.0072567745160084345,-0.0,-0.0,0.0,0.0,0.0,0.0,0.0,0.0,-0.035263172769951216,0.0,-0.0,0.0,0.13199926139146137,0.0,0.0,-0.0,0.0,0.0,-0.0,0.0,0.0,0.0,0.0,0.0,0.0,0.0,0.0,0.0,0.0,0.0,-0.0428833315891749,0.0,0.0,-0.041378618006305434,0.0,0.0,0.0,0.0,0.0,-0.0,0.0,-0.0,0.0,-0.0,0.0,0.0,-0.0,-0.04837623806285809,0.0,0.0,0.0,0.0,-0.0,-0.0,0.0,-0.0,-0.0,0.0,0.0,0.03260347639834434,0.0,-0.0,-0.0,0.0,0.0,-0.0803639388421826,-0.0,-0.0,-0.0,0.0,-0.0,0.0
Gene-63,0.0,0.0,-0.0,0.029254228599965983,0.0,0.0,-0.0,-0.0,0.05321955158855201,0.0,0.0,0.0,0.0,-0.0,0.0,0.0,-0.09208853877965402,0.0,0.0,0.0,0.0,0.0,-0.0,0.0,-0.0025795025403841884,0.0,-0.0,0.0,-0.0,0.0,0.0,0.0,0.004269235385438386,0.0,0.0,0.0,0.0,0.0,0.0,0.010760387183314424,0.0,0.04837230203239522,0.0,0.0,0.0,-0.0,0.04936596928960681,0.0,0.0,0.0,0.0,0.0,-0.0,-0.047827387155473286,-0.0,0.0,0.0,0.0,0.0,0.0,0.0,-0.0,0.0,0.0,-0.0,-0.011055812021830784,-0.0,-0.0,0.0,0.016081839811161527,-0.0,-0.034609200781331464,-0.0,0.0,-0.0,0.14690899120710246,0.0,0.0,-0.0,0.0,0.0,-0.0,-0.0,0.0,0.0,-0.0,0.0,0.0,0.0,0.0,0.0,0.0,0.0,0.0,-0.04338235591829108,0.0,0.05640375637229818,0.0,0.0,-0.04126487691999213,-0.0,0.0,0.0,0.0,-0.0,-0.10106122867069313,0.0,0.0,0.0,-0.0,0.0
Gene-64,0.0,0.0,0.0,0.0,0.0,0.0,0.0,0.0,0.0,0.0,-0.0,0.0,-0.0,-0.0,0.0,0.0,0.0,-0.0,0.0,-0.0,-0.0,0.05529959337035791,-0.0,0.0,0.0,0.0,-0.0,0.0,0.0,0.0,0.0,0.0,0.0,0.0,0.0,0.0,0.0,0.0,0.0,0.0,0.0,0.0,-0.0,-0.0,0.0,-0.018088877774267598,0.026521980890462954,0.0,0.0,-0.0,-0.018017771585387383,-0.0,0.0,-0.04737998727233515,0.0,0.0,0.0,-0.0,0.0,-0.0,0.0,0.0,0.0,0.0,-0.0,0.0,-0.0,0.0,0.0,0.0,0.0,-0.04737571919016224,0.0,0.0289223353449913,-0.0597689764800884,-0.0,-0.0,0.0,0.0,0.0,0.0,-0.0,0.0,-0.0,0.0,0.034723697064751174,0.0,-0.028153395283947807,0.0,-0.0,0.0,-0.0,0.0,0.0,0.0,0.0,0.03697940172665112,0.0,0.0,-0.029535193214349578,-0.0,-0.0,-0.0,0.0,0.0,-0.0,-0.0,0.0,-0.0,0.0,0.0
Gene-65,0.0,0.0,0.0,0.0,0.0,0.0,0.0,0.0,0.0,0.0,0.0,0.0,0.0,-0.0,0.0,0.0,-0.1176761050724186,0.0,0.0,0.0,0.0,0.0,0.0,0.0,0.0,0.0,0.0,0.0,0.0,0.0,0.0,0.0,-0.11097087551402533,-0.029652058217983533,0.0,0.0,0.0,0.0,0.0,0.0,0.0,-0.018074572653624908,0.0,0.0,0.0,0.0,0.0,0.0,0.0,-0.07773750967527086,0.0,0.0,0.0,0.0,0.0,0.0,0.0,0.0,0.0,0.0,0.0,0.02319328265114998,0.0,0.0,0.0,0.0,0.0,0.0,-0.008700985400872871,0.009719345173718773,0.0,0.0,-0.0,0.0,0.0,0.0,0.0,0.012411805012014856,0.0,0.0,0.0,0.0,0.05578836161644257,0.0,0.0,0.0,-0.03422915306026708,-0.110155957189446,0.0,0.0,0.0,0.0,0.0,0.0,0.0,0.0,-0.0,0.021198352834184604,0.0,0.0,0.0,0.0,0.10855656978835547,0.20142590394671483,0.0,0.0,0.0,0.0,0.0,0.0,0.0
Gene-66,0.0,-0.0,0.0,-0.0,0.08793986584591804,-0.0,0.002630468751721524,0.0,-0.0,-0.0,0.0,0.13453765079401908,-0.0,-0.010081080820735822,0.0,0.0,0.0,0.0,0.0,0.0,0.0,-0.0,0.0,-0.0,0.0,-0.05166021238756388,-0.0,0.0,-0.0,-0.0,-0.024558932077116073,0.013930541211029553,0.0,0.0,0.0,-0.0,-0.0,0.0,-0.04161764773656263,0.0,0.0,0.0,0.0,-0.0,0.0,0.0,0.0,0.0,0.0,-0.0,-0.0,0.0,-0.0,0.0,0.0,-0.0,0.0,0.0,-0.06121053033197476,0.0,-0.0,0.0,-0.0,0.0,-0.0013632761251911039,0.0,-0.0,0.0,-0.028347212932575003,0.0,0.0,0.0,-0.020992254845526706,0.0,0.0,0.0,-0.0,0.0,0.0,0.0,0.0,-0.0,0.0,0.0,-0.0,0.0,0.017549953357753563,0.0,-0.029916803133072458,-0.0,0.0,0.0,-0.004776117211948247,0.002306676078257374,0.0,-0.0,0.0,0.0,0.0,-0.0,-0.0,0.0,0.0,0.0,0.0,0.0,0.0,-0.0,0.0,-0.0,0.0
Gene-67,0.0,-0.0,0.0,0.0,0.0,-0.0,-0.0,0.0,-0.012260982662381594,0.0,0.0,0.0,0.0,-0.0,0.0,0.0,0.0,0.0,0.0,0.0,-0.0,0.0,-0.0,0.0,-0.0,0.0,0.0,-0.0,0.0,-0.0,-0.012106951424784466,0.027230649942497402,-0.0,-0.0,0.0,0.0,0.0,0.09951439145424056,0.0,0.0,0.0,0.0,0.0,0.0,-0.045554646684733226,0.0,-0.0,0.0,0.0,0.0,0.0,-0.0,0.0,0.0,-0.0654931659779092,0.0,0.0,-0.025007828206114698,0.0,0.0,0.0,0.0,-0.0,0.0,0.0,-0.0,0.0,0.0,0.0,-0.0,0.0,-0.0,0.0017166039981798913,-0.0,-0.0,-0.007207503746393182,0.0,0.0,0.0,0.0,0.010226956753421312,0.09702692981437074,0.0,0.0,0.0,0.0,0.0,0.0,0.0,-0.0,0.0,0.0,0.0,0.0,-0.0,0.0,-0.0,-0.0,0.0,0.0,0.0,-0.0,0.0,0.0,-0.0,0.0,0.0,0.0,0.0,-0.0,0.0
Gene-68,0.0,0.0,-0.0,0.0,-0.0,0.0,0.0,0.0,0.0,0.0,0.0,0.0,0.0,0.0,0.0,0.0,0.0,0.0,0.0,0.0,0.0,0.04195417688951671,-0.0010255292286172845,0.0,-0.048754082630816764,0.0,-0.0,0.0,-0.0,0.0,0.0,-0.07997898988096386,0.0,0.0,-0.0,0.0,-0.024252316032337316,0.0,-0.006493900194728563,0.0,-0.0,0.0,-0.0,0.0,0.0,0.0,0.0,0.0,0.0,0.015153054610233972,0.0,0.0,-0.0,0.0,0.0,0.005919614998459088,0.0,0.0,0.05580996421906132,0.0,0.02095699824046119,0.0,-0.0,0.0,-0.0,-0.0,-0.0,0.0,0.0,-0.0,-0.0,0.0,0.0,0.0,0.0,0.0,-0.01211078197591988,0.0,0.0,0.0,-0.0,0.0,-0.03732482724665232,0.0,-0.0,0.0,0.0,0.0,-0.0,-0.0,0.0,0.0,0.07770212562345939,-0.0,-0.0,-0.0,-0.0,0.0,0.0,-0.0,0.0,-0.0,-0.0,0.0,-0.0,0.0,0.0,-0.041926308758221544,-0.0,0.0,0.0
Gene-69,0.0,0.0,-0.0,0.0,-0.0,-0.0,0.0,-0.0,0.0,0.046959006741813164,0.0,0.0,-0.0,0.0,0.0,0.0,0.0,0.0,0.0,0.0,-0.0,0.0,-0.0,-0.0,0.0,-0.0,-0.0,0.0,0.0,0.0,0.0,0.0,0.0,0.0,-0.0009308373406524682,0.0,0.0,0.0,0.0,0.0,-0.0,0.0,-0.007262611464132686,-0.0,-0.0893736748688088,0.028125034755875484,0.0,0.0,0.0,0.0,0.0,0.0,0.0,0.0,0.0,0.0,0.0,0.0,0.0,0.0,0.0,0.0,0.0,0.07680361131401832,-0.0,-0.0,0.0,0.0,0.0,0.0,-0.09577257023422368,0.0,-0.0,-0.0,0.0,0.0,0.03410163727164298,0.0,0.010156462670784013,0.0,0.0,0.0,-0.1027551074112111,0.0,0.0,-0.0,-0.0,0.0,-0.0,0.0,0.0,-0.0,0.0,0.0,0.0,0.0,0.0,0.0,0.028417075360231792,0.0,-0.0,-0.0,-0.0,0.0,-0.0,0.0,-0.0,0.0,0.0,0.0,0.0
Gene-70,0.0,0.04711240695408951,0.0,0.0,0.0,0.0,0.0,0.07809504624375585,0.0,0.0,0.0,0.0,0.0,0.0,0.0,0.0,0.0,0.0,0.0,0.0,0.0,0.0,0.0,0.0,0.0,-0.009702060040402345,0.0,0.0,0.0,0.0,0.0,0.0,0.0,0.0,0.0,0.0,0.020790003089764537,0.0,0.0,0.0,0.0,0.0,0.0,0.0,0.0,0.0,0.0,0.0,0.0,0.11589739205069981,0.10302733962760988,0.0,0.0,0.0,0.0,0.0,0.0,0.0,0.0,0.0,0.0,0.0,0.0,-0.09906071935289434,0.0,0.0,-0.08553664605477246,-0.06132933274471345,0.0,0.0,0.0,0.0,0.0,0.0,0.0,0.0,0.0,0.0,0.0,-0.012868044375372659,0.0,0.0,0.0,0.03815937500858706,0.0,0.0,-0.07885858243030486,0.0,0.0,0.0,-0.044268340895966166,0.0,0.0,0.0,0.0,0.0,0.09983721445222801,-0.03437545820665944,0.0,0.0,0.0,0.0,0.0,0.0,0.0,0.0,0.0,0.06017949632394452,0.0,0.0,0.0
Gene-71,-0.0,0.0,0.0,0.0,0.0,0.0,-0.0,0.0,0.010759835112915722,0.0,-0.0,-0.047368234669697404,0.0,0.0,0.0,0.0,0.0,0.002069984168305766,0.0,-0.0,0.0,-0.0,0.0,-0.0,0.0,0.0,0.0,0.0,-0.0,0.0,0.0,0.0,0.0,0.0,0.0,0.0,-0.0,0.0,0.0,0.0,-0.0,0.0,0.0,0.0,0.0,-0.0,-0.043056629258259115,-0.0,-0.0,0.0,0.009265070158800988,0.0,0.0,0.0,0.0,0.0,0.0,0.0,0.01424601351260782,0.0,0.048837157082341105,0.0,0.0,0.07007859802038009,0.0,0.0,0.07762343072901341,-0.02226435366031144,-0.0,0.0,0.0,-0.08332162944174068,0.0,-0.0,0.0,0.008840305226593136,0.0,0.0,0.0,-0.0,0.0,0.0,0.0,0.0,0.0,0.0,0.03234544688441689,0.0,0.0,0.0,0.0,0.0,-0.03487505050994871,0.0,0.0,0.0,0.0,0.0,0.0,0.0,0.0,0.05301342293469492,0.0,0.0,0.0,0.0,-0.0,-0.0,0.0,0.0,0.0
Gene-72,0.0,0.0,0.0,0.0,0.0,0.0,0.0,0.0,-0.12091617268707501,0.0,0.0,0.0,0.0,0.0,0.0,0.0,0.0,0.0,0.0,0.0,0.0,0.0,0.0,0.0,0.0,0.0,0.003144388617582031,0.0,-0.15118040711847125,-0.03491151964363926,0.0,0.0,0.0,0.0,0.0,0.0,0.0,0.04850057344940328,0.0,0.0,0.0,0.0,0.0,0.0,0.0,0.0,0.0,0.0,-0.06374570880147919,0.0,-0.03353300741452317,0.0,0.0,0.0,0.0,-0.051191286196681465,0.0,0.0,0.0,0.0,0.0,0.0,0.0,0.0,0.0,0.0,0.0,0.0,0.0,0.0,0.0,0.0,0.0,-0.09564351569640817,0.0,0.0,0.0,-0.11184242036179545,0.0,0.0,0.0,0.0,0.0,0.0,0.0,0.0,0.062312017224573545,0.0,0.0,0.0,0.0,0.0,0.0,0.0,0.0,0.0,0.0,0.0,0.0,-0.08441475461815383,0.0,0.0,-0.05247003397431273,0.0,0.0,0.0,0.0,-0.08230716498843432,0.0,0.0,0.0
Gene-73,-0.0,-0.0,0.0,-0.0,0.0,0.0,0.0,0.0,0.0,0.0,0.0,0.04538175465264711,0.0,0.0,0.0,0.029585657040653458,0.0,0.0,0.0,0.04583015180192819,0.0,0.0,0.0,0.0,0.0,0.0,0.0,0.0,0.0,0.0,0.0,0.0,0.0,0.0,0.0,0.0,-0.0,0.08245497375986965,0.0,-0.0,0.0,0.0,0.0,0.0,0.0,-0.01224366547737769,-0.0,0.0,0.0,0.0,-0.020268987135861078,-0.0,0.0,0.030148629274222568,0.0,0.0,0.0,-0.0,0.0,0.0,0.0,-0.0,0.0,0.0,0.0,-0.0,0.0,0.01760750921268359,-0.0,0.05716273182575442,0.0,0.0,0.0,0.0,0.02485752904538381,0.0,-0.0,-0.0,0.0,0.0,0.0,0.0,0.0,0.0,0.0,0.0,-0.0,0.0,0.0,0.08104410912953801,0.0567259093920656,-0.013659083944612708,0.053434831237027296,-0.0,-0.0,-0.0,0.0,0.0,0.0,0.0,0.0,-0.0,-0.0,0.0,0.0,-0.0,0.0,-0.0,-0.0,0.005717065089320906,0.0
Gene-74,-0.11275235544281922,0.0,0.0,-0.0,0.0,0.0,0.0,0.0,0.0,0.0,0.0,0.0,0.0,-0.0,-0.0,0.0,0.0,0.0,0.0,0.02869277971583666,0.08271190038953943,0.027579384688000953,0.0,0.0,0.0,0.0,0.0,0.0,-0.0,0.0,0.0,0.0,0.048453665154295646,0.0,0.0,0.0,0.0,0.0,0.0,0.0,0.0,-0.004984213445321376,-0.0,0.12148409341228787,0.0,-0.0,0.0,0.0,0.0,0.0,0.0,0.0,0.0,0.0,0.0,0.0,0.0,0.0,0.04867050403572766,-0.0,0.0,-0.0,0.0,0.0,0.019535196157798824,0.0,-0.0,0.0,-0.0,0.0,0.0,-0.0,0.0,0.0,0.0,0.019258651941363166,0.0,-0.0,0.0,0.0,0.0,0.0,0.0,0.0,0.0,-0.0,0.0,0.0,0.0,0.0,0.0,0.06939821243984204,0.0,-0.0,-0.031455808802615774,-0.0,0.0,-0.0,0.0,0.0,-0.0,-0.0,0.0,0.0,-0.0,-0.0,0.0,-0.0,0.0,0.0,0.0
Gene-75,0.0,0.0,-0.0,-0.0,0.0,0.0,0.0,0.024067656974262885,0.0,0.0,0.011809892445395058,0.0,0.0,-0.0,-0.0,0.0,0.0,0.0,0.16657212285268885,0.0,-0.0,0.0,0.0,0.0,0.0,0.0,0.0,0.0,0.0,-0.0,0.0,0.0,0.0,-0.025417620374765703,-0.0,0.0,0.0,-0.0,0.03217487815063142,0.0,0.0,0.03659591590560699,0.0,-0.0,-0.0,-0.0,0.0,0.0,0.004681048482721574,0.0,0.0,0.0,-0.0,0.0,0.03974014921599053,-0.0,0.0,-0.0,0.0,-0.0,-0.0,0.0,0.0,-0.0,0.04133493979209357,0.0,-0.0,0.03910280708426666,0.02864712455050463,0.0,0.0,0.0,0.0,0.0,0.0,-0.0,0.0,0.0,0.0,0.0,-0.0,-0.037205090412955964,-0.0,0.0,-0.06336509941009998,0.0,-0.020190146007238157,0.0,0.0,0.0,0.0,0.0,0.0,0.0,0.0,0.07231634665720525,0.0,-0.0,0.02249336655956414,0.0,0.0,0.0,0.0,0.0,0.0,0.0,0.0,0.0,0.0,0.0,0.0
Gene-76,0.0,0.0,-0.0,0.0,0.0,0.0,0.0,-0.0,-0.0,0.0,0.0,0.0,0.0,-0.14717439882710284,0.0,0.0,0.0,-0.0,0.0,0.0,0.0,0.0,0.0,-0.0,0.0,0.0,0.0,0.026257158759754227,0.0,0.0,0.0,0.0,0.0,0.0,0.0,-0.048665738742216545,0.0,0.0,0.0,0.0,0.0,0.0,0.0,-0.0,-0.04949387970044423,0.0,-0.0,0.0,0.0,-0.0,0.0,0.0,0.0,0.0,-0.0,0.060899262892834094,0.005383026939205849,0.0,0.0,0.0,-0.0,0.017738126634126845,0.0,-0.0,0.0,0.0,-0.0,0.0,0.0,-0.0,0.0,0.0,0.0,0.0,0.0,0.0,-0.0,0.0,-0.06120605987143248,0.0,0.0,0.0,0.029307247046899774,0.0,0.0,0.0,0.0,0.0,0.0,0.0,0.0,-0.0,0.0,0.0,-0.0,-0.0,-0.0,0.0,0.0,0.03643073844135424,-0.0,0.0,0.0,0.0,0.0,-0.0,-0.0,0.0,-0.0,-0.0,0.0
Gene-77,0.0,-0.0,-0.006293288144520356,0.0,0.0,0.0,0.0,-0.0,0.0,0.0,-0.0,0.0,0.0,0.0,0.0,0.0,-0.002564068276533542,0.0,0.0,0.0,0.0,-0.06146312072408244,0.0,-0.0,0.0,0.0,0.0,0.0,-0.0,0.0,0.0,0.0,0.0,0.0,0.0,-0.0,0.06670706147399384,-0.00018679195785989305,-0.0,0.0031153745189407317,0.0,0.0,0.0,-0.0,-0.0,0.046998339535478495,-0.0,0.0,-0.0,0.0,0.014500421269286426,0.0,-0.0,-0.0,0.0,0.0,0.0,0.0,0.1070647525952571,0.0,0.0,0.003534925137072684,0.0,-0.0,0.0,-0.02042569090964841,0.0,-0.0,0.0,0.0,0.0,0.0,-0.004962063607696656,0.0,0.0,-0.030629103515644514,0.0,-0.0,0.0,0.0,0.0,0.0,-0.0,-0.0,0.0,0.0,-0.019770228054592796,0.018477388096816753,0.0,0.0,-0.0,-0.0,0.0,-0.0,0.0,-0.08675355827889106,-0.03411730354714742,-0.0,-0.0,0.034493423090163414,0.0,0.0,-0.0,0.0,0.0,-0.0,-0.0,-0.0,-0.0,-0.0,-0.01636420164909013
Gene-78,-0.0,-0.0,-0.0,0.0,0.0,0.0,0.0,0.0,0.0,0.0,-0.0,0.0,0.0,-0.09646800909282523,0.0,0.01918760433972984,-0.11972796930451837,0.0,0.003266114058578261,-0.0,0.0,0.0,0.0,0.0,0.0,0.0,-0.0,0.0,-0.0,-0.0,0.0,0.0,0.0,0.0,0.0,0.056919426568219855,-0.0,0.0,0.0,-0.0,0.0,0.0,0.0,-0.0,0.0,0.0,0.0,0.0,0.0,0.0,0.053132445118150975,0.02748703801936458,-0.0,-0.09931331103171766,0.0,0.0,0.0,-0.0,0.0,-0.0,0.0,0.0,0.0,0.0,-0.0,0.0,0.0,0.0,0.0,0.0,0.0,-0.0,-0.0,-0.0,0.0,0.0,-0.017566556985817935,0.0,0.0,-0.03445083805241728,-0.1320065372786252,0.0,-0.0,0.0,0.0,-0.0,0.0,0.0,0.0,0.0,-0.1356015483679964,0.0,-0.0,-0.0,0.03311404956608615,0.0,-0.0,0.0,-0.0,-0.010923339497111762,0.0,0.0,-0.0,0.0,0.0,0.0,0.0,0.0,-0.0,0.0,0.0
Gene-79,-0.0,0.0,-0.0,0.0,0.0,0.0,-0.0,-0.0,0.0,0.0,0.0,0.07787529614095368,0.0,0.0,-0.0,0.0,0.0,0.0,0.0,0.0,0.0,0.027162624787975202,0.010681177626970722,0.0,-0.02211230347093306,-0.0,0.0,-0.0,-0.0,-0.0,0.0,0.0,0.0,0.0,0.0,0.0,0.0,-0.015559370085560745,0.0,0.0,-0.0,0.0,0.0,0.0,0.0,0.0,0.0,0.0,0.0,0.0,0.013144943450691615,0.0,0.0,0.0,-0.0,0.0,0.0,0.0,0.0,-0.0,0.0,-0.0,-0.0,0.0011060792864119667,0.0,0.0,0.0,0.0,0.0,0.0,0.0,0.0,0.0,0.0,0.0,-0.0,0.0,0.0,0.0,0.014053726838779566,0.0,-0.04504734306401214,0.0,0.0,-0.0,0.0,0.0,0.0,-0.0,0.0,0.0,0.029225295071082937,0.0,0.0,-0.0,-0.03364710886700669,-0.0,0.0,0.0,-0.0,-0.0,-0.0,0.0,0.0,0.0,-0.0,-0.09657819958680541,0.0,-0.0,0.0,0.009629603525737294
Gene-80,-0.0,0.0,0.0,-0.0,-0.0016389902348576727,0.0,0.0,0.0,0.0,0.0,0.06653296874968002,0.0,-0.0,-0.0,-0.0,0.0,0.0,-0.0,0.0,-0.0,-0.0,0.0,-0.052351666050178436,-0.05314434383486964,0.0,0.0,0.0,0.0,0.0,0.0,-0.045027207406425546,0.0,0.0,0.0,0.0,-0.04262261184947714,0.07126685221019843,0.0,0.0,-0.07037083436720025,0.0,0.0,0.0,-0.0,0.0,0.0,0.0,-0.0,-0.0,0.0,0.0,0.0,0.0,0.0,0.0,0.0,0.0,0.0,0.0,0.0,0.0,0.0,0.0,0.055598136335269964,0.0,-0.0,0.0,0.0,0.0,-0.0,-0.0,-0.0,0.0,0.0,0.0,0.0,0.10187100363763733,-0.0,0.0,0.0,-0.0,0.0,-0.0,0.0,0.0,0.02265540012848686,0.0,0.0,0.0,0.0,0.0,-0.0,0.0,0.0,0.0,0.0,0.0,-0.02558089215782651,0.0,0.0,-0.0,0.0,0.0,0.0,0.0,0.0,-0.0,-0.0,-0.0,0.0,0.0
Gene-81,-0.0,0.0,0.0,0.11718695263807387,0.03394476866946177,0.0,0.0,0.0,0.0,0.03286539585788087,0.0,0.0,0.0,-0.0,0.0,0.0,0.0,0.0,0.0,-0.0027273539667530987,0.0,0.0,0.014616511650600425,0.0,0.0,0.0,0.0,0.0,-0.0,0.01823464149753379,0.1212674533505012,-0.07356554828206571,-0.04202415758581908,-0.0,0.0,-0.0,0.0,0.0,-0.0,0.0,-0.008223447213546028,0.01927169568991055,0.0,0.0,-0.038919063953032795,0.0,0.0,-0.0,-0.0,-0.0,0.0,0.0,0.0,0.0,0.0,0.0,0.051089645719099075,-0.0,0.0,0.0,-0.0,0.0,0.0,0.0,0.0,-0.0,0.0,-0.0,0.0,-0.0,0.0,0.0730186918904312,0.012599056599273002,0.0,-0.0,-0.0,-0.05884243838686638,-0.0,0.0,-0.0,0.0,-0.0,-0.0,0.08001562828417995,0.0,-0.0,-0.03182456998073944,0.0,0.0,0.0,0.0,0.0,0.0,0.0,-0.0,0.0,-0.017479632893970254,0.0,0.018774843391658243,0.0,0.0,0.0,0.0,0.0,0.0,0.0,-0.0,-0.0,-0.0,0.0,0.0
Gene-82,0.0,0.0,0.0,0.0,0.0,-0.0,0.0,0.0,0.0,0.0,0.0,0.0,-0.0,-0.0,0.0,0.0,0.0,0.0,0.0,0.0,0.0,0.0,0.0,0.010199469924693004,0.0,0.0,0.0,0.0,0.0,0.0,0.0,0.0,-0.0,0.0,0.0,0.0,0.0,0.0,0.0,-0.0,0.0,0.0,0.0,-0.0,-0.0027703011787212533,-0.0,0.0,-0.0,0.0,-0.0,0.0,-0.0,0.0,0.0,0.0,0.0,0.0,0.0,0.0,0.0,0.0,0.0,-0.0,-0.0,0.0,-0.0046334886504093165,0.0,0.0,0.0,-0.0,0.0,0.0,0.0,0.0,-0.0,0.0,0.0,0.0,-0.0,0.030568857598688767,0.0,0.0,0.0,0.0,-0.0,0.0,0.06613282662236471,0.0,0.0,0.0,0.0,0.0,0.0,-0.0,0.0,0.0,0.0,-0.0,0.0,0.0,0.0,0.0,-0.0,0.0,-0.0,0.0,-0.0,0.0,0.03656597937060131,0.0,0.0
Gene-83,0.0,0.0,-0.0,0.0,0.0,0.0,0.0,0.0,-0.0,-0.005187345642951757,0.0,0.0,0.0,0.0,-0.0,0.0,0.0,0.0,0.0,0.0,0.0,0.0,0.0,0.0,0.0,0.0,0.0,-0.0,0.0,-0.0,0.0,0.0,-0.0,0.0,0.08359706062522179,0.0,0.0,0.0,0.0,0.0,0.0,-0.022093890093711623,-0.0,0.0,0.0,0.0,0.0,0.0,0.0,0.0,-0.0,0.0,0.0,-0.0,0.0034028916959473504,0.0,0.0,0.0,-0.13313907625153826,0.13315380037488153,0.0,-0.0,-0.0,0.0,0.0,-0.0,0.0,-0.0,-0.0,-0.02459892801835083,0.0,0.028700000485801857,0.012252804578253531,0.0,0.0,0.0,0.0,0.0,0.0,-0.033045756532259635,0.0,-0.0,0.0,0.0,0.0,-0.0,0.0,0.0,0.0,-0.0,0.0,-0.0,0.0,0.0,-0.0,0.0,0.0,-0.0,0.0,-0.0,0.0,-0.05068842916887792,-0.0,0.0,0.0,0.0,-0.0,-0.0,-0.0,0.0,0.0
Gene-84,0.0,0.0,-0.0,0.0,0.0,-0.02967794178335232,-0.04741941010171482,-0.0,0.0,0.0,-0.0,0.008496317039415778,0.0,-0.0,-0.0,0.0,0.0,0.0,0.0,0.0,0.0,0.0,0.0,-0.01850590680733907,0.0,0.0,0.0,0.0,-0.0,0.0,0.0,0.0,-0.0,0.0,0.0,0.0,0.0,0.0014993602185339918,0.0,0.0,0.0,0.0,0.0,0.0,-0.0,-0.0,-0.0,0.0,0.0,-0.0,-0.0,0.0,0.0,-0.010825795828920326,-0.0,-0.0,-0.0,0.0,0.0,0.0,-0.0,0.0,0.0,-0.0,0.0,0.0,0.0,0.0,0.0,-0.0,0.0,-0.0,0.0,0.0,0.0,0.00316384388091128,0.0,0.0,0.0,0.0,0.0,0.0,0.0,0.0,0.037773336403393885,0.0,0.0,-0.014056243366418008,0.0,-0.0,-0.028708586929803007,0.0,0.0,0.0,0.0,0.0,-0.03794063232617576,0.0,0.0,0.0,-0.0,-0.0,-0.08462120348812696,0.0,-0.0,-0.02229069495286724,0.0,0.0,0.0,0.0,0.0
Gene-85,0.0,0.0,-0.0,0.0,-0.0,0.03483210385541117,0.0,0.0,0.0,-0.006533252364360774,0.0,0.0,0.0,0.0,-0.00876834093083254,-0.0,0.0,-0.0,0.0,0.0,0.0,0.0,0.0,0.0,0.060637284631880284,0.0,-0.0,0.0,0.0,0.0,0.0,0.0,0.0,0.0,0.0,-0.0,0.0,0.0,-0.0,-0.0,0.0,0.0,-0.005807428501482207,0.0,-0.037259294561799945,0.0,0.0,0.0,0.0,0.0,-0.0,0.0,0.0,0.0,0.0,-0.0,-0.0,-0.04819615703286524,0.0,0.0,-0.0,0.0,0.0,0.0,-0.0,-0.0,0.021954818282682628,-0.0,0.0,-0.0,0.0,-0.0,0.0,0.0,-0.0,0.0,-0.0,-0.0,-0.0,-0.0,0.0,0.0,0.0,0.0,0.0,0.10360270992228118,0.0,0.0,0.0,0.0,0.0,0.0,0.0,0.0,0.0,0.0,-0.0,0.0,0.0,0.0,0.0,-0.0354928393544169,-0.0,0.0,-0.0,0.0,0.0,0.0,-0.0,0.0,0.0
Gene-86,0.0,0.0,0.0,0.0,-0.14322605020110168,0.0,0.0,0.0,-0.02223410080681873,-0.05700009202552177,0.0,-0.024616663024766207,0.0,0.0,0.0,0.0,0.059990503915833104,0.0,-0.051953592409984276,0.0,-0.010455871142133125,0.0,0.0,0.0,0.0,0.0024638948723301707,0.0,0.0,0.0,0.0,0.0,-0.041220093892972674,0.0,-0.0011745956039934907,0.0,0.0,0.0,0.0,0.0,0.0,0.0,0.0,0.0,0.0,0.0,0.0,0.0,0.0,0.0,0.0,0.018716689353660852,0.0,0.0,0.0,0.0,-0.05794806831660709,0.0,0.0,0.0,0.018311398367421496,0.0,0.0114421812868275,0.0,0.0,0.0,0.0,0.0,0.0,-0.026110835529827323,0.0,0.0,0.0,0.0,0.0,0.0,0.15913651948750357,0.0,0.0,0.0,0.0,0.0,0.0,-0.10638085765164566,0.0,0.0,0.0,0.0,0.0,0.0,0.07599972806540942,0.0,0.0,0.0,0.0,0.0,0.0,0.0,0.0,0.0,0.0,0.0,0.0,-0.03254270511318154,0.0,0.0,0.0,0.0,0.0,0.0,0.0,0.0
Gene-87,0.0,0.0,0.0,0.0,0.0,0.0,-0.0,-0.0,0.0,0.0,0.007768336281938412,0.0,-0.0,0.0,0.0,0.0,0.0,-0.0,0.0,0.0,0.0,0.0,0.0,-0.0,0.0,0.0,-0.015166977275050236,-0.0,0.0,0.0,0.0,0.0,0.0,0.0,0.0,0.0,0.0,0.0,0.0,0.0,0.0,0.06560792322158869,0.0,-0.0,0.10358092410897113,0.0,0.0,0.0,-0.0,-0.0,0.0,-0.0,-0.0,-0.0,-0.0,0.0,0.0,0.0,0.0,0.0,-0.0,-0.0,0.0,0.0,-0.0,0.0,0.0,0.0,-0.0,-0.0,0.0,0.0,-0.06030502351295334,0.0,-0.0,0.0,-0.0,0.0799866366606175,0.0,0.0,-0.0,0.0,0.0034443746460463627,0.0,0.0,-0.04527694020788681,0.0,0.0,0.0,-0.0,0.0,0.0,0.0,0.0,-0.0,0.0,0.0,0.0,-0.0,0.0,0.0,0.0,0.0,0.0,0.0,0.0,0.0,-0.0,-0.0,-0.0,0.0
Gene-88,0.0,0.0,0.0,0.0,-0.0,-0.0,0.0,-0.0,-0.09731529122078818,0.0,0.0,0.0,0.0,0.010738770778313072,0.0,0.0,0.0,-0.09442756449916974,-0.07753126488184078,0.0,0.0,0.0,0.0,0.0,0.0,0.035938122046438516,0.0,0.0,-0.0,0.0,0.0,0.0,0.0,-0.0,0.0,0.0,0.0,-0.02486269985263669,0.0,0.0,0.0,0.0,0.0,-0.0,0.0,0.0,0.0,-0.0,-0.0,0.0,0.0,0.0,0.0,0.0,0.0,0.0,0.0,0.0,0.0,0.0,0.0,0.0,0.0,-0.0,-0.0,-0.0,-0.0862869679571688,0.0,0.0,0.0,0.0,0.06511156495871119,-0.07602378233815717,0.0,0.0,0.0004642575253139773,-0.0,-0.0,0.0,0.0,0.0,-0.0,0.0,-0.0,-0.0,0.0,0.027643838558673816,0.0,0.0,-0.0,0.0,0.0,0.0,0.037836346204228724,0.0,0.0,0.0,0.0,0.0,0.0,0.0,-0.0,0.0,0.0,0.0,-0.0,0.0,0.0,0.0,-0.0,-0.031202323648378986
Gene-89,0.0,0.0,0.0,0.0,0.0,0.0,-0.0,0.0,0.0,0.06278589819624376,0.0,0.0,0.0,-0.07755811979466931,0.0,0.0,0.0,0.0,0.0,-0.0,-0.0,0.0,0.0,0.0,0.0,-0.0,-0.0,0.0,-0.0,0.0,0.0,0.0,0.008242632453525016,0.0,-0.0,0.0,-0.0,0.0,-0.0,0.0,0.0,0.0,0.0,-0.0,-0.015680663706018286,-0.0,0.0,0.0,0.0,0.0,0.0,0.0,-0.0,-0.0,0.0,0.0,-0.020301503443180383,0.0,0.0,0.059913880429241506,-0.029068509575856813,0.0,0.0,0.0,0.0,-0.0,0.0,0.0,-0.0,0.0,0.09015079746576571,0.034613779809125174,0.0030731575956111745,0.0,0.0,0.0,0.0,0.0,-0.0,0.0,0.0,0.0,-0.0,0.0,0.02103345251152705,-0.0,0.0,0.09696841064904611,0.0,-0.0,-0.0,0.0,0.0,-0.0,-0.0,0.0,0.0,-0.0012862101092593367,0.0,-0.0,0.0,0.0,0.0,0.0,0.0,0.0,0.007226918064173667,0.0,0.0,-0.1713496401351824,0.0
Gene-90,0.006093772289806664,0.0,-0.0,-0.0,0.0,0.0,0.0,0.0,0.0,0.0,0.0,-0.12680523968120933,0.0,0.0710705144623013,0.0,-0.0,0.0,-0.0,0.0,0.0,-0.0,0.0,0.0,0.0,-0.0,0.020297087433843577,0.0,0.0,0.0,-0.0,0.0,-0.09867453702961557,0.0,0.0,0.0,0.0,0.005167652279306786,-0.0,0.0,0.0,-0.0,0.0,0.0,-0.0013726574115302506,-0.0,-0.0,0.0,0.0,0.0,-0.0,0.0,-0.0,-0.0,0.0029742680742819018,0.0,0.0,-0.0,0.0,0.0,0.019176333427650055,0.0166431461197395,0.0,0.0,-0.0,0.0,0.0,-0.0,-0.0,0.0,0.0,0.0,0.0,0.0,0.0,0.0,0.0,0.0,0.0,0.0,0.0,-0.012531375807224467,0.0,-0.0,-0.0,0.0,0.0,-0.024593656495528395,0.0,-0.0,0.0,0.0,0.0,0.0,-0.0,0.0,0.013210669901855238,-0.0,0.0,0.027355812764670417,0.0,-0.0,0.0,0.0,0.0,0.0,-0.0,0.0,0.0,-0.0,-0.0,0.0
Gene-91,0.0,0.0,-0.0,0.0,-0.0,-0.0,0.0,0.0,0.0,0.0,-0.0,0.0,0.0,-0.0,0.0,0.0,0.0,-0.09420640049302582,0.0,-0.0,0.0,-0.02302930923887986,0.0,0.0,-0.0,-0.0,-0.0,0.0,0.0,0.0,0.0,0.022953455782789567,0.0,0.0,0.0,0.0,-0.0,-0.0,0.0,-0.0,0.0,0.0,0.0,0.0,0.0,0.0,0.0,-0.0,0.0,0.0,-0.0,0.0,-0.0,0.0,0.0,0.0,0.0,0.0,0.0,-0.0,-0.0,0.0,0.0,0.0,0.0,-0.0,0.0,-0.0,0.0,-0.0,-0.0,0.0,0.0,0.0,-0.029662850344268472,-0.05792650706498973,-0.0,-0.0,-0.0,0.0,0.0,0.0,0.0,-0.0,0.0,-0.0005137260858271468,0.0,0.0,-0.0,-0.0,0.0,0.0,0.0,-0.0,0.0,-0.0,-0.0,0.0,-0.0,0.0,0.0,0.0,-0.0,0.0,0.0,0.0,0.0,0.0,-0.0,0.0,0.0
Gene-92,-0.0,-0.023971038339475382,0.0,-0.0,0.0,0.0,0.0,0.0,-0.07111223839235402,0.0,0.0,0.0,-0.0,-0.0,0.0,0.0,0.0,0.0,0.0,0.0,0.0,0.0,0.0,-0.017675664344087533,0.0,0.0,0.0,0.0,0.0,0.0,0.0860700507853358,0.0,0.0,0.0,0.0,-0.0,0.0,-0.0,-0.03927206296800323,0.0,0.0,0.0,0.0,0.0,-0.0,0.0,0.0,0.0,0.0,-0.0,0.0,-0.0,0.0,0.0,-0.0,0.043647731210145535,-0.0,0.0,0.0,0.0,0.0,0.0,0.0,0.0,0.0,0.0,0.0,0.0,-0.0,0.0,0.0,-0.0,-0.0,0.0,0.0,-0.0,-0.015069677498420479,0.02237358072676818,0.0,-0.08705700214409268,0.0,0.0,-0.07508928121803533,0.0,0.0,-0.0,0.0,0.0,0.0,0.0,0.0,0.0,0.0,0.0,0.0,-0.0,0.0,-0.0,-0.008428554236622483,-0.0,0.0,-0.0,0.0,0.038379223738246926,0.0,-0.0,0.0,-0.0,0.0,0.0,0.0
Gene-93,0.0,0.0,-0.0,-0.0,0.0,-0.0,0.0,0.0,0.0,0.0,-0.0,-0.11456239053716502,0.0,0.0,0.0,0.0,0.0,0.0,0.0,-0.0,-0.0,-0.0,0.0,-0.0,0.0,0.0,0.0,-0.0,0.0,0.0,0.0,0.03578540616569807,-0.0,0.0,0.0,0.0,0.021392366408100116,0.0,-0.0,-0.0,0.0,0.0,-0.0,0.0,0.0,0.0,0.0,0.0,0.010485317119974226,0.0,0.0,0.0,0.0,-0.0,0.1372105431890489,0.0,-0.005944761778831462,0.0,0.0,0.0,-0.021735651279314892,-0.0,0.0,0.0,0.0,-0.0,0.0029178027889265115,0.0,0.0,0.0,-0.0,-0.0,0.0,0.0,0.0,0.0,0.0,0.0,0.0,0.0,0.0,0.0,0.0015822047833925262,0.0,0.0,0.0,0.0,0.0,-0.0,0.0,0.0,0.0,0.0,0.0,0.0,0.0,0.0,0.0,-0.0,0.0,0.0,-0.0,0.0,0.0,0.0,0.0,0.0,-0.0,0.0,-0.0,0.0
Gene-94,0.0,0.0,0.03230626870455772,0.0,0.0,0.0,0.0,0.0,-0.0,0.0,0.0,0.0,0.0,0.0,0.0,0.0,0.0,0.0,-0.03783350021864793,0.0,-0.0,-0.0,0.004303556218185336,0.0,0.0,0.0,-0.0,-0.0,0.02831042672261413,-0.0,0.0,0.0,-0.005699156158081093,0.0,-0.0,0.0,0.0,0.01868123907428443,0.017253145876192304,0.0,0.0,-0.013782700061030898,0.0,-0.0,-0.0,0.0,0.08516261501845822,0.0,0.0,-0.0,0.0,-0.012668407389879944,-0.0,0.0,-0.0,0.0,-0.0,0.0,0.0,0.0,-0.012743481572907235,0.0,-0.0,0.0,0.0,0.0,0.0,-0.09702185712473212,-0.0,0.0,0.0,0.0,0.0,-0.0,0.0,0.0,-0.0,-0.0,0.0,0.0,0.0,-0.005268749419996986,0.0,0.0,0.0,0.0,0.0,0.0,-0.0,-0.0,-0.09103361181762283,0.0,0.0,0.0,0.0,0.0,0.0,-0.0,0.0,0.0,0.0,0.0,0.0,0.0,0.0,-0.0,0.0,0.0,0.0,-0.0,0.0
Gene-95,0.0,0.0,-0.0,0.0,0.0,0.031598661481385085,-0.0,0.0,0.0,0.0,-0.0,0.0,0.0,0.0,0.0,0.0,0.0,0.0,0.0,0.0,-0.0,-0.0,-0.0,0.0,-0.012938697490607774,-0.0,0.0,-0.010614462669043876,-0.0,0.0,0.010685069186344029,0.0,0.0,0.0,-0.0,0.0,0.0,-0.10039154942168249,0.0,0.0,-0.03467731467168785,0.0,-0.0,0.0,0.0,0.0,0.005615811682071608,0.0,-0.0,0.0,0.0,0.020781889389640065,0.0,0.0,-0.07660987125557285,0.0,-0.0,0.0,0.0,0.0,0.0,-0.0,-0.0,0.0,0.0,0.0,-0.0,-0.0780705884670468,0.0,0.0,0.0,0.0,0.035912025058866474,-0.0,0.0,-0.0,0.0,0.0,0.0,0.0,-0.08596855152537353,0.0,-0.006725463740225488,0.0,0.0,0.05691502465727053,-0.0,0.0,-0.0,0.0,0.0,0.0,0.053751033602804865,0.0,0.0,-0.0,-0.0,0.0,0.05110619447109082,-0.0,0.0,0.0,-0.0,0.0,-0.0,0.0,-0.0,0.0,0.0,-0.0,-0.06243930003506378
Gene-96,0.0,0.0,0.0,-0.0,-0.0,0.0,0.0,-0.0,-0.03491459440083377,0.0,0.06239308810335304,0.0,-0.0,0.0,-0.0,0.0,0.0,0.01821644978521385,0.0,0.0,-0.0,-0.016195608895774365,0.0,0.0,-0.003811599605692963,0.0,0.0,0.0,0.0,0.0,0.10598441065155975,0.0,0.0,-0.0,0.0,0.0,0.0,-0.0,0.0,-0.0,-0.0,0.0,0.0,0.005489612503876846,0.0,0.0,-0.0,0.0,0.0,0.0,0.0,0.0,0.0,0.0,-0.15918025698210372,0.0,-0.0,-0.0,0.0,0.0,0.018585787176835938,-0.0,0.0,0.0,0.03378307212395769,0.0,0.0,0.021635583196607168,0.0,0.0,0.0,-0.0,-0.0012473802946904723,-0.0,0.0,-0.0,-0.0,0.0,0.0,0.0,0.0,-0.0,0.0,-0.0,0.0,0.0,0.0,0.0,0.0,0.0,0.0,-0.0,0.009267847519975739,0.0,0.0,0.0,0.0006358610487896607,0.0,0.06090846904015827,0.0,0.0,0.0,-0.0,0.0,-0.0,0.0,-0.0,-0.0,-0.0,-0.0,0.0
Gene-96.1,0.0,0.0,-0.0,0.0,0.0,0.0,0.0,0.0,0.0,0.0,-0.0,0.0,0.0,0.0,0.0,0.0,-0.0,0.0,0.0,-0.0,0.0,0.0,-0.0,0.0,-0.0,0.0,0.0,0.0,0.0,-0.0,0.0,0.0,0.0,0.0,0.0,0.0,0.0,0.0,0.0,-0.0,0.0,0.0,0.0,0.0,-0.0,0.0,0.0,0.0,0.0,0.0,0.0,-0.0,0.0,-0.006963702006428237,0.0,0.013817324865448944,0.0,0.0,0.0,0.0,0.0,0.0,0.0,0.0,-0.0,0.0,-0.0,0.0,0.0,0.0,0.013938006366833188,0.0,0.0,-0.0,0.0,0.0,-0.0,-0.0745786506249953,0.0,-0.0,0.0,0.08294826913258622,0.0,-0.0,0.0,0.0,0.0,0.0,0.0,-0.13840003768962258,0.0,0.0,0.08578662278287524,0.0,0.0,0.0,0.0,-0.02147316954383122,-0.0,0.0,-0.0,-0.0,0.0,0.0,-0.0,0.0,-0.0,0.0,0.0,-0.0,0.0
Gene-97,0.0,0.0,0.0,0.0,0.0,0.04004601744023356,0.0,0.0,0.0,-0.01298684197334056,0.0,-0.07201704076335302,0.0,0.0,-0.026958462194667743,0.0,0.0,0.0751317229877269,-0.12498217100036721,0.0,0.0,0.0,-0.0,0.0,0.0,0.0,0.0,0.0,0.0,0.0,0.0,-0.06151430178287957,0.0,0.0,0.0,0.0,0.0,0.0,0.017683274535070896,0.0,0.0,0.0,0.0,0.0,0.040805716292476354,-0.0,0.0,0.0,0.0,0.0,0.0,0.0,0.0,0.0,0.0,-0.01753867970581894,0.0974302361091268,0.0,0.0,0.0,0.0,0.0,0.0,0.0,0.0,0.0,0.0,0.02340624581451818,0.0,0.0,0.0,-0.0,0.0,0.0,-0.010354891856476124,0.04822699154080887,0.0,0.0,0.0,0.0,0.0,0.0,-0.011246310553770816,0.0,0.0,0.0,0.0,0.0,0.0,0.0,0.0,0.0,0.0,-0.0,0.0,0.0,0.0,0.0,0.0,0.0,0.0,0.0,0.0,0.0,0.0,0.0,0.0,0.0,0.0,0.0,0.23723933825470322
Gene-98,0.0,-0.0,0.0,0.005211030366845802,0.0,-0.0,0.0,0.0,0.0,0.0,-0.0,0.0,0.0,-0.0,0.0,0.0,0.0,0.0,0.0,0.0,0.0,0.0,0.0,0.0,-0.0,0.0,0.0,0.0,0.044184760472948933,0.0,0.0,0.0,0.0,0.0,-0.0,0.0,0.0,0.0,-0.045626136389523494,0.0,0.0,0.0,0.0,0.0,0.0,0.0,0.0,0.0,0.0,-0.014610552388123543,-0.0251814112795436,-0.0,0.0,-0.0,0.0,0.0,-0.0,-0.0,0.0,0.0,0.0,-0.0,0.0,0.0,0.0,0.026194862947507513,0.0,0.0,0.0,0.0,0.0,0.0,-0.0,0.0,0.0,0.0,0.0,0.0,0.0,0.0,0.0,0.0,0.0,0.0,0.0,0.0,-0.0,0.0,0.0,0.0,0.0,-0.0,-0.08326730832151176,-0.0,0.0,0.0,0.0017126933876850988,-0.03255380102171511,0.0,-0.0,0.0,-0.0,-0.0,0.0,-0.0,0.0,0.0,0.0,-0.0,0.0,0.0
Gene-99,0.0,-0.0,-0.0,0.0,0.08756147277439186,-0.0,-0.0,-0.0,0.0,-0.0,0.0,0.0,0.0,-0.0,0.0,0.0,0.0,-0.0,0.0,0.0,-0.0,0.0,0.0,0.0,0.0,0.0,-0.0,0.0,-0.0,-0.0,0.0,0.0,0.0,0.0,0.0,0.0,0.0,0.0,0.0,0.0,0.0,-0.0,-0.0,0.0,0.0,0.0,0.0,-0.0,0.0,-0.0,0.0,0.0,-0.0,0.0,0.0,-0.0,0.0,-0.0,0.0,0.0,0.0693733856279903,0.0,-0.0,-0.0,0.0,-0.0,0.0,-0.048715477236403425,0.0,0.0,0.0,-0.0,0.0,0.0,0.03166841533606956,-0.0,0.0,-0.0,-0.02331511552098191,0.0,0.0,0.0,0.0,0.0,0.0,-0.0,0.0,0.014255992518962373,0.0,0.0,0.0,-0.0,0.0,0.0,-0.04601739097271449,0.0,0.0,0.0,-0.04948605649864499,0.0,-0.0,0.0,0.0,0.0,-0.0,-0.0,-0.0,0.06802994072940638,0.0,-0.0,0.0
Gene-100,-0.0,-0.0,0.0,-0.0001429230001780967,0.0,-0.015618637222970496,0.0,0.0,-0.0,0.0,-0.0,0.0,0.0,0.0075702944187349425,0.0,0.0,0.0,0.0,0.0,-0.0,-0.007007677676551821,-0.0,0.0,-0.003296793004680017,-0.0,0.003977902283506189,-0.0,-0.0,-0.0,-0.0,0.0,-0.0055266431723164575,-0.0,0.010028692053314203,0.0,0.0,-0.004138346573103795,0.0,-0.0,-0.0,-0.0,0.0,9.457276585640571e-05,0.0,-0.0,-0.0,-0.004135747421713414,-0.013082508130660687,0.00796082950528703,0.0,0.0,0.02066680025451362,0.0,0.0,-0.006473727744726922,-0.0,0.005383803429796748,-0.0,0.0,-0.0,0.0,-0.0039024720529481785,-0.0,-0.0,0.0,-0.0,0.0,0.011972469313757497,-0.0,-0.026587360166165364,0.0,-0.0,0.0,-0.0,0.0,0.0,-0.0,-0.0,-0.0,-0.0039031949498603987,0.0,0.0,-0.0,0.0,0.0,0.0,0.0,0.0,0.0,-0.0,0.0,0.0,0.0,-0.0,-0.0,0.00385203124866972,-0.0,0.0,0.0,-0.0,0.0,0.0,0.015644305701964515,0.0,-0.0,0.06751373005552598,0.0,0.0,0.0,-0.17440661721888365,0.0
MutState-1,0.0,0.0,0.0,0.0,0.0,-0.03408589718153313,0.0,-0.10269893845819872,0.09020947423201638,-0.0,0.0,0.0,0.0,0.0,0.0,0.04205806964467845,0.0,0.0,-0.0,0.0,0.0,0.014853311213495488,0.0,0.0,-0.05644057487172054,0.0,0.0,0.0,0.0,0.0,0.022123007486573434,-0.053931580257416754,0.0,0.0,0.0,0.0,0.0,0.0004362909080932951,0.0,0.0,0.0,0.0,0.02306055305762702,0.0,-0.03233314750056692,-0.030576211237282908,0.0,0.0,0.0,0.0,0.0034159237539624675,0.0,-0.05615834189623092,0.0,0.0,0.0,0.0,0.0,0.0,0.0,0.045010722738666006,0.0,0.0,0.0,-0.03698529729267404,0.016576148339238598,0.0,0.0,-0.03474126162286654,0.0,0.0,0.0,-0.02162871092219804,0.0,0.04785416674456597,0.0,0.0,0.0,-0.020009302778878184,0.0,0.0,0.025533181171544888,0.0,0.0,0.0,0.0,-0.01005074769481051,0.0,0.0,0.0,0.02920289522467063,0.0,-0.05007429483319827,0.0,0.0,0.0,-0.03596737016971955,0.0,0.0,0.0,0.0,0.0,0.0,0.0,0.0,0.0,0.0,0.0,0.0,0.0,0.0
MutState-2,-0.0,-0.07465679425297987,0.0,-0.0,0.0,-0.05663647210090721,-0.0,0.0,0.0,0.0,0.04464305289463841,0.0,0.0,0.01566063188733006,-0.0,0.0,0.0,0.0,0.0,-0.0,0.0,-0.0,0.0,0.0,-0.0,0.0,0.0,-0.0,0.0,0.0,0.0,-0.0,0.0,0.0,-0.0,0.0,-0.003961536693847264,0.0,0.0,-0.017529252548584826,-0.0,-0.0028140098740916724,0.0,0.0,0.0,0.0,0.0,-0.0,-0.0,-0.01063998797156383,0.00045041138951794595,0.0,0.012756056336075171,0.0,-0.0,-0.0,-0.0,0.0,0.0,-0.0,0.0,0.0,0.0,-0.0,0.0,0.0,0.010111934387438388,-0.0016915258321939927,0.0,0.0695366028458673,0.0,-0.0,0.00199396347013112,0.0,0.0,0.0,0.00123023867264142,-0.003648808258860195,0.0,0.0,0.0,-0.008736578455481833,0.0,-0.0,0.0,-0.0,0.0,0.0,-0.0,0.0,-0.047905481765199334,0.012726929171808725,0.006857670222603192,0.05021548419205841,-0.0,-0.005393850241223723,0.0,0.0,0.0,-0.0,0.0,0.0,0.0,0.0,0.07173864763198776,0.0,0.0,0.0,0.0,0.0,0.0
MutState-3,0.0,-0.0,0.0,-0.0,-0.006349327199758537,0.0,0.03167824387104379,0.0,0.04136157137468207,0.0,-0.0,0.0,0.0,-0.0,0.04797435452822875,0.0,0.0,-0.0005086247583146986,0.0,-0.01890029557380479,-0.0,-0.0,0.015293297612247079,0.0,0.0,-0.05014035832715963,-0.0,0.0,-0.0,-0.015506694065007669,0.007238453936699424,0.0,0.021513244119654665,0.0,-0.0,0.0,0.005865704851254479,-0.012044952546779708,0.0,-0.0,-0.0,0.0,-0.0,-0.0,-0.016237150106073125,-0.0,-0.008494725371956476,-0.0,-0.05099074667629852,0.0,-0.01713817707489368,0.0,0.0,0.0,-0.0,0.0,-0.0,0.0,0.015144143715162534,0.011318131713004418,0.004372018330293879,0.006081292443405949,-0.0,0.0,0.0,0.0,0.0,0.0,-0.0,-0.052945099913422264,-0.0,0.0,0.03284125296720944,-0.0,-0.00667305121539471,0.0,0.0,0.0031813951704290043,0.022783019751883973,0.0,-0.0,0.014120439495459132,-0.0,0.0,0.0,0.007632396454519813,0.0,0.006316403540408097,-0.01480677234059628,0.0,0.0,-0.0,-0.028550051347177256,0.0,0.006888390480616137,0.04391190412286871,-0.02400539546273969,-0.0,-0.0,0.0,0.0,-0.18427501191621654,0.0,0.0,0.0,0.0,0.0,-0.0,0.0,0.0,0.0
MutState-4,0.0,-0.05629594583127321,0.0,-0.0,-0.0,0.0,-0.028067565473008305,0.0,0.0,0.004109821627123041,0.0005953785884235456,0.0,0.01343036274360666,-0.0,0.01399992296762564,0.0,0.0,0.024680974424267477,0.0,-0.0,0.0,0.0,-0.0,0.001130300758540689,0.0,0.0,0.0,-0.0,-0.0,-0.0,0.0,0.0231548723189193,0.0,-0.0,0.0,-0.0419533897289174,-0.011816664644641529,0.0,-0.0030020210730593052,0.0,0.0,0.0,-0.0,-0.038543967063487124,-0.0,0.0,0.0,0.0,-0.0,-0.038329535994638085,0.0,0.0,-0.0,0.0,0.0,-0.022917900317565097,0.0,0.02871095181988647,-0.052556229470154286,0.018246303083201635,0.0,-0.0,0.0,0.0,-0.0,0.0,0.0,0.0,0.03672822678409348,0.0,0.0,0.0010852189802737658,0.04296430583141838,-0.0,0.02119471578781131,0.0,0.0,0.0,0.0,0.04081329850311429,-0.0,-0.0,0.0,0.0,0.0,-0.0,0.004301436911976666,0.0,0.0,0.0,0.0,0.0,0.03315915164081792,0.08117905629625737,0.0,-0.0,0.00675102253768246,0.0,-0.06079043382276381,0.0,-0.0,0.0,0.0,0.0,0.0,0.0,-0.0,0.0,-0.0,0.0,0.0
MutState-5,0.0,0.0,0.0,0.0,0.0,-0.009827079272583032,0.0,0.0,0.0,0.0,-0.0,0.0,-0.0,0.0,-0.006963679842660243,-0.05281682216089019,0.0,0.0,0.0,-0.0,-0.0,0.0,0.0,0.0,0.0,-0.0,0.0,-0.03638209458091341,0.0,-0.00024652550004300943,-6.601745806102642e-05,0.0,-0.059429992181195816,0.0,-0.0,0.0,0.0,-0.0,0.0,0.0,0.0,0.0,0.0,0.03617236039152589,0.0,0.0,-0.0,0.01938337592873747,-0.0,0.0,0.0,0.0,0.0,-0.0,0.0,0.0,0.02103048751618162,-0.015653636013719573,-0.0008224118930337376,0.0,0.0,-0.0,-0.0,-0.03158358659728154,-0.0,-0.0,0.0,0.0,0.0,0.0,0.0,-0.028650809155526365,-0.005514839262507696,-0.0,-0.025171950951744213,-0.0,-0.019405205707433506,-0.0,-0.002301936000049792,0.0,0.0,0.0,0.0,-0.0,-0.0,0.0,0.0,-0.0,0.001635005589738881,0.0,0.0,-0.0,-0.0,-0.0,0.0,0.0,0.0,0.0,0.0,0.0,0.0,0.0,0.0,0.0,0.0,0.0,0.0,0.0,0.0,0.0,0.0
MutState-6,-0.03756119425122578,0.0,0.0,0.0,0.0,0.0,-0.0,-0.0015754666566957422,0.0,0.0,-0.013104649136095462,0.0,0.0,0.0035722311725345157,0.0,0.008633301324746675,0.0,0.0,0.0,0.0,0.0,0.0,-0.0,0.0,0.0,0.0,-0.0,-0.0,0.0,0.0007936259548340315,0.0,0.0019996361365334867,0.032415045244631846,-0.0028603531909773793,0.0,-0.0,-0.004120374528059062,0.0,0.0,0.0,0.0,0.0,-0.0,-0.0,-0.0,-0.0,0.0,-0.0,0.014863370271677522,0.036120145931322276,0.0013017483665412237,-0.0037547672515156356,-0.06901086308096618,0.0,-0.0,0.0,-0.05168336584315765,0.0,0.0,0.0,0.0,-0.0,0.018288165026955273,-0.0,-0.0,0.0,-0.0,-0.0,0.0,-0.0,-0.00038053489827701833,0.0,0.004051228594699482,0.026880243749947616,0.0,0.0,-0.0,0.029559713560193226,0.0,0.0,-0.005830381644741243,0.0,-0.0,0.0,-0.0,0.016424569803332012,-0.0,0.0,-0.0,0.016609771208691608,0.0,0.0,-0.0,0.0,0.0,-0.0,0.0,0.0,0.0,0.0,0.0,0.0,0.0,0.0,0.0,0.0,0.0,-0.0,0.0,0.032934564077103344,0.0
MutState-7,0.0,0.0,-0.0,0.0,0.0,0.0,0.0,-0.0,0.0,0.0,-0.05038490779549379,-0.0,0.0,0.0,0.0,-0.0,0.0,-0.018523357483592746,0.0,-0.0,0.0,0.0030414666352562556,0.0,-0.0,-0.031012914137082622,-0.0,-0.0,0.0,-0.00011067357469430777,0.0,0.0,0.0,-0.00010558082762335055,0.0,-0.0050233748172164895,0.0,0.0,-0.0472295621362482,-0.0,0.0,0.0,0.0,-0.0,-0.0,0.0,-0.01732901531747088,0.013820629010149115,0.0,0.03414593308457918,-0.0,0.002500566606638604,0.0,0.0,0.0,-0.0,-0.0,-0.0,-0.0,0.0,0.0,0.0,-0.01345298138350234,0.0,0.015181097419558375,-0.0,-0.00018669462041831034,0.0,-0.0,0.012093467383555722,0.0,-0.0158211847311629,-0.0,-0.0,-0.0,0.0,0.0,-0.009941880712192742,0.0,-0.0,-0.0018810724727574375,-0.0,0.0,-0.005688509571711151,0.015148227373332488,0.0,0.0,-0.056272409616004625,0.0,0.009746630431882888,0.012290527131771384,0.03797863655356383,-0.0,-0.0,0.0,0.0,0.0,-0.0,0.0034030588295347764,0.022584696087831223,0.0,0.0,-0.0,0.0,0.0,0.0,0.0,0.0,0.0,0.0,0.0,0.0
MutState-8,0.0,-0.07768044603276009,0.0,0.0,-0.0,-0.0,0.0,0.0,-0.0,0.0,0.0,0.0004355090472283104,0.037552004155121894,0.0,-0.013944128408064348,0.0,0.0,-0.0,0.0,0.03855286520437657,0.0,0.0,0.0,-0.0,0.0,0.0,0.0,0.0,-0.0,0.0,0.0,0.0,-0.0332712717961021,-0.0,0.0,0.0,0.0,0.0011756618713294395,0.0,-0.0,-0.018663422048740108,0.0,0.0010828694385557882,0.003776915008386582,0.0,0.0,0.0,0.033575064703679235,0.0,-0.0,0.0,-0.0,0.0,0.0,0.0,0.0,0.0,-0.0,0.0,0.0,-0.0,0.0,0.0,-0.0,0.026325164338235833,0.04271312356236426,0.010582974207530717,0.0,0.0,0.0,0.06338998730797595,0.0,-0.0362967486453506,-0.0,0.0,0.0,0.0,-0.03527000536295572,-0.03665363523326022,0.023117017481892987,0.0,-0.0,0.0022490365699863136,0.0,-0.0,0.0,0.0,0.0,0.0,-0.0,-0.0,-0.0,0.0,0.008733296036207937,0.0,-0.020158704324906167,0.010303304864496795,-0.0,-0.022260529716194237,-0.0,0.0,-0.0,0.0,0.0,-0.0,0.0,0.0,0.0,0.0,0.0,0.0
MutState-9,-0.0,-0.0,0.0,0.0,0.0,-0.0,0.0,0.0,-0.0,0.0,0.0,0.0,0.0,-0.009444090568282253,0.0,-0.0,0.0,-0.0,0.0,0.0,0.0,-0.0,-0.03217277178784637,0.0,-0.0,0.05297975397797922,0.014807743498135994,0.036814321540547625,-0.0,-0.0,-0.014310081881909457,-0.0013659187002528512,-0.0,0.042290620882421484,0.0,-0.0,-0.0,0.00040399239630390716,0.0,0.0,0.0,0.0,0.024021804751044023,-0.027221652397225165,-0.0,0.0,0.0,0.0,-0.0,0.0,0.0,0.027714561343418504,0.0,-0.0,0.0,-7.75739893012405e-05,0.09101531640906071,0.0,-0.019373752039783386,-0.0,-0.0,-0.014169664153003858,-0.0,0.010299529311432874,0.0,-0.0778229869579628,-0.06133661968576825,-0.0,0.0,0.0,0.0,0.014259224773725173,-0.0,-0.0044434882842815165,-0.0,-0.024700720386719544,-0.01728850279801107,0.0,-0.0,0.0,0.0,0.0,0.0,0.0,0.0,0.0,-0.008877459781943839,-0.031237430071529536,-0.0,0.0,0.00788306684586478,0.0205980535709024,-0.008698294734642844,-0.0,0.019681992914150494,0.0,-0.0,0.0,0.0,-0.0,-0.0,0.0,0.0,0.0,0.0,0.0,-0.0,0.0,0.0,0.0,0.0
MutState-10,0.0,0.0,0.0,0.0,0.0,0.0,0.0,0.0014390903080874944,-0.0,0.0,-0.0,0.0,-0.0,0.009867352071306897,0.0,0.0,0.0,0.041206399805148564,0.0,-0.0,-0.0,-0.008910152812731413,0.0,0.0,0.0,0.0,0.0,-0.0,0.029734770810177013,-0.0,0.0,0.0,-0.0,-0.0005973011899032042,-0.0,-0.0,0.0,0.02063108380670924,-0.0,-0.0,-0.0,0.0,-0.013786137398103764,0.0,0.0,0.0,-0.0,-0.0,0.0,0.0,-0.0,-0.0,-0.0,0.0,-0.0,0.0,0.0,0.0,0.022033403684606205,0.0,-0.0,0.0,-0.0,-0.0,-0.0,0.0,0.039137562947413135,0.0,-0.0,0.0,0.0,-0.0,0.007070593850380208,0.0,0.006051531526073316,0.0,0.0,0.0,0.0,-0.03288258784516177,0.0,-0.06974717750191907,-0.0045632037716383175,0.023119859417258616,0.001538628228006811,0.007441706363043833,0.028129886736875057,0.0,-0.0,-0.00463309493966845,-0.05498202172064918,-1.557578251983628e-05,0.040850901561717876,0.0,0.0,-0.0008576945395009952,0.0,0.0,0.008220420102872354,0.0,0.0,-0.10808094593180878,-0.0,0.0,0.0,-0.0,0.0,0.0,0.0,0.0,0.0
