,Gene-1,Gene-2,Gene-3,Gene-4,Gene-5,Gene-6,Gene-7,Gene-8,Gene-9,Gene-10,Gene-11,Gene-12,Gene-13,Gene-14,Gene-15,Gene-16,Gene-17,Gene-18,Gene-19,Gene-20,Gene-21,Gene-22,Gene-23,Gene-24,Gene-25,Gene-26,Gene-27,Gene-28,Gene-29,Gene-30,Gene-31,Gene-32,Gene-33,Gene-34,Gene-35,Gene-36,Gene-37,Gene-38,Gene-39,Gene-40,Gene-41,Gene-42,Gene-43,Gene-44,Gene-45,Gene-46,Gene-47,Gene-48,Gene-49,Gene-50,Gene-51,Gene-52,Gene-53,Gene-54,Gene-55,Gene-56,Gene-57,Gene-58,Gene-59,Gene-60,Gene-61,Gene-62,Gene-63,Gene-64,Gene-65,Gene-66,Gene-67,Gene-68,Gene-69,Gene-70,Gene-71,Gene-72,Gene-73,Gene-74,Gene-75,Gene-76,Gene-77,Gene-78,Gene-79,Gene-80,Gene-81,Gene-82,Gene-83,Gene-84,Gene-85,Gene-86,Gene-87,Gene-88,Gene-89,Gene-90,Gene-91,Gene-92,Gene-93,Gene-94,Gene-95,Gene-96,Gene-97,Gene-98,Gene-99,Gene-100,MutState-1,MutState-2,MutState-3,MutState-4,MutState-5,MutState-6,MutState-7,MutState-8,MutState-9,MutState-10
Gene-1,0.0,0.0,-0.0,-0.15220997816909643,0.0,-0.16315138751107353,0.0,0.11449815219465205,0.0,0.03860270355217306,0.0,0.0,0.0,0.0,0.0,0.0,0.0,0.0,0.0,0.0,-0.0,0.0,0.0,0.0,-0.017295203633013217,0.0,0.0,0.0,0.0,0.0,0.0,0.0,0.0,0.0,0.0,0.0,0.018277456057869467,0.0,0.0,0.0,0.0,0.0,0.0,0.0,0.0,0.0,0.0,0.0,-0.050757301765308294,-0.0028189732708565583,0.0,0.0,0.01970835261765078,0.0,-0.08397999274021405,0.0,0.0,0.0,0.018590054270791315,0.0,0.0,0.0,0.0,0.0,-0.025787305815595806,-0.09595362525920859,0.0,-0.0021343779715708167,0.0,0.0,0.04107575705061153,0.0,0.013582450083639116,0.0,0.0,0.0,0.0,0.0,-0.0,-0.0,0.0,0.0,0.0,0.0,0.0,0.0,0.0,0.0,0.0,0.0,-0.06104737334765244,0.0,0.0,0.0,0.026235680654300212,0.0,0.0,0.0,0.0,0.0,0.0,0.0,0.0,0.0,0.0,0.0,0.0,0.0,0.0,0.0
Gene-2,0.05333750290441475,0.0,0.0,-0.0,0.0,0.0,0.0,0.0,0.0,0.0,-0.01343390369024628,0.0,0.0,0.0,0.0,0.041800538116629087,0.0,0.0,0.0,0.0,0.0,0.0,-0.0,-0.024733588024839676,-0.0,0.0,0.0,-0.0,0.0169507611194722,0.0,0.0,0.0,-0.0,0.0,0.0,0.0,0.0,0.032984314857972624,-0.04241279560027422,0.0,-0.003786185339401523,0.0,0.0,-0.0,0.0,0.0,0.0,0.0,-0.0,0.0,-0.0,0.0,-0.0,-0.05734524233856504,0.051539543510257295,0.0,0.0,-0.0,0.0,0.024821737767004203,0.0,0.0,0.0,-0.0,-0.023845417044515534,-0.03953311258828719,0.0,0.0,0.0,-0.0,0.0,0.0,-0.0,0.0,0.0,0.0,-0.0,-0.0,0.0,-0.0,0.0,0.0,0.0,0.0,0.0,0.0,0.0436205256551768,0.0,0.0,0.0,0.0,-0.0,0.0,0.0,-0.04618034576472025,0.0,-0.0,-0.033614587248558606,0.0,-0.0,0.0,-0.0,-0.2789168984344149,-0.0,-0.0,0.0,0.0,-0.0,0.0,0.0
Gene-3,-0.0,0.00710702745322043,0.0,0.0,0.0,0.0,0.014487715836963327,0.0,-0.0,0.0,-0.0330343507120232,-0.005240338549414632,0.0,-0.034812673684160904,0.0,-0.049948421544261254,0.0,-0.0,0.0,-0.0,-0.0,0.0,0.03261220758598583,0.0,0.0,-0.0,0.0,0.0,0.0,0.0,0.012420431267465514,0.0,0.0,0.0,-0.0,-0.0,-0.0,0.0,0.0,-0.0,0.0,-0.0,0.0,0.0,-0.0,0.00551093151997812,0.020092195875302275,-0.004921927905463449,-0.0,0.0,-0.0022225488753796715,-0.008528450705183868,0.0,0.0,0.0,0.0039472821371998425,0.0,0.0,0.0,0.0,0.0,-0.021837032853162006,-0.0,0.0,-0.0,0.0,0.0,-0.0,-0.0,0.023282040934527612,0.0,0.013004800548068662,0.051207404705325435,0.0,-0.0,-0.010250942754147993,-0.0,-0.0,0.0,0.0,0.0,0.0,-0.0,0.0,0.0,0.0,0.0,0.0,0.0,-0.0,0.0,0.0,0.005021578762752609,0.0,-0.046284748170024766,0.03004402084018566,-0.0,-0.0,-0.0,0.0,-0.0,0.0,0.0,0.0,0.0,0.046727625055883064,-0.055033529957999414,0.0,0.0,0.0
Gene-4,0.0,-0.048893930463725116,-0.0,0.0,0.0,0.0,0.0,0.0,0.0,0.0,0.0,0.0,0.0,-0.0,0.0,0.0,0.0,-0.0,-0.07187477304191404,0.0,0.008984130495869111,0.0,-0.0,0.0,0.0,0.0,0.0,0.0,0.0,-0.0,-0.03997889138515366,0.0,0.0,0.0,-0.0,-0.0,-0.0,0.0,-0.0,0.0,-0.0,0.0,-0.03996559512592729,-0.0,-0.0,-0.0,-0.0,0.0,-0.0,0.0,-0.0,0.0,-0.0,0.0,0.0,0.011928610108168074,0.0,-0.0,0.0,0.0,0.0,0.0,0.0,0.0,0.0,0.0,0.0,0.0,0.0,0.0,0.0,0.0,-0.0,0.0,-0.0,0.0,0.0,0.0,0.0,0.0,0.0,0.0,0.0,0.011870397288813995,0.0,-0.0,0.0,0.013014346980561347,0.0,-0.01793193394309604,0.0,0.0,0.0,0.0,0.0,-0.01761852435166188,0.0,-0.0,0.0,-0.0,-0.0,-0.0,0.0,-0.0,-0.0,-0.0,-0.0,0.0,-0.0,0.0
Gene-5,-0.0,0.0,0.0,0.0,0.0,0.0,0.0,0.0,-0.0,0.0,0.0,0.0,-0.0,0.0,-0.052043297084663084,0.0,0.0,0.0,0.0,0.0,-0.0,0.0,0.0,0.0,0.0,0.0,0.0,-0.0,-0.062323668149096435,-0.03417147787329419,0.0,0.027759138873165976,0.0,0.0,-0.0,0.0,0.0,0.0,-0.0,-0.0,0.0,-0.013549842362161965,-0.0,0.0,0.0679667565574448,0.062095338263010405,0.0,-0.0,-0.0,0.0,-0.0,0.0,0.0,0.0,0.0,0.0,-0.0,0.0,0.0,0.0,0.0,-0.0,0.0,0.0,-0.0,-0.0,-0.0,-0.0,-0.0,-0.0,0.0,0.0,-0.0,-0.0,0.0,0.025338118720474735,0.0,0.0,0.029005897571149197,-0.0,0.0,0.0,-0.0,0.0,-0.0,-0.0,0.0,0.0,0.0,0.0,0.0,-0.0028920734604227457,0.0,0.0,0.0,0.0,-0.0,0.015852814132869354,0.0,-0.0,0.0,0.0,-0.0,-0.0,0.0,-0.0,0.0,-0.0,0.0,0.0
Gene-6,0.0,0.0,0.0,0.0,0.0,0.0,0.0,0.0,0.0,-0.0,0.0,0.0,0.0,0.0,0.0,0.0,0.0,0.0,0.03534238873223423,0.0,0.0,0.0,0.0,0.0,0.0,0.0,0.0,-0.056993650113449076,0.0,0.04943672672075494,0.0,0.0,-0.0040965563131146725,0.0,-0.02788423018361439,0.0,0.0,0.0,0.0,-0.13151109240944364,-0.0032697251964503497,0.0,0.0,0.0,0.042775055092758855,0.07493064534650365,0.0,0.0,0.0,-0.011615320326951584,0.0,0.0,0.0,0.0068715654754118085,0.0,0.0,0.0,0.0,0.0,-0.1484600090519322,0.0,0.0,0.0,0.012735163633093767,0.0,0.0,-0.010302079450670106,0.0,0.0,0.0,0.0,0.0,0.0,0.0,0.0,0.0,-0.044218251830597924,0.00233687809247396,0.0,0.06536601937336517,0.0,0.0,0.0,0.0,0.0,0.0,0.0,0.0,0.0,0.0,-0.08600738531517695,0.0,0.0,-0.014565993453332407,0.0,0.039627546548591304,0.0,0.0,-0.032611573976871276,0.0,0.0,0.0,0.0,0.0,0.0,0.0,0.0,0.05196407443043881,0.0,0.0
Gene-7,-0.0,-0.0,0.0,0.0,-0.0,0.0,0.0,0.02557650180058044,0.0,-0.07570201050149997,-0.07239836704445497,-0.04293762377733359,0.0,0.0,0.0,-0.041546342007390206,-0.08738464708163807,0.0,0.0,0.0,0.013328038243795847,0.0,-0.0,0.0,0.0,-0.032145651572302834,0.0,0.0,-0.0,0.0,0.0,0.0,0.06412072887361658,0.0,0.0,-0.010194726880329012,0.0,-0.0,0.0,0.0,0.0,0.0,0.0,-0.020422587279509238,0.0,-0.0,0.0,0.01813789606050432,0.02381321945619135,-0.0,0.0,0.0,-0.0,0.0,0.0,0.0,-0.0,0.0,0.02141903456539177,0.0,-0.0,0.0,-0.0,0.0,-0.0,-0.0,-0.0,0.0,0.0,-0.0342247382955472,-0.05933144963016467,0.024621994788244166,0.0,0.0,-0.0,0.0,0.015439891925211321,0.0,-0.0,0.0,0.0,0.0,-0.0,-0.0,0.0,-0.0,-0.004104939469872033,0.0,-0.0,0.0,0.0,-0.0,0.0,0.0,-0.0,0.0,0.0,0.0,0.0,0.0,0.0,-0.0,0.0,-0.0,0.0,-0.0,-0.0,0.0,0.0,0.0
Gene-8,0.0,0.0,0.0,0.003705945650946326,0.0,-0.015305315730630722,0.0,0.0,0.0,0.0,0.0,0.0,-0.0,0.0,0.0,0.0698642809060123,0.0,0.0,0.0,-0.0,0.0,0.0,0.0,0.0,0.0,-0.0,0.0,0.0,0.0,0.0,0.0,0.0,-0.004378339050052608,0.0,-0.0,0.0,-0.0,-0.0,0.0,-0.0,-0.0,0.0,0.0,0.0,-0.0,-0.017244656657901373,-0.0,-0.0,0.0,-0.0,-0.0,0.0,-0.07077107989867276,-0.0,0.0,-0.0,0.0,0.0,0.0,0.0,0.0,0.0,-0.0,-0.0,-0.0,0.0,0.0,0.0,0.0,0.0,0.0,0.0,-0.0,0.0,0.0,-0.0,-0.0,0.025613786951421483,-0.006806770630875129,0.0,0.0,0.0,0.0,-0.0,-0.0,0.0,-0.02555356416413115,0.0,-0.0,-0.02599951557483434,0.0,0.0,-0.0,0.0010265586468669442,0.0,-0.0,-0.0018330943198426037,0.0,-0.0,0.0,0.0,0.0,-0.0,0.0,-0.0,-0.0,-0.0,-0.0,-0.0,0.0
Gene-9,0.0,0.0,-0.0,-0.0,0.0,0.0,0.0,0.0,0.0,0.0,0.0,0.0,0.0,0.0,0.0,0.0,0.0,0.0,0.0,0.0,0.0,0.0,0.0,0.0,0.0,0.0,-0.0,0.0,0.0,-0.0,0.02260651526513649,0.0,0.0,0.0,-0.0,-0.007475100665490728,-0.0,0.0,0.0,0.0,-0.09120015043645413,0.015216057118349773,0.0,0.0,0.0,0.0,0.0,-0.0,-0.0,-0.0,-0.0,0.0,-0.0,0.0,-0.0,0.00923497835084921,-0.0,0.0,-0.012942620124180652,0.0,-0.0,-0.0,0.0,-0.0,-0.0,-0.0,-0.0,0.0,-0.0,0.0,0.0,-0.0,0.0,0.0,0.0,-0.0,0.0,0.0,0.0,0.0,0.0,-0.0,-0.0,0.0,0.0,0.0,0.0,0.0,0.0,0.0,0.0,-0.0,0.06540333175585294,0.0,0.0,0.0,0.0,0.0,0.0,0.0,0.0,0.0,0.0,0.0,-0.0,0.0,-0.0,0.0,-0.0,-0.14390726601663745
Gene-10,0.0,-0.0,-0.0,0.0,0.0,-0.0,-0.0,0.0,0.009647443376034072,0.0,0.0,0.0,-0.0,0.0632301647810855,0.0,0.0,0.0,0.0,0.0,0.0,0.0,0.0,0.0,0.0,-0.0,-0.0,0.0,0.0,-0.0,0.0,0.07006979200734699,0.0,0.0,0.0,0.0,-0.0,-0.0,-0.0,0.0,-0.0,0.0,0.0,-0.0,0.0,0.0,0.0,0.0464312274966211,0.0,0.0,0.0,0.0,0.0,-0.0025250256577289847,0.0,0.0,-0.0,-0.0,-0.0,0.0,0.0,-0.0,-0.0,0.0,-0.0,-0.0,0.0,0.0,-0.027914698448348093,0.0,0.0,-0.0,0.0,-0.0,0.0,0.0,0.0,0.0,0.0,-0.0,-0.0,-0.0,0.0,-0.0,-0.0,-0.0,0.0,0.0,0.0,0.0,0.0,0.0,0.0,0.0,-0.027867914714491213,0.018825643740987948,-0.0,0.0,0.0,-0.0,0.0,-0.0,-0.0,0.0,-0.0,-0.0,0.0,0.0,0.0,0.0,0.0
Gene-11,-0.0,-0.0,-0.0,0.0,0.0,0.015887131253271677,-0.0,0.0,0.0,0.0,0.0,-0.020748165522066164,0.0,0.0,0.0,0.0,0.0,-0.0,0.0,-0.0,-0.0,-0.0,-0.0,0.0,0.0,0.0,0.0,0.0,0.0,0.0,0.0,0.0,0.0,0.0,0.0,0.0,0.0,0.0,0.0,0.0,0.0,0.0,0.0,0.0,0.0,0.0,-0.0,0.00835592834034114,0.0,0.0,0.0,0.0,-0.05833132934098435,0.0,-0.0,0.0,0.0,-0.0,0.04752419068431337,-0.03428342801120346,0.0,-0.0,0.0,-0.0,0.0,0.0,0.010784338575553918,0.0,0.0,0.0,0.0,-0.0,-0.0,0.0,0.0,0.0,-0.04343209823293008,-0.0070716938837080264,0.0,0.0,0.0,0.059331025788770766,0.0,0.0,0.0,-0.0,0.0,0.06700960686151287,0.0059849578931381545,0.0,0.0,0.0,0.0,0.0,0.014349088746649724,0.0,0.014798781831112221,0.0,0.0,0.0,0.0,0.0,0.0,-0.0,0.0,-0.0,-0.0,-0.0,-0.0,0.0
Gene-12,0.0,-0.0,-0.0,0.0,0.0,0.0,-0.0,0.0,0.0,0.0,-0.0,0.0,-0.0,0.003593309230837595,0.0,0.0,-0.06585849385032488,0.0,0.0,0.0,0.0,0.0,0.0,0.0,0.012502171698002855,0.05872892024632705,-0.0,-0.0,-0.0,0.0,-0.04034823763953697,0.0,0.0,0.0,0.017441537497539766,0.0,-0.0,0.0,0.0,0.0,0.0,0.0,0.0,0.0,0.0,0.0,0.0,0.0,0.0,0.0,0.0,-0.0,0.0,0.0,0.0,0.0,-0.0,-0.0,0.0,0.0,-0.0,0.0,0.0,0.0,-0.0,0.0,0.0,-0.0,0.0,0.0,-0.0,0.0,0.0,-0.0,0.0,0.0,-0.04586106853940771,0.0,0.0,0.0,0.0,0.0,0.0,-0.0,-0.0,-0.0,0.0,-0.09961178024668126,0.0,0.0,0.0,0.013189997258763592,-0.0,-0.0,-0.0,0.0,-0.0,-0.0,0.0,-0.0,0.0,0.0,0.0,-0.0,-0.0,-0.0,0.0,-0.0,0.0,0.0
Gene-13,0.001483603951767678,-0.0,0.0,-0.0,0.0,0.0,0.0,-0.0,0.0,0.0,0.0,-0.0458688853108146,0.0,-0.0,0.0,0.0,0.0,0.0,0.0,-0.0,-0.0,0.0,0.0,0.0,-0.0,0.0,0.0,-0.0845116619542499,0.0,0.0,0.0,0.0,0.0,-0.10098661210091422,0.0,0.0,0.0,0.0,0.01555291797726831,-0.0,-0.038573164246941974,-0.0,0.0,0.0,0.0,0.0,0.0,0.0,-0.0,0.0,0.0,-0.0,-0.0,-0.0,0.0,0.0,0.0698041552648247,0.0,0.0,-0.0,-0.07835004973636951,0.0,0.010340073818766416,0.0,-0.0,0.03224690023109176,0.0,-0.0,-0.02990607378617438,0.08104424270804435,-0.01585583874962674,-0.0,0.0,0.0,0.0,-0.0,0.0,0.0,0.0,-0.05812280832229186,0.0,-0.0,-0.0,0.0,0.0,0.0,-0.04151567425451782,0.0,0.0,0.0,0.0,0.0019790415948744457,0.0,0.0,0.0,-0.06856026243458889,0.0,0.0,0.0,-0.0,0.0,0.029616009023391444,0.0,0.0,-0.0,0.0,0.0,0.0,0.0,0.0
Gene-14,0.0,0.0,-0.0,-0.0640399803274615,0.0,0.0,0.0,0.016070744922819607,0.0,0.0,0.0,0.0,-0.027338689683738166,0.0,-0.13496653994525976,0.0,0.0,0.0,0.0,0.0,0.0,0.0,0.0,0.0,0.0,0.0,0.0,0.0,0.0,0.0,0.0,0.08523768503569516,-0.0,0.0,-0.025531650542065625,-0.0,0.0,0.0,-0.0,0.0,0.0,0.0,-0.0,-0.0,0.0,-0.0,0.0,-0.0,0.0,-0.016277378802880417,0.0,-0.0,0.0,-0.0,-0.0,-0.0,0.0,0.11786636705002719,0.0,0.0,-0.0,-0.0,-0.06129586412206905,-0.06089065358176552,-0.0,-0.0,0.005130496067356647,-0.0,0.0,-0.0,0.0,0.0,0.0,0.0,-0.0,-0.0,0.0,-0.0,0.0,-0.06903737732552477,0.010959098161672723,-0.07533578969556722,0.0,0.0,0.0,-0.06661542530344342,0.0,0.0,-0.0,0.0,-0.05280342011826074,0.0,0.0,0.0,0.0,0.0,-0.0,-0.0,-0.0,0.0,0.0,0.0,0.0,-0.0,0.0,0.0,0.0,0.0,-0.0,0.0
Gene-15,0.0,0.0,0.0,0.025764318717613924,-0.0,-0.0,0.0,0.04241152055416945,-0.0,-0.0,0.0,0.0380583179210322,0.0,-0.0,0.0,0.0,0.0,0.0,0.0,0.023085224341994993,0.0,-0.040615618579335426,0.0,0.0,0.01694486991277997,-0.0,0.0,0.028084204530941292,-0.0,-0.0,-0.014885001964341126,0.0,0.0,0.0,0.0,-0.0,0.0,0.0007451601637803376,0.0,0.0,0.0,0.0,0.0,-0.0,0.0,-0.0,0.0,-0.0524233250359978,0.0,0.0,0.0,0.0,0.0,-0.0,0.0,-0.02114302478077276,0.0,-0.0,0.0,0.0,0.0,0.0,-0.0027392559088582425,0.09920379035589924,0.0,0.0,0.0,0.0,0.0,0.0,0.0,-0.010450935097866687,-0.0,-0.0,-0.0,0.06864133653623379,0.0,0.0,-0.0,-0.05256394854867726,0.0,0.0,-0.0,-0.0,-0.0,0.0,0.0,0.0,-0.0,0.0,0.0,0.0,0.0,0.0,0.0,-0.0,-0.0,0.0,0.0,0.0,-0.0,-0.0,0.0,0.0,-0.0,-0.0,-0.0,-0.0,0.0,0.0
Gene-16,-0.05258879474671625,0.0,-0.0,0.0,-0.0,-0.0,-0.0,0.0,0.0,0.0,0.0,0.0,0.0,0.0,0.0,0.0,0.1872324725915382,-0.0,0.0,-0.03269598087763852,0.0,0.0,0.0,0.0,0.0,0.0,0.0,0.0,0.0,-0.09601058845628992,0.0,0.0,0.03250700779481605,0.006346070049359754,0.0,0.0,0.0,-0.0,0.0,0.0,-0.0,0.0,0.007000196252055052,0.0,0.0,0.0,0.10644377619828137,-0.0,-0.0,0.022431818156585688,0.0,0.0,0.0,0.0,0.0,0.05869980038697012,0.0,0.0,0.0,0.0,0.0,0.0,0.023935702792943,0.0,0.0,0.0,0.0,0.0,-0.0,0.0,-0.0,0.0,-0.0,0.0,0.0,0.0,0.12307996022628914,0.0,0.0,0.0,0.0,0.0,0.0,0.0,-0.0,0.0,0.0,0.0,0.02409224139185199,-0.0,0.0,0.0,0.0,0.0,0.0,0.0,0.0,0.0,0.0,-0.0,0.0,0.0,0.011853912437637422,0.0,-0.0,0.0,-0.0,0.0,0.0,0.0
Gene-17,0.0,0.0,0.0,-0.0,0.0,-0.0,-0.0,0.0,0.0,0.0,-0.024656521604250973,0.0,0.0,0.0,0.0,0.0,0.0,0.0,0.0,-0.06305747315491753,-0.0,0.0,0.0,0.0,0.0,0.0,0.0,0.0,-0.0,0.0,0.0,0.0,0.0,0.0,0.026760398686324266,-0.0,0.0,0.0,0.0,0.0,0.0,0.0,0.0,0.040364445788569785,-0.0,0.0,0.0,0.02207568105528477,0.0,-0.0,-0.037357209049940054,0.0,-0.0,-0.0,-0.0,0.0,0.0,-0.0,0.0,0.0,-0.0,-0.0,-0.0,0.0,-0.0,0.04253182911485834,0.0,0.0,0.0,0.0,0.0,-0.0,-0.021151712402629707,0.0,-0.0,0.0,0.0,-0.0,-0.0,0.0,0.0,0.0,0.0,-0.0,0.0,0.0,0.0,0.0,0.0,0.0,0.0,-0.0,-0.0,0.0,0.0,0.0,0.0,0.0,0.0,0.0,-0.0,0.0,0.0,0.0,0.0069859986821043316,0.0,-0.0,0.0,0.0,0.0
Gene-18,0.0,0.0,0.0,-0.0,0.0,-0.0,0.0,0.0,0.0,0.0,-0.0,0.0,0.0,0.0,0.0,-0.0,0.0,0.0,0.04363179546587702,-0.0,-0.0,-0.03326487587750306,0.0,0.0,-0.0,-0.0,0.0,0.0,0.00968482345939264,0.0,0.0,0.0,0.0,0.0,0.0,0.0,0.051924781316592894,0.0,0.0,-0.0,0.0,0.0,0.0,0.0,0.0,0.0,-0.0,-0.0,0.0,-0.0,0.0,0.0,0.0,0.0,-0.0,0.04497665558415612,0.0,0.0,0.05622153071522073,0.0,0.0,-0.0,0.0,-0.02569981267354716,-0.0,-0.0,0.0,0.0,0.0,0.0,0.0,0.0,0.0,0.0,0.0,-0.11582615062573069,0.0,0.08009993638088495,0.0,-0.0146055912689833,-0.0,0.0,-0.0,0.0,0.07456074352037649,0.0,0.0,0.0,-0.0,-0.0,0.0,0.0,0.011891801064078108,0.0,0.0,0.0,-0.0,0.0,0.0,0.0,0.0,0.0,0.0,0.0,0.0,0.0,-0.0,-0.0,0.0,0.0
Gene-19,-0.0,0.0,0.0,-0.0,0.0,0.0,0.0,0.0,0.0,0.0,0.0,0.0,0.0,0.0,0.0,-0.0,0.03397118822069812,0.0,0.0,-0.0,0.0,0.0,0.0,0.0,0.0438476987673131,0.0,0.0,0.0,0.0,-0.0,0.0,0.0,0.0,-0.0,-0.0,-0.0,0.0,0.0,0.0,-0.07003476057880559,-0.0,-0.0,-0.0,0.019709389132824127,0.0,0.01651252451554129,0.0,0.0,0.0,0.0,0.0,0.0,0.09971862509756636,0.0,0.0,0.0,0.0,-0.0,0.0,0.0,0.0,0.0,0.0,0.0,-0.0,-0.0,0.0,0.0,0.0,0.0,0.0,-0.0,0.0,0.0,0.0,0.0,0.0,0.0,0.0,0.032073427559680796,0.0,0.0,0.0,-0.0,0.0,-0.0,0.0,0.0,0.0,0.0,0.0,0.0,0.0,-0.0,0.0,-0.0,-0.0,-0.038672664274413605,0.0,-0.0,0.0,-0.0,-0.0,0.0,0.0,-0.0,0.0,0.0,0.0,0.09952264944918993
Gene-20,-0.021111558380390638,0.0,-0.0,0.0,0.0,0.0,-0.0,0.0,0.0,0.0,0.0,0.0,-0.05333182600660946,0.0,-0.0,-0.0,0.0,-0.0,0.0,0.0,0.06387182328694804,0.0,0.0,-0.0,0.0,0.0,0.0,-0.0,0.0,0.0,0.0,0.0,-0.0,-0.0,0.0,0.0,-0.004080740567241844,0.0,0.0,0.0,0.0,0.0,0.0,0.028878451139048432,-0.0,0.0,0.0,0.0,-0.0,0.0,0.0,0.0,0.0,-0.05867641602263567,0.0,-0.0,-0.0,-0.0,0.0,0.0,0.0,0.0,0.0,-0.0,-0.0,-0.028297889875423872,0.05655336280619327,0.0,0.0,0.0,0.0,0.0,0.0,0.0,0.0,0.0,0.0,-0.0,0.0,-0.027479135692751473,-0.0,0.0,-0.1054257856677608,0.0,0.0,0.0,0.0,-0.11871648831973772,0.0,0.0,0.0,0.0,-0.0,0.001748490776881539,0.0,0.0,-0.000627883289621423,0.10858736253439127,0.0,-0.0,-0.04440038002340379,-0.12508915148887506,-0.0,-0.0,-0.0,0.0,-0.0,0.0,0.0,-0.026833080108396364
Gene-21,0.0,0.0,0.0,0.0,-0.0,-0.004956906620413254,0.0,0.0,0.0,0.0,0.0,0.0,0.0,0.0,0.0,0.0,0.0,0.0,0.0,0.0,0.0,0.0,0.08221571500338812,-0.0,0.0,0.0,0.0,0.0,0.0,0.0,0.0,0.0,0.08382331165085154,0.0,0.0,-0.06858244099533095,0.0,-0.024616546843554882,0.0,0.0,0.0,-0.11594756414059805,-0.061072269191265176,0.0,0.0,-0.057184802704368855,0.0033985617798518337,0.0,0.0,0.0,0.0,-0.008497132944121962,0.0,0.0,0.0,0.047879183204058096,-0.005270000609401169,0.0,0.0,0.0,0.0,0.0,0.0,0.0,0.0,0.0,0.12041450659733229,0.0,0.0,0.0018511210109676832,0.0,0.0,0.0,0.0,0.0,0.0,0.0,0.0,3.969498394089041e-05,0.0,0.015679843033012057,0.0,0.0,0.0,0.0,0.0,0.0,0.0,-0.09221388515299661,0.0,0.0,0.0,0.0,0.0,0.0,0.0,0.0,0.0014666817930365289,-0.06962489847507236,0.0,0.0,0.0,0.0,0.08518088866950167,0.0,0.0,0.0,0.0,0.0,0.0
Gene-22,0.0,0.0,0.0,0.0,0.0,-0.0,0.0,0.0,0.0,0.0,-0.0,0.0,0.0,0.0,0.0,0.0,0.0,-0.0,0.0,0.0,-0.0,0.0,-0.0,-0.009893745840965432,-0.09016585128432782,0.0,0.0,0.0,0.0,0.0,0.0,0.017632342422053884,0.0,0.0,0.0,-0.0,0.0,0.0,-0.0,0.0,-0.0,0.0,0.0,0.0,0.0,0.04683781168517532,0.0,0.0,0.0,0.0,0.0,-0.0,0.0,0.0,-0.0,-0.03407723839720188,0.0,0.0,0.0,0.0,-0.0,-0.0,-0.0,-0.0,0.0462934236721611,0.021690057133498843,0.0,0.0,0.0,-0.04426366720599732,0.0,-0.06362579943150043,0.0,0.0,0.0,0.0,-0.0,0.0,0.0,0.03492565468071667,0.0,0.0,0.0,0.0,0.0,0.0,0.0,0.0,0.0,-0.0,0.0,0.0,-0.019821603916809226,0.0,-0.0,-0.0,0.0,0.0,0.0,-0.0,0.0,-0.0,-0.0,0.0,0.0,0.0,0.0,0.0,-0.04717186416112107,0.0
Gene-23,0.0,-0.07492573314281858,0.0,-0.12829469030401675,0.0,-0.0,-0.0,0.0,0.0,0.0,-0.0,0.0,0.0,0.0,0.0,-0.0,0.0,0.0,0.0,0.0,0.0,0.0,0.0,-0.0,0.0,0.0,0.0,0.0,0.0,0.0,0.0,-0.12939758280074207,0.0,0.0,0.0,0.0,0.0,-0.0,0.0,0.0,0.0,0.0,-0.0,0.0,0.0,-0.0,0.0,0.0,-0.0,0.0,0.0,0.0,-0.0,0.0,-0.015149561547896557,0.0,-0.025610452401741746,0.0,0.0,-0.0,0.0,0.0,0.0,-0.14672603577586543,0.0,0.0,-0.0,-0.0,-0.0,-0.01987504113814867,0.11974950621569921,-0.0,0.0,-0.0,-0.0,0.0,0.0,0.0,0.0,-0.0,-0.0,0.0,0.0,0.0,0.0,0.0,0.0,0.0,0.0,0.0,0.0,0.0,-0.0,0.0,-0.011852472889286507,0.0,0.0,0.0,0.0,-0.0,0.0,0.0,-0.0,-0.087979261378394,-0.0,-0.0,0.0,0.0,-0.0,0.0
Gene-24,0.0,-0.0,0.0,0.0,0.0,-0.0,0.0,0.00639514578789367,0.0,0.0,0.0,0.02616763831911625,-0.0,0.0,0.0,0.0,0.0,0.0,0.0,-0.0861503155317095,0.0,-0.0,0.0,0.0,0.0,0.0,0.0,0.0,-0.0,0.0,0.06324891536502698,0.0,0.06766176966366547,0.0,0.0,0.0,-0.025348761982666883,-0.0,-0.0,-0.0,0.0,0.0,0.0,0.0,-0.0,-0.0,0.022222244726269852,0.0,0.024473378114329404,0.0,-0.0,-0.04188129985721863,0.0,0.0,0.0,-0.0,0.0,0.0,0.0,-0.0,0.0,0.0,0.0,0.0,0.0,-0.0,0.0,0.0,-0.0,0.0,-0.0,0.0,0.0,0.0,0.0,-0.0,-0.0,0.0,0.0,-0.0,0.0,0.0,0.0,0.0,-0.0037126114245566795,0.0,-0.0,0.0,0.0,0.03644844282579006,0.0,-0.0,-0.04142728832029892,-0.0,0.0,0.0,0.0,0.0,0.0,-0.0,0.0,0.0,0.0,0.0,0.0,0.0,0.06038958152419249,-0.0,0.05314099066140405,0.003735529954921192
Gene-25,-0.0,-0.0825289105279767,0.0,0.018813032493420662,-0.0,0.0,0.0,0.0,0.0,0.0,0.0,0.0,-0.0,0.0,0.0,0.0,0.0,-0.0,0.0,0.0,0.0,-0.0,0.0,0.0,0.0,0.0,0.0,0.0,0.0,0.0,0.0,-0.05110732114274866,0.0,-0.0,0.0,0.0,-0.0,-0.0,-0.0,0.0,0.0,-0.0,-0.0,0.0,0.0,0.0,-0.0,-0.0,0.0,0.0,0.0,-0.0,0.0,0.0,0.0,-0.08984259722587182,0.0,0.0,0.0,0.0,0.0,0.0,0.0,0.0,0.0,-0.0,-0.03943686663608938,-0.0,0.0,0.0,0.0,0.0,0.0,0.0,0.0,0.0,0.0,0.0,-0.0,0.0,0.0,0.0,0.0,0.0,-0.0,-0.0,0.0,0.01822627718747972,0.008100278211491927,0.0,0.0,0.0,0.0,-0.0,-0.0,-0.0,0.0,-0.04148635267102547,0.0,-0.0,0.0,-0.0,0.0,0.0,0.0,0.0,-0.0,0.0,0.034190213590618086,0.0
Gene-26,0.0,-0.05142879732101769,-0.0,0.0,0.0,-0.0,-0.0,-0.0,0.0,0.0,0.0,0.0,0.0,0.0,0.0,0.0,0.0,-0.10292836813555413,0.0,-0.0,0.06740726372360892,-0.0,0.043401338843296645,0.0,0.0,0.0,0.0,-0.0,0.06874532987936725,0.0,0.0,0.0,0.0,-0.004959865202870897,0.0,0.0,0.0,-0.0,0.0,0.0,0.0,-0.0,-0.0,0.0,0.0,-0.0,0.0,0.0,-0.0,-0.0,0.0,0.0,0.0,0.030156305804877975,-0.0,0.0,0.0,-0.0,0.0,0.010140611431220185,0.0,0.0,0.0,0.06701262285600106,0.0,-0.0,0.0,-0.0,-0.02086166423148827,-0.0,0.0,0.0,0.0,0.0,0.0,-0.0,0.0,0.0,-0.047660752399167484,0.0,0.0,0.0,0.08561467640830774,0.0,0.0,0.0,0.0,0.0,0.0,0.0,0.0,0.0,0.0,0.0,0.0,0.0,0.0,0.0,0.0,0.0,0.0,0.0,-0.0,0.029626861090853412,0.0,0.0,-0.0,0.0,0.0,0.0
Gene-27,0.0,0.0,0.0,0.0,0.0,-0.0,0.0,0.0,-0.0,0.0,0.0,0.0,0.01178414157685065,0.0,0.0819382893547563,0.0,0.0,0.0,0.0,0.009036371639089961,0.0,0.0,0.0,0.0,0.0,0.0,0.0,0.0,0.0,-0.042367126083964375,0.0,0.0,0.0,-0.0,0.0,-0.0,0.0,-0.0,-0.0,0.0,0.0,0.0,0.0,0.020665341751947487,0.0,0.0,0.0,-0.0,0.0,-0.0,0.0,0.0,-0.0,-0.0,0.0,0.0,0.0,-0.0,0.0,0.0,0.0,0.0,-0.006548849687894194,-0.0,0.0,0.0048864799389625214,0.003872667528459726,0.0,-0.0,0.0,-0.0,0.0,0.0,0.0,0.0,0.007358951065632614,0.0,-0.006678170109269322,0.06620537813451301,0.0,-0.0,0.0,0.0,0.07865202440371448,0.0,-0.0,0.0,0.0067581132007088025,-0.0,0.0,-0.03141928698075514,0.01275724957775807,0.02162657136684435,-0.014736959216530232,0.0,0.0,0.0,0.0,-0.0,-0.0,0.0,0.0,0.0,-0.0,0.0,-0.0,-0.0,0.0,0.0,0.08803383543438487
Gene-28,-0.0,-0.0,0.0,0.0,-0.0,-0.0,0.0,-0.0,0.0,0.0,-0.0,-0.02978594062734881,-0.0,0.0,0.0,0.0,0.0,0.0,0.0,-0.04286117473309089,-0.0,0.0,0.0,0.0,-0.0,-0.04504313172105179,0.0,0.0,0.0,0.0,0.0,0.0,0.0,0.0,0.0,0.0,-0.0,-0.0,0.0,-0.017395399172233924,0.0,0.0,-0.0,0.05140318731388932,0.0,-0.0,0.0,0.0,0.0,0.0,0.0,-0.05474018733917444,-0.0,-0.0,0.0,0.0,0.0,0.004959437094665721,-0.007457772888489775,0.0,-0.0,0.0,0.0,0.0,0.0,0.08069630313457517,0.0,0.0,-0.0,-0.0,0.0,0.0,0.0,0.0,0.0,0.0,0.03176667255749661,0.0602495568397716,-0.006879223763565697,0.0,0.0,0.0,-0.0,0.0,0.0,0.0,-0.0,0.0,-0.0,0.0,0.0,0.0,-0.08571789139384407,0.0,-0.0,0.0,0.0,0.0,0.0,-0.0,-0.0,-0.06076463037160568,-0.0,-0.0,-0.0,-0.024989903612900845,0.0,-0.020963648612488447,0.0,0.0
Gene-29,-0.0,-0.0,0.0,0.0,0.0,0.0,0.0,0.060565539111624926,-0.04564686046228142,-0.0589929361860025,0.0,0.004973968857771664,-0.0,0.0,0.0,0.0,0.0,0.0,0.004819688201348291,0.04497026428720826,0.0,0.0,0.0,-0.0,0.0,0.0,0.0,0.0,0.0,0.0,0.0,0.0,0.0,-0.0,-0.0,0.0,-0.00304586640691696,0.0,0.0,0.0,0.0,0.051614269034702585,0.0,0.0,0.0,0.0,-0.0,0.0,-0.0,-0.0,0.04315558201073727,0.0,-0.0,-0.0,0.0,0.0,0.0,0.0,0.0,-0.0,0.0,0.0,0.0,-0.0,0.0,-0.0,0.0,0.0,-0.0,0.0,0.0,-0.0,0.016487138736982508,-0.07597005998660411,0.0,0.0,-0.0,0.007161670234886174,0.0,-0.0,-0.0,0.0,0.00785187170327366,0.0,0.0,-0.0,0.0,0.0,-0.04879822186674782,0.0,0.0,0.0,0.0,0.0,-0.0,0.0,0.0,0.0,-0.0,0.0,0.0,-0.0,-0.0,0.0,0.0,0.0,-0.0,-0.11419060289030819,-0.0,0.0
Gene-30,-0.0,0.0,0.0,-0.0,-0.0,0.0,0.0,0.0,0.00853405761131157,0.0,0.0,0.0,0.0,0.0,0.0,-0.0,0.014933873018131115,0.0,0.0,0.0,-0.0,0.0,0.0,0.0,0.0,-0.0,-0.0,0.0,-0.0,0.0,0.0,0.0,0.0,0.0,0.0,-0.0,-0.0,0.0,0.0,0.0,-0.0,0.0,0.0,-0.03515679874023429,-0.0,0.0,0.0,0.0,0.0,0.008595648579522584,0.0,-0.0,-0.0,-0.0,-0.0,0.0,0.0,-0.0,0.0,-0.0,-0.0,0.0,0.0,0.0,0.0,0.0,-0.035722533937515503,0.0,-0.0,0.0,0.0,-0.0,0.0,0.0,-0.0,0.0,0.0,-0.0,-0.0,0.04195012807960569,0.0,0.0,-0.0274306512971259,0.0,-0.0,0.0,0.0,0.0,0.0,-0.004550767681658572,0.0,0.0,0.0,0.0,0.0,0.0,0.0,0.0,-0.0,0.0,0.0,0.0,-0.0,-0.0,-0.0,0.0,0.0,0.0,-0.0,0.0
Gene-31,0.0,-0.0,0.0,-0.0,0.0,0.0,0.0,0.0,0.0,0.0,0.0,0.0,0.0,0.0,-0.0,-0.04264319189263843,0.0,0.0,0.0,-0.0,0.0,0.0,0.0,0.0,0.0,-0.0,0.0,0.0,0.0,0.0,0.0,-0.0,0.0,-0.0,0.0,0.0,-0.0,-0.0,0.0,0.0,-0.0,0.0,0.0,0.0,0.0,-0.0,0.018533030528817277,-0.036389297745201,0.0,-0.0,0.017474363559612655,0.0,0.0,0.0,0.0,-0.0,-0.057869533434355226,0.0,0.0,0.0,0.0,0.0,0.06633893067233342,0.0,-0.0,-0.0,-0.0,0.0,-0.0,0.0,0.0,0.14994442769342697,-0.011043809615629075,0.0,0.0,-0.0,0.0,0.0,0.0,-0.0,0.0,-0.0,-0.09552007329773991,0.048961922321871514,-0.0,0.0,0.0,-0.1382365238522823,0.0,-0.0,-0.0372355440973759,0.0,0.0,-0.0,0.0,-0.0,-0.019355791630493405,0.0,-0.0,0.0,0.0,-0.0,0.0,-0.0,-0.0,0.0,0.0,0.0,-0.0,-0.20636338307199495
Gene-32,0.0,0.0,0.0,0.0,0.0,0.0,0.0,0.0,0.0,0.0,0.0,-0.009824329789092784,0.0,0.0,0.0,-0.0,0.0,0.0,0.0,0.0,0.0,0.0,-0.0,0.0,-0.0,0.0,0.0,0.0,-0.0,0.0,0.0,0.0,0.0,0.0,0.0,0.0,0.0,0.0,0.0,0.0,0.0,0.0,0.0,0.0,0.0,0.0,0.0,0.0,0.0,0.0,0.0,-0.0,-0.0,0.0,0.0,-0.0071306551060159856,0.0,-0.0,0.0,0.0,0.0,-0.0,0.0,0.0,0.0,0.0,0.0,0.0,-0.005055584486394551,0.0,0.0,0.0,0.0,0.0,0.0,0.0,0.0,0.0,0.0204119916643313,0.0,-0.0,-0.0,-0.0,0.0,-0.0,-0.0,0.0,0.0,-0.0,-0.0,0.0,0.0,0.0,0.0,0.0,0.0,-0.0,-0.0,0.0,-0.0,-0.0,-0.0,-0.0,0.0,0.0,0.0,0.009807133417610664,0.0,0.0,0.0
Gene-33,0.0,-0.0,0.0,0.0,0.0,-0.0,0.0,-0.0,-0.0,0.05217591056948756,0.0,0.0,0.0,-0.0,0.0,0.0,0.0,0.0,0.0,-0.0,0.0,0.0,0.0,0.0,0.0,0.0,-0.0,0.0,0.0,0.0,0.0,0.0,0.0,0.0,0.0,-0.0,0.0,-0.0,0.0,0.0,0.06817514877340411,0.0,0.0,0.0,-0.0,0.0,-0.0,0.0,0.0,0.0,-0.0,0.0,0.0,-0.02545314783184153,0.0,0.0,0.0,0.0,0.0,-0.04899057205083566,-0.0,0.0,0.016353008831235513,0.0,-0.0,0.0,-0.1022456744627919,0.0,0.0,0.0,0.0,-0.08285553056138963,-0.0,0.0,0.0,0.0,-0.0,0.0,0.0,0.0,-0.0,-0.037045831337939164,-0.0,-0.0,0.0,0.0,0.0,0.0,0.018600854934735015,0.0,0.0,-0.00725321325132958,-0.052702723297102703,-0.0,0.0,0.0,0.0,0.0,0.03327159484899859,0.0,-0.0,0.0,-0.0,0.0,-0.0,0.0,-0.0,-0.0,-0.0,0.0
Gene-34,0.0,0.0,0.0,0.0,0.0,0.0,0.0,0.0,0.05931975319546217,0.0,0.0,0.0,0.0,0.0,0.0,0.0,0.0,-0.0,0.0,-0.0,-0.0,0.0,0.0,0.0,-0.011346290600292033,-0.0,-0.03452469837051178,0.0,0.0,0.0,0.0,0.0,0.0,0.0,0.0,0.0,0.0,0.0,-0.0,0.0,0.0,-0.0,-0.0,0.0,0.0,-0.0,-0.0,-0.0,0.0,-0.0,0.0,0.0,-0.0017251568510018626,-0.0,0.0,-0.0,-0.0,0.0,0.1201158777043345,-0.0,0.0,0.0,0.0,0.0,-0.0,0.0,-0.0,0.0,0.05103622675451498,0.0,0.0,0.0,0.0,0.0,0.0,0.0,0.0,0.0,-0.09072386894760184,0.0,-0.0,0.0,0.0,0.0,0.0,0.0,0.0,0.0,0.0,0.0,0.0,0.0,0.0,0.0,0.0,-0.0,0.0,0.0,-0.019371186207087013,0.0,0.0,0.0,0.053529431754409475,0.0,0.0,0.0,-0.0,-0.0,0.0,0.0
Gene-35,0.0,0.08343609636710925,-0.023878257779753376,0.0,-0.05407429902384808,-0.0,0.0,0.0,0.0,0.0,0.0,0.0,0.0,-0.0,-0.0,0.0,0.0,0.0,0.0,0.0,-0.0,-0.0,0.0,-0.017533224373779507,0.0,-0.03555862959406052,0.0,0.0,-0.0,0.0,0.0,0.0,0.0,-0.03805070322586186,0.0,0.0,0.0,0.0,0.0,-0.0,-0.0,0.0,-0.0,0.0,0.017786190489857814,0.0,-0.0,0.0,-0.0,0.07734962151976192,0.0,0.0,0.0,0.0,0.0,0.0,0.0,-0.013321320623327186,0.0056447613491116926,-0.0,0.0,-0.014018289670596484,0.0,0.0,0.0,-0.0,0.0,-0.0,0.0,0.0,0.0,-0.0,0.0,0.0,-0.0,0.0,0.0,0.0,0.0,-0.007314025447597608,0.0,0.0,0.0,0.0,-0.0,0.02403015924133527,0.0,0.0,0.0,0.0,0.0,0.0,0.0,-0.047461414809286624,0.051508752584176955,0.0,-0.0,-0.0,0.0,-0.0,0.0,-0.0,-0.11114732823011286,0.0,-0.0,-0.0,-0.0,-0.0,-0.0,-0.0
Gene-36,0.0,0.0,-0.0,-0.08619458031224836,0.0,-0.0,-0.0,0.0,-0.0,0.0,0.0,0.0,0.0,-0.0,-0.0,0.0,0.0,0.0,-0.07918322850205202,-0.014850400674388076,0.0,-0.011891402573774298,0.0,0.035226148523105454,0.0,0.0,-0.0,0.0,-0.0,-0.002434624416507317,0.0,0.0,-0.003714621008273537,0.0,0.0,0.0,0.0,-0.018131965368109914,0.0,0.0,-0.010037478574013742,0.0,0.0,0.0,0.0,0.0,0.0,0.0,-0.0,0.0,0.0,0.0,-0.0,-0.0,-0.0,0.0,0.0,0.0,0.0,0.07301549694291518,0.0,0.0,0.0,0.0,0.0,0.0,-0.0,0.0,0.0,0.0,0.10071703659880042,-0.0,0.0,0.0,0.0,-0.0,-0.0,0.0,-0.0009657309928046731,-0.0,-0.0,0.0,0.0,0.07793469572661249,-0.0,0.0,0.0,0.0,0.0,0.0,0.02253701532811314,-0.0,0.0,-0.0,0.0,0.0,0.0,0.0,0.0,-0.0,0.0,0.0,0.0,-0.0,0.0,-0.0,0.0,0.0,0.0,0.0
Gene-37,-0.0,0.0,0.0,-0.0,0.0,-0.0,0.0,0.0,-0.0,-0.17154195578183495,0.0,0.0,0.0,0.0,0.0,0.0,0.0,0.0,0.0,-0.0,0.0,0.0,0.0,-0.0,0.0,0.0,0.0,-0.0,-0.0,-0.0,-0.01108441366495562,0.0,0.0,0.0,0.0,0.0,0.0,0.0,0.0,0.010231425417887094,0.0,0.0,0.0,0.0,0.0,-0.0,-0.0,0.0,0.0,0.0,0.0,-0.0,-0.0,0.0,0.0,0.0,0.0,-0.12924717540847597,0.0,0.0,0.0,0.0,0.0,0.0,0.0,0.0,0.0,0.0,0.0,0.0,-0.0,0.0,-0.0,-0.0,0.0,0.0,0.0,-0.0,0.0,0.0,0.0,0.0,0.0,0.0,0.0,-0.0,0.014173875971132854,0.0,-0.0,0.0,0.0,0.0,0.0,0.0,0.0,0.0,0.0,0.0,0.0,0.0,0.0,-0.0,0.0,0.0,0.0,0.0,0.0,0.0,-0.0,0.0
Gene-38,0.0,0.0,0.0,0.0,0.0,0.0,0.0,-0.0,-0.0,0.0,0.0,0.025317959121779237,0.0,0.0,0.0,0.0439209092852535,0.0,0.015011034910098524,0.0,0.0,-0.0,0.0,-0.0,-0.0,-0.0,-0.0,-0.0,-0.0,0.0,0.0,0.0,0.0,0.0,0.0,-0.0,-0.0,0.0,0.0,0.0,0.0,-0.0,0.007397414958039204,0.0,0.0,0.0,0.0,-0.0,0.0,0.0,0.0,0.0,-0.0,-0.07582304174273459,0.0,0.0,-0.0,-0.0,-0.0,0.01062592235940709,0.0,0.0,-0.0,0.0,0.0,0.0,0.0,0.0,0.0,-0.0,-0.0,-0.0,0.0,-0.0,0.0,0.0,0.0,-0.0,0.0,-0.0,0.04097911752894526,-0.0,0.0,0.0,0.0,0.0,0.0,0.0,0.0,0.0,0.0,-0.05819616158271916,-0.07602366937823837,0.0,0.0,-0.0,0.0,0.0,0.0,-0.0,0.0,0.0,0.0,-0.0,0.0,-0.0,0.0,-0.0,0.0,0.0,0.0
Gene-39,0.07245895456146133,-0.0,0.0,-0.0,0.0,-0.055502966241681544,0.0,0.0,0.0,0.0,0.0,0.0,-0.0,-0.0,0.0,0.0,0.0,-0.04333168850218263,0.0,0.0,0.0,-0.0,0.003906529724270429,-0.0,-0.0,-0.0,-0.0,0.0,0.0,0.0,0.0,0.09709065947636208,0.0,-0.07880527421864188,0.0,0.0,0.0,0.0,0.0,0.0,-0.0,-0.0,-0.0,-0.05268177294348309,-0.0,0.0,0.0,-0.0,-0.0,0.0,0.0,0.0,0.0,0.0,0.0,-0.0,-0.0,0.0,0.0,0.0,-0.02352857896062587,0.0,0.0,0.0,0.0,0.0,0.0,0.0,0.0,0.0,0.0,-0.06567617020181207,-0.0,0.0,0.0,0.0,-0.0,0.0,0.0,0.0,0.0,0.03913465199196145,0.0,0.0,0.0,-0.0,0.0,0.0,-0.03849282357572747,-0.0,0.0,-0.0,-0.0,0.0,0.0,-0.0,0.0,-0.0,0.0,-0.0,0.0,0.15923396886429927,0.0,-0.0,0.0,-0.0,0.0,-0.0,0.0,0.0
Gene-40,-0.0,0.0,-0.0,0.0,-0.059352742898785095,-0.0,0.0,-0.0,0.0,0.0,0.0,0.0,-0.0,0.0,0.0,0.0,0.08103054675074273,-0.0,0.0,0.0,-0.02678741740091678,0.02578895068055285,0.0,0.004517032976474856,0.0,0.007761474980188981,0.0,-0.0,0.0,-0.0,0.0,0.0,0.0753350046770121,0.0,-0.0,0.0,0.0,0.0,0.0,0.0,0.0,0.0,0.0,0.0,-0.06268423724203549,0.0,-0.0,0.0,0.0,0.08180136520249666,0.0,-0.02781971073509455,0.0,-0.0,0.0,0.0,-0.0032827020694153725,-0.0,0.0,0.0,0.01404618830639983,-0.0,0.0,0.0,0.0,0.0,0.0,0.0,0.0,0.0,0.0,0.0,-0.003243663223314381,0.007959490989234144,0.0,0.0,0.0,-0.00796359734650171,0.0,-0.0,0.0,-0.054196102915014956,-0.0,-0.0,-0.04513114138938731,0.0,0.0,0.0,0.0,0.0,0.0,0.0,-0.0,0.0,0.0,-0.002875661714871839,0.0,-0.0,0.0,0.0,-0.008429771705967155,-0.0,0.0,0.0,0.0,0.0,0.0,-0.0,0.0,0.0
Gene-41,0.0,-0.0,0.0,-0.0,0.0,0.0,-0.0,-0.0,-0.0,0.0,-0.0,0.0,-0.0,-0.0,0.0,-0.0,0.0,0.0,-0.027204995034487756,0.0,0.0,-0.013845220191202406,0.0,0.0,0.0,-0.0,0.0,0.0,0.0,0.0,0.0,0.0,0.0,0.0,0.0,-0.0,0.0049317409803291724,-0.0,-0.0018398470459665142,0.0,0.0,0.0,0.0,0.0,0.0,0.0,0.0,0.0,0.0,0.0,0.0,0.0,-0.0,0.0,-0.0,0.0,0.0,0.0,0.0,0.0,0.0,0.0,0.0,0.0,0.0,0.0,0.0,-0.06494254925791074,0.0,-0.0,0.0,-0.0,0.0,0.0,0.0,0.0,0.0,0.0,0.0,0.04027745528054571,-0.0,0.0,0.0,0.0,0.0,0.0,-0.0,0.0,0.0,-0.0,0.0,0.0,0.0,0.05286911221037674,-0.0,-0.0,0.0,0.0,0.0,0.0,0.0,-0.0,-0.0,0.0,0.0,0.0,-0.0,-0.0,0.0,0.0
Gene-42,-0.0,0.0,-0.0,0.0,-0.0,0.0,0.0,0.0,0.0,0.0,-0.0,0.0,-0.07893991578152554,0.0,0.0,0.0,0.0,0.0,-0.05159717010678451,0.0,-0.0,0.0,0.0,0.0,-0.030139127154462635,-0.0,0.0,-0.0,0.0,-0.0,0.0,0.0,0.0,-0.016820311812094094,0.0,0.0,0.0,0.0,-0.0,0.0,0.0,0.0,-0.0,0.0,0.0,-0.0,0.0,0.0,-0.014233353761997154,0.0,0.0,0.0,0.0,0.0,0.021032138716240878,-0.0,-0.0,0.0,0.0,0.0,0.0,0.0,0.0,0.0,-0.0,-0.0,0.0,0.0,-0.011364426839379172,0.0,-0.0,0.0,0.0,0.0,-0.0,0.0,0.0,-0.0,0.0,-0.0,0.0,0.0,-0.0,0.0,0.0,-0.0,0.0,-0.005502752764628768,0.0,-0.020549213818926403,0.0,0.0,0.0,0.0,0.0,0.0,-0.05915685697665421,0.0,-0.0,0.0,-0.0,0.0,0.0,-0.016678158582741864,-0.0,0.0,-0.0,0.0,0.0,0.0
Gene-43,0.0,0.0,0.0,0.0,0.0,0.0,0.0,0.06888326187104402,0.0,-0.09985329762833736,0.0,0.0,0.0,-0.0,0.0,0.0,0.0,0.0,0.0,0.0,0.0,0.0,-0.07105855094022873,0.0,0.0,0.0,0.0,0.0,0.0,0.0,0.0,0.0,0.0,0.0,0.0,0.0767784767287796,0.0,0.0,0.0,0.0,0.0,0.0,0.0,0.0,-0.035855508854469885,0.0,-0.011176094477444828,0.0,-0.0,0.0,0.00743988900924664,0.0,0.0,-0.017266852140271436,0.0,0.0,0.0,0.0,-0.09056113529595414,-0.03681824411232418,0.0,0.0,0.0,0.0,0.0,0.0,0.0,-0.07131992928440639,0.0,0.0,0.0,0.0,0.0,0.0,0.0,0.0,0.0,0.0,0.0,0.0,0.0,0.0,0.0,0.0,0.0,0.0,0.0,0.0,0.0,0.06416344054512763,0.0,0.0,0.0,0.0,-0.06106217606576308,0.0,0.0,0.008772366785492987,0.0,0.0,0.0,0.0,0.2343121004241618,0.0,0.0,0.0,0.0,0.0,0.0,0.0
Gene-44,0.0,-0.028758350619042035,0.0,-0.0,0.10115682200254146,0.0,-0.0,0.0,0.0,0.0,0.0,0.0,0.0,-0.0,0.0,-0.023526974859223723,0.0,0.0,0.0,0.0,0.0,0.0,0.0,0.0,0.0,0.03595817096556425,0.0,0.0,0.0,-0.0,0.0,0.0,0.0,0.0,0.0,0.0,0.0,0.0,-0.0,0.0,0.0,0.0,0.01960130300459726,0.0,0.0,0.014186997582340195,0.0,0.0,0.0,0.0,-0.0,-0.0,0.0,0.0,-0.0,0.0,0.0,0.0,0.0,0.0,0.0,0.0,0.0,-0.024728119751052803,0.0,-0.0,-0.0,0.0495496390906293,0.0,0.0,0.0,0.0,0.0,0.0,-0.0,-0.0,-0.0,-0.0,0.0,-0.0,0.0,-0.0,0.0,0.0,0.0,0.0,0.0,0.0,0.04436995715308385,0.0,0.0,-0.0070172593026483045,0.0,-0.0,0.0,-0.0,0.0,-0.0,0.0,-0.0,-0.12062634532247166,0.0,0.0,-0.0,0.0,0.0,0.06811608519561671,0.0,-0.0,0.0
Gene-45,0.0,-0.0,-0.0,0.0,0.0,0.0,0.0,-0.0,0.0,0.0,0.0,0.0,0.0,0.0,0.0,0.0,0.0,-0.0,0.0,-0.0,-0.0,0.0,0.0,-0.0,0.001873585205114833,0.0,0.0,0.0,0.0,0.0,0.0,0.0,-0.0,-0.0,-0.0,0.0,0.0,0.0,-0.0,0.0,0.0,0.0,-0.0,0.0,0.0,0.024242660932030095,-0.0,0.0,0.0,0.0,0.0,0.0,0.0,0.0,-0.0,-0.0,-0.0,-0.0,0.03973641840886676,-0.0,0.0,0.0,0.0,0.002168077879179875,0.014258564261602233,0.0,-0.0,0.0,0.0,0.0,0.0,0.0,0.0,0.0,-0.0,-0.0,-0.02188631176686781,0.0,0.0,0.0,-0.0,-0.0,0.0,-0.0,-0.0,0.0,0.0,0.0,0.0,-0.044125653357919764,0.0,-0.0,0.0,-0.0190982904184682,0.0,-0.011962946843183529,0.0,0.0,0.0,-0.0,-0.0,0.0,0.0,-0.0,-0.0,0.0,0.0,0.0,-0.0,0.0
Gene-46,0.0,0.0,0.0,0.02577931893724493,0.0,0.0,0.0,-0.0,0.0,0.0,0.0,0.0,-0.0,-0.0,0.0,0.0,0.0,0.0,0.0,0.0,-0.0,0.0,0.0,-0.0,0.0,-0.0,0.0,-0.0,-0.0,0.0,0.0,0.0,0.0,0.0,0.0,0.0,-0.0,0.0,0.0,0.0,0.0,-0.0,0.0,0.0,-0.0,0.0,-0.0,0.0,-0.0036748890507906215,0.0,0.0,-0.06522900521879839,0.0,0.0,0.0,0.0,-0.0,-0.0,0.0,0.0,0.0,0.0,-0.0,-0.0,0.0,0.0,0.0,0.0,0.0,-0.0,0.0,0.0,-0.0,-0.0,-0.0,0.0,0.0,0.045729660120471395,0.0,0.07173660826877291,0.0,0.010244803946393117,0.0,-0.05069724975995958,0.0,0.0027346423274518276,0.0,0.0,-0.0,0.015025641337576402,0.0,0.0,0.0,0.09840574036937261,0.0,0.0,-0.0,0.045136038757271,0.0,0.0,-0.0,0.0,-0.0,0.0,0.0,0.0,-0.0,-0.015480280951674886,-0.0,0.0
Gene-47,0.026477843604814973,0.0,0.0,-0.0,0.0,0.0,0.0,0.0,-0.0,0.0,2.4022322029033867e-06,0.0,0.0,0.0,0.0,0.0,0.0,-0.0,0.0,0.0,0.0,0.0,0.0,0.0,0.0,0.0,0.0,0.0,0.0,0.0,0.0,0.0,-0.0,-0.015622821782821894,-0.0,0.0,0.0,-0.04158280870458242,0.033200121879565635,-0.0,0.0,0.0,-0.0,0.0,0.0025418868027578777,-0.0,0.0,-0.0,0.0,0.0,0.0,-0.0,-0.0,0.0,0.0,0.011710104265854617,0.0,-0.0,0.0,-0.0,0.0,-0.0,0.0,0.0,-0.0,0.0,-0.0,0.0778492478109155,0.0,0.0,-0.0,0.0,-0.0,-0.0,-0.0,0.0,-0.036509872055275505,0.0,0.0,-0.0,0.0,0.0,-0.0,-0.0,0.0,0.0,0.0,0.0,-0.023498309712368534,0.010897820354347927,0.04383260179239675,-0.0,0.0,-0.0,0.0,0.0,0.0,0.0,0.0,-0.0,0.06799227018768603,0.0,-0.0,0.0,0.0,0.0,0.0,-0.0,0.0,0.0
Gene-48,0.0,0.0,0.0,0.019314547317623363,0.0,-0.0,0.0,-0.0,-0.021304591967184858,0.0,0.0,0.0,0.0,0.0,-0.0,-0.0,0.0,0.0,0.0,0.0,0.0,0.0,0.0,-0.0,-0.10914606977630648,0.0,0.0,0.0,0.0,0.0,0.0,0.0,0.0,-0.0,0.0,0.0,0.0,0.0,-0.00161656918783638,0.0,0.0,0.0,-0.0,0.0,0.0,0.01083967655131364,0.0,0.0,-0.0,0.0,0.11155822711050531,0.0,0.0,0.0,0.0,0.0,0.0,0.0,0.0,0.0,0.0,-0.0,0.0,-0.0,0.0,-0.0,0.0,0.04762653774745071,0.0,0.0,-0.0,0.05353070546154386,0.01108820284520782,0.0,0.0,0.0,0.0,0.0,0.0,-0.0,-0.06982576175382425,-0.059791317637658985,0.0,0.0,0.0,-0.017662795510870133,0.0,0.0,0.0,0.10545101095581925,0.0,0.0,0.0,0.0,-0.0,0.0,0.0,0.0,-0.03679774469815396,-0.0,0.0,-0.0,-0.0,0.0,0.0,-0.0,0.0,0.0,0.0,0.0
Gene-49,-0.0,-0.0,0.0,-0.11357144845714325,-0.0,0.0,0.0,0.03002281405952942,-0.0,-0.11042904057251243,-0.0,0.0,0.0,0.0,0.0,-0.00206729816142688,0.0,0.0,0.0,0.0,0.0,0.0,-0.004466667489850094,0.0,0.0,-0.0,0.0,0.0,-0.008683154282281124,0.0,0.0,0.03889835487076468,0.055274207657959595,0.0,-0.0,-0.0,0.0,0.0,-0.0,0.0,0.0,0.0,-0.0,0.0,0.0,-0.0,0.0,0.05831850159252948,0.0,0.0,0.0,0.0,0.0,0.0,0.0,-0.003023522507186237,-0.0,0.0,0.0,0.0,0.0,0.0,0.0,0.0,0.0,-0.04403409100278294,0.0,0.0,0.0,0.0,-0.096624138219717,0.0,0.0,0.0,-0.0,0.0,0.0,0.0,-0.0,0.0,-0.025296014861279296,0.0,0.0,0.0,0.0,0.0,-0.0,0.0,0.0,0.0,0.0,0.0,0.0,-0.0,-0.028350145931792123,0.01785782350025773,-0.0,0.0,0.0,-0.0,0.0,-0.09265488878305303,-0.0,-0.0,-0.0,0.0,0.0,0.0,-0.0,0.0
Gene-50,-0.0,0.0,0.0,0.0,0.0,-0.0,0.0,-0.0,-0.04249973106162014,0.0,0.0,0.0,0.08636044950338057,-0.0,0.0,0.0,0.0,0.0,0.0,0.0,0.0,0.0,0.0,0.0,-0.0,-0.0,-0.0,0.0,-0.0,0.0,-0.013046708133245061,0.044910865093493874,0.0,0.0,0.0,0.0,0.0,0.10750031609380467,-0.0,0.0,0.0,-0.0,0.0,0.08378299579212287,0.0,0.0,0.0,0.0,0.0,0.0,-0.0,-0.0,-0.0,0.0,-0.0,0.0,-0.0,0.0,0.04938602202480022,0.026313026976468028,0.0,-0.0,0.0,0.0,-0.0,-0.0,0.0,0.0,0.05002802992323436,-0.0,0.0,-0.0,0.0,0.0,0.0,-0.010233094100699704,0.0,0.0,0.0,0.0,-0.0,0.07198582524411276,0.0,-0.0,0.0,0.0,-0.0,0.0,0.0,-0.053015762105616676,0.0,-0.0,0.0,-0.01818496674263837,-0.0,0.0,-0.0,-0.0,-0.0,-0.0,-0.0,0.0,0.0,0.0,0.0,0.0,-0.0,0.0,0.0,0.028905475806348502
Gene-51,0.0,0.0,-0.0,-0.0,0.0,0.0,0.0,0.0,-0.0,0.0,0.0,0.0,0.0,0.0,0.0,0.0,0.0,0.0,0.07218080045567064,0.0,0.0,0.0,-0.0,-0.0,0.0,0.0,0.0,-0.0,0.0,-0.0,0.0,0.0,-0.04290472561758623,0.0,0.0,0.0,0.0,-0.0,0.04640676095562282,0.01047135321448844,-0.0,0.0,0.0,0.0,0.0,0.0,0.0,0.0,0.038120642553506064,-0.0,0.0,0.0,0.0,-0.0,0.0,0.0,0.0,-0.012917957293219859,0.0,0.0,-0.02242443776117599,0.0,0.0,-0.0,0.012281780413828918,0.0,0.0,0.0,0.0,0.0,0.0,-0.0,0.0,0.0,0.0,0.0,-0.0,0.0,0.0,0.0,0.0,0.0,-0.0,-0.01038494403437071,0.0,0.0,0.0,0.0,0.0,-0.0,0.0,0.0,-0.0,0.0,0.0,0.0319006825075078,0.0,-0.0,0.0,0.0,0.0,0.0,-0.0,0.0,-0.0,0.0,0.0,-0.0,0.0,0.0
Gene-52,0.0,0.0,0.0,0.0,0.0,0.0,0.0,0.0,0.0,0.0,0.0,-0.07500713121528552,0.0,-0.0063291916113570506,0.0,0.0,0.0,0.0,0.08986755623557452,0.0,0.0,0.0,-0.003768469985009292,0.0,0.0,0.0,0.0,0.0,0.0994061537929625,-0.11990960618034319,0.0,0.0,0.0,0.0,0.0,0.0,0.0,0.0,0.0,0.0,0.0,0.1324777591714266,0.0,-0.07715651460210864,0.0,0.0,0.0,0.0,0.0,0.0,0.0,0.0,-0.009001244813919888,0.0,0.0,0.025522138824193685,0.0,0.0,0.0,0.0,-0.04477518554001308,0.0,0.02623416633146298,0.0,0.0,0.0,0.0,0.07260975945871512,0.0,0.0,0.0,0.0,-0.04674514354592827,-0.0,0.0,0.0,0.0,0.0,0.0,0.0,0.0,0.0,0.0,0.0,0.0,0.0,0.0,-0.09787680129065073,0.0,-0.00431253506928828,0.0,-0.057249263826576684,0.0,0.0,0.0,0.0,0.0,-0.00025658120718729215,0.0,0.0,0.0,0.0,0.0,0.0,0.0,0.0,0.0,0.0,0.0,0.0
Gene-53,0.0,-0.0,-0.0,-0.0,0.0,0.0,-0.0,-0.0,0.020226394418877847,0.0,-0.0,0.0,-0.04101811193321814,0.0,0.0,0.0,0.0,0.0,0.0,0.0,0.0,0.01522830126682717,0.0,0.0,0.0,0.0,-0.0,-0.0,-0.0,-0.0,0.0,0.0,0.0,-0.0,0.0,-0.008361851566421856,0.0,-0.0,0.0,0.0,-0.04815799695468963,0.0,0.0,-0.0,0.0,0.0,-0.015197126925079076,0.0,0.0,-0.0010251095030080922,0.0,0.0,0.0,-0.060647129861097104,0.0,0.0,-0.0,-0.0,0.0,0.0,0.0011968257319310135,0.0,-0.0,0.0,-0.0,-0.0,-0.0,-0.0,-0.0,-0.0,0.008524225312607202,0.0,0.0,0.0,-0.0,-0.0,-0.0,-0.0,0.0,0.0,0.010323309388811633,0.0,0.0,0.0,-0.0,0.0,0.0,0.0,-0.0,-0.010472406665161265,-0.05634171190276169,0.0,0.0,-0.0,0.00016996298621649574,0.0,-0.0,0.0,-0.0,-0.0,-0.0,0.0,0.0,-0.007455780349478853,-0.0,0.0,0.0,0.0,0.0,0.0
Gene-54,-0.0,-0.0,0.0,-0.0,0.0,0.0,-0.0,0.0,0.0,0.0,0.0,0.0,-0.0,0.0,-0.0,0.0,0.0,0.0,0.0,-0.0,0.0,0.0,0.0,0.12662901854961545,0.0,0.0,-0.0,-0.0,-0.0,-0.012500909407612034,0.09496455132994634,0.0,-0.0,0.0,0.0,-0.09674976579236151,0.0,0.0,0.0,0.0,0.0,0.0,-0.0,0.0,0.0,0.0,0.035010421869929385,0.0,0.0,0.0,-0.0,0.0,-0.0,0.0,0.0,0.0,1.8143310681484048e-05,0.006000891913082991,0.0,0.0,0.0,-0.008656468418002,0.0,-0.0,0.0,0.037032790608331784,0.0,0.0,0.0,0.0,0.0,0.0,-0.0,0.0,0.040098891401505035,0.0,-0.0,-0.0,-0.0,0.0,-0.004645388745337263,-0.0,-0.0,-0.0,-0.0,0.05756051933942042,-0.0,0.0,0.0,0.0,0.0,0.0,-0.0,0.0,0.0,0.006289276394900649,0.0,0.05473250681452451,0.0,0.0,-0.0,-0.0,0.0,0.0,0.0,0.0,0.0,0.0,0.0,0.0
Gene-55,0.0,0.0,0.0,0.0,0.0,0.0,0.0,0.0,-0.0,0.0,-0.0,0.034237363027416264,0.0,-0.01760067863010669,0.0,0.0,-0.07872790953389994,-0.0,0.0,0.0,0.0,0.0,-0.0,0.0,0.0,0.0,0.0,0.0,0.0,-0.0,0.0,0.0,0.0,0.0,0.0,-0.043964546861431225,0.0,0.0,0.0,0.0,0.0,0.0,0.0,-0.13246487908039375,-0.0778868151367584,0.007595807478253759,0.0,0.0,0.0,-0.0,0.0,0.0,0.0,0.0,0.0,0.029457111693917144,0.015021609917571031,0.0,0.0,0.0,0.0,-0.0,-0.0,0.0,0.0,0.0,-0.0,-0.0,0.0,0.0,0.0,-0.015184408448416533,0.0,0.0,0.0,-0.016273801971380612,0.0,0.0,-0.0,-0.0,0.0,-0.0,0.0,0.0,0.0,-0.0,-0.0,-0.0,0.0,0.0,0.0,0.0,0.0,-0.0,0.0,-0.0,-0.0,0.0,0.0,-0.0,-0.0,-0.0,0.0,0.0,0.0,0.0,0.0,0.0,0.0,0.0
Gene-56,0.0,0.0,-0.0,0.0,0.0,0.09551343320692289,0.0,-0.0,0.0,0.14855262939097832,-0.0,0.0,0.0,0.0,-0.0,0.0,0.0,0.0,0.0,-0.020887816124263332,0.0,0.0,0.0,0.0,-0.0,-0.0,-0.0,0.0,0.0,0.0,-0.11181120275214826,0.0,-0.0,0.0,0.0,0.0,0.0,0.0,-0.0,0.0,-0.010083372484992905,-0.1052550106005293,-0.0,-0.0,-0.1607293227758979,0.0,0.0,0.0,-0.0,0.0,0.0,-0.0,-0.0,0.0,0.0,0.0,0.0,0.0025806046528313105,0.03961004185317352,0.015873886922145416,0.0,0.0,0.0,0.0,0.017956411624853525,-0.0,0.0,0.0,0.0,0.0,0.0,-0.0,0.0,0.0,-0.0,-0.0,0.0,0.0,0.0,0.0,0.0,0.07293316765032065,0.0,0.0,-0.04252825068396939,-0.0,0.0,0.0,0.0,0.0,0.0,-0.0,0.0,-0.018103457987701976,0.0,0.0,-0.0,0.0,-0.0,-0.0,0.0,-0.0,0.0,-0.0,-0.0,0.0,0.0,0.0,0.0,0.0
Gene-57,0.1217868797546715,0.0,0.0,0.0,-0.13099103693349348,0.0,-0.0,0.0,-0.0,-0.030116881101071163,0.0,0.0,0.0,0.0,0.0,0.0,0.0,0.0,0.0,0.0,0.0,-0.0,-0.0,0.0,0.0,0.0,0.0,0.0,0.0,0.0,0.0,0.0,-0.0,-0.0,0.0,0.0,0.16864357836243882,-0.0,-0.0,-0.0,0.0,0.019158303374788025,0.05315868940098248,0.0,-0.0,-0.0,0.0,0.0,-0.0,0.0,0.036525388964344145,0.0,-0.0,-0.0,0.0,0.0,0.0,-0.0,0.0,0.0,-0.038972149783657574,-0.0,0.0,0.0,0.0,0.0,0.0,0.0,0.0,0.0,0.0,0.0,0.0,0.0,0.0,0.0,0.0,0.0,0.03967530474376081,0.0,0.0,0.0,0.0,0.0,0.0,0.0,0.0,0.0,-0.0,-0.0,0.0,-0.0,-0.0,0.0,0.010650592759778804,-0.11323247174999605,0.0,-0.02518256397032877,0.0,0.0,0.0,-0.0,-0.0,0.0,0.0,0.0,-0.0,0.0,0.0,0.0
Gene-58,0.0,0.0,0.0,-0.0,0.0,0.0,0.0,0.0,-0.0,-0.0,-0.0,0.0,0.0,-0.0,-0.0,0.0,0.0,0.0,0.0,-0.004167833309626556,0.019186347705974983,0.0,0.0,0.0,0.0,-0.0,-0.0,0.0,0.0,0.0,0.0,0.0,0.0,0.0,-0.0,0.0,-0.0,-0.0,0.0,-0.0,0.036439054182925,0.0,0.0,0.0,0.0,-0.013163326950511065,-0.0,0.0,0.0,0.0,-0.0,0.0,-0.0,0.0,0.0,0.0,-0.02903857025783573,0.0,0.0,0.0,0.0,-0.0,0.0,-0.0,0.0,0.0,-0.0,0.0,-0.01427388850876049,0.0,0.0,0.0,-0.0,0.0,0.0,-0.04786467304765904,0.0,0.0,0.005522775608377119,0.0,0.0,0.0,0.06351437919699969,0.0,0.0,0.0,0.0,0.0,0.0,0.0,0.027516749268359224,0.0,-0.0,0.0,-0.006125164515219772,0.004615144331152364,0.0,-0.03626764473828291,-0.0,-0.0,0.0,-0.0,0.008720075280561254,0.0,0.0,0.0,0.0,0.0,0.013567829971575929,0.0
Gene-59,0.0,0.0,0.0,-0.0,0.0,0.0,0.0,-0.0,-0.0,0.0,0.0,0.0,0.0,0.0,0.0,0.0,0.0,0.0,0.0,-0.0,-0.03241105668797455,-0.0,0.0,-0.0065523513469605945,0.0,0.0,-0.0,-0.0,0.0,0.0,0.0,0.0,0.0,0.0,-0.0,0.0,0.0,0.0,0.08913816755818053,0.0,-0.015117032176194988,0.0,-0.0,0.0,0.0,0.0,-0.0,0.10092123934143188,0.0,0.0,-0.055274465403117375,-0.0,-0.0,0.0,-0.0,0.0,0.0,-0.03482705249378007,0.0,0.0,-0.0,-0.0,-0.0,-0.0,-0.0,0.0,0.0,0.0,-0.0,0.0,0.0,0.0,0.0,0.0,-0.0,-0.0047913297820688485,0.0,0.0,0.0,0.0,0.0,0.0,-0.0,0.0,0.0,0.0,0.0,0.0,0.0,0.0,0.0,0.0,0.0,0.0,0.0,0.0,0.0,0.0,0.0,0.0,0.0,0.0,0.0,-0.0,-0.0,0.0,-0.0,0.0,-0.0,0.0
Gene-60,0.0,0.0,0.0,0.0,0.0,-0.0,0.0,0.0,0.0,0.0,-0.0,0.0,0.0,0.0,0.0,0.0,0.029900189665002977,0.0,0.0,0.0,0.0,0.0,-0.0,-0.0,0.0,0.0,0.0,0.0,0.0,-0.0,0.0,0.0,-0.0,0.02912959626713659,0.032458162304632034,0.0,-0.0,0.0,0.0,0.0,0.0,0.0,0.0,0.0,-0.0,0.0,0.0,-0.0,-0.0,0.0,0.0,0.0,0.0,0.0,0.0,0.0,0.0,0.0,0.0,0.0,-0.0,0.0,0.008194517034383338,-0.02453401581791413,0.0,0.0,-0.03790017482862312,0.0,0.0,0.0,0.0,0.07595029918078333,0.0,-0.040793626280844486,-0.0018961765375834676,0.0,0.0,-0.0,-0.08960613915325065,0.024068778602250634,0.0,0.0,0.0,0.0,0.0,0.0,0.0,-0.031101726452547163,0.0,0.0,0.0,0.0,0.0,0.0,0.0,0.0,0.0,0.0,0.0,-0.0,0.0,-0.0,-0.0,0.0,-0.0,-0.0,0.0,0.0,0.0,0.0
Gene-61,0.0,0.0,0.0,0.0,0.0,0.0,0.0,0.005210468437085326,-0.0,-0.018791790880260326,0.0,0.0,-0.0,-0.008265046337584642,0.0,0.0,0.0,0.0,0.0,0.0,-0.036398683212693066,-0.0,0.0,0.0,-0.0,0.0,0.012069463846318336,-0.0,0.0,-0.0,0.0,0.0,0.0,0.0,0.0,0.0,0.0,0.0,-0.0,0.0,0.0,0.0,0.0,0.0,0.0,0.09119052606132971,0.0,0.0,-0.0,0.0,-0.0,-0.0,0.0,0.0,0.0,0.0,-0.0,0.0,-0.008668399558540959,0.0,0.0,0.0,0.0,-0.03241347369802938,-0.0,-0.0,0.0,0.0,0.0,0.0,0.0,0.0,0.0447978448631861,0.0,-0.0,-0.0,0.0,0.0,0.0,0.0,-0.0,-0.03606473135995638,0.0,-0.0,-0.0,-0.0,0.0,0.0,-0.0,-0.0,0.0,0.0,-0.0,0.0,0.0,0.0,0.0,0.0,0.0,0.0,0.0,0.0,0.0,0.0,0.0,0.0,-0.0,0.0,-0.0,-0.0
Gene-62,0.021777983458418654,0.0,-0.0,0.0,0.0,-0.0,0.0,0.019968259642499212,0.0,-0.023489247630064033,0.012086721618999872,0.0,0.0,0.0,0.0,0.0,-0.0314482221413832,-0.0,0.10012574617380594,0.0,0.0,-0.09457898100756873,0.0,0.0,0.0,-0.0,0.0,0.0,0.0,0.0,-0.06716636765332099,0.0,0.0,0.0,-0.0,0.0,0.0,0.0,0.0,-0.0,-0.0,0.0,0.0,0.0,0.0,0.0,-0.0,-0.0355499973972139,0.0,-0.0,0.01414146696099449,0.11824989687797037,-0.0,0.0,-0.039770864515505405,0.0,0.0,0.0,0.0,0.0,0.0,0.0,0.0,0.0,0.0,0.0,0.0,0.0,0.0,0.0,0.0,0.0,-0.029861444417300532,0.0,0.0,0.0,0.0,0.0,-0.0,0.0,-0.0,0.0,-0.0,0.0,0.0,-0.0,-0.04007747119752145,0.0,0.0,0.0,0.0,-0.0,-0.0066653805257286675,0.0,-0.0,-0.023922986823944944,0.0,0.021850907315100997,0.0,-0.0,-0.0,0.0,-0.0,-0.0,-0.062320541806977624,-0.0,-0.0,0.0,-0.0,0.0
Gene-63,0.0,0.0,-0.0,0.057966130919517675,0.0,0.0,-0.0,-0.0,0.038738222321075155,0.0,-0.0,0.0,0.0,-0.0,0.0,0.0,-0.09709449785314009,0.0,0.0,0.0,0.0,0.0,-0.0,0.0,-0.0,0.0,-0.0,0.0,-0.0,0.0,0.0,0.0,0.0,0.0,0.0,0.0,0.0,0.0,0.0,0.0,0.0,0.03856322770516066,0.0,0.0,0.0,-0.0,0.03778523329580666,0.0,0.0,0.0,0.0,0.0,-0.0,-0.0612079523433283,-0.0,0.0,0.0,0.0,0.0,0.0,0.0,-0.0,0.0,0.0,-0.0,-0.0,-0.0,-0.0,0.0,0.0,-0.0,-0.026378444935508342,-0.0,0.0,0.0,0.14038638725389718,0.0,0.0,-0.0,-0.0,0.0,-0.0,-0.0,0.0,0.0,0.0,0.0,0.0,0.0,0.0,0.0,0.0,0.0,0.0,-0.05505846706431848,0.0,0.0,0.0,-0.06333235812692328,-0.0,0.0,0.0,-0.0,-0.0,-0.12133956677519495,0.0,0.0,0.0,-0.0,0.0
Gene-64,0.0,0.0,0.0,0.0,-0.0,0.0,0.0,-0.02345931675721737,0.0,0.0,-0.0,0.0,-0.0,-0.0,0.0,0.0,0.0,-0.0,0.0,-0.0,-0.0,0.06800252531848816,-0.0,0.0,0.0,0.0,-0.0,0.0,-0.0,0.0,0.0,0.0,0.0,0.0,0.0,0.0,0.0,0.0,0.0,0.0,0.0,0.0,-0.0,-0.0,0.0,-0.008037225267176944,0.01032118726443964,0.0,0.0,-0.0,-0.022350350213417032,-0.0,0.0,-0.05039696904484526,0.0,0.0,0.0,-0.0,0.0,-0.0,0.0,0.0,0.0,0.0,-0.0,0.0,-0.0,0.0,0.0,0.0,0.0,-0.036044235646994535,0.0,0.026640910689037314,-0.05677284044368654,-0.0,-0.0,0.0,0.0,0.0,0.0,-0.0,0.0,-0.0,0.0,0.041979054488403486,0.0,-0.05232574846781628,0.0,-0.0,0.0,-0.0,0.0,0.0,0.0,0.0,0.0,0.0,-0.03077537887572004,-0.0,-0.0,-0.0,0.0,0.0,-0.0,-0.0,0.0,-0.0,0.0,0.0
Gene-65,-0.0,-0.0,0.0,0.0077139577429587,0.0,0.0,-0.0,-0.0,0.0,0.0,0.0,0.0,-0.0,-0.016792350824293076,0.0,0.0,-0.13896065749120942,-0.0,0.0007686392938381125,0.0,0.0,0.0,0.0,0.0,0.0,0.0,0.0,0.0,0.0,0.004786930441514431,0.0,0.0,-0.12770411397733905,-0.04547267263334507,0.0,0.0,-0.0,0.0,0.0,0.0,0.0,-0.03547192540803377,-0.0,0.0,-0.0,-0.0,-0.0,0.0,0.0,-0.09172388864763807,0.0,-0.0,-0.0,0.0,0.0,-0.0,0.0,-0.0,0.0,0.0,-0.0,0.04088656508648468,-0.0,0.0,0.0,-0.0,0.009257820674653547,-0.0,-0.02385172269198144,0.023540574898106494,0.0,0.0,-0.011912190772847539,0.0,0.0,0.0,-0.0,0.02965003195411063,0.0,0.0,0.0,0.0,0.07412403124569038,0.0,0.0,-0.0,-0.05111587934235588,0.0,0.0,0.0006282312009579346,0.0,0.0,0.0,0.0,0.0,0.0,0.03775111072803737,0.0,0.0,0.0,-0.0,0.1273396935406708,0.0,0.0,0.0,0.0,-0.0,0.0,0.0,0.0
Gene-66,-0.0,-0.0,0.0,0.0,0.0531234231643665,-0.037663229986332765,0.0,0.0,-0.0,0.0,0.0,0.06957587861738158,0.0,-0.001428203107172271,0.0,0.0,0.0,0.0,0.0,0.0,0.0,0.0,0.0,-0.03638319382691115,0.0,-0.05574077077792468,0.0,0.0,-0.0,-0.0,-0.006133796640766045,0.0,0.0,0.0,0.0,-0.0,0.0,0.0,-0.0,0.0,0.0,-0.014985083209566995,0.0,-0.015705464773367307,0.0,0.0,0.0,-0.0,-0.0,-0.05949131805182177,0.0,0.0,-0.0,0.0,0.0,-0.0,0.0,0.00884612967508655,0.0,0.0,-0.0,0.0,-0.0,0.0,-0.0007198070851695138,0.0,-0.0,0.0,0.0,0.0,0.0,0.0,-0.05964495735787972,0.0,0.0,0.01991333379368123,0.0,0.0,0.0,0.0,0.0,-0.0,-0.0,0.0,0.0,-0.0,0.0033984233828391486,0.0,-0.0,-0.04144648861889687,0.0,0.0,-0.011534696228879416,0.0,0.0,0.0,0.0,0.0,-0.03890955526156781,-0.0,-0.0,0.0,0.0,0.0,0.0,0.0,-0.0,0.0,-0.0,0.0
Gene-67,0.0,-0.0,0.0,0.0,0.0,-0.0,-0.0,0.0,-0.012260982662581079,0.0,0.0,0.0,0.0,-0.0,0.0,0.0,0.0,0.0,0.0,0.0,-0.0,0.0,-0.0,0.0,-0.0,0.0,0.0,-0.0,0.0,-0.0,-0.01228145623797982,0.027614420859422884,-0.0,-0.0,0.0,0.0,0.0,0.0995143914541666,0.0,0.0,0.0,0.0,0.0,0.0,-0.045554646684844796,0.0,-0.0,0.0,0.0,0.0,0.0,-0.0,0.0,0.0,-0.06549316597801232,0.0,0.0,-0.025007828206114045,0.0,0.0,0.0,0.0,-0.0,0.0,0.0,-0.0,0.0,0.0,0.0,-0.0,0.0,-0.0,0.0017166039981390611,-0.0,-0.0,-0.007207503746272136,0.0,0.0,0.0,0.0,0.010226956753371893,0.09702692981443044,0.0,0.0,0.0,0.0,0.0,0.0,0.0,-0.0,0.0,0.0,0.0,0.0,-0.0,0.0,-0.0,0.0,0.0,0.0,-0.0,0.0,0.0,-0.0,0.0,0.0,0.0,0.0,-0.0,0.0
Gene-68,0.0,0.0,-0.0,0.0,-0.0,0.0,0.0,0.0,0.0,0.0,0.0,0.0,0.0,0.0,0.0,0.0,0.0,0.0,0.0,0.0,0.0,0.04195417688954161,-0.0010255292286072864,0.0,-0.048754082630875696,0.0,-0.0,0.0,-0.0,0.0,0.0,-0.08036276079808805,0.0,0.0,-0.0,0.0,-0.024252316032351093,0.0,0.0,0.0,-0.0,0.0,-0.0,0.0,0.0,0.0,0.0,0.0,0.0,0.015153054610250512,0.0,0.0,-0.0,0.0,0.0,0.005919614998443376,0.0,0.0,0.05847212289678797,0.0,0.0,0.0,-0.0,0.0,-0.0,-0.0,-0.0,0.0,0.0,-0.0,-0.0,0.0,0.0,0.0,0.0,0.0,-0.012110781975934407,0.0,0.0,0.0,-0.0,0.0,-0.03732482724666282,0.0,-0.0,0.0,0.0,0.0,-0.0,-0.0,0.0,0.0,0.07770212562345243,-0.0,-0.0,-0.0,0.0,0.0,-0.0,0.0,-0.0,-0.0,0.0,-0.0,0.0,0.0,-0.04192630875823146,-0.0,0.0,0.0
Gene-69,0.0,0.0,-0.0,0.0,-0.0,-0.0,0.0,-0.0,0.0,0.030761492122111225,0.0,0.0,-0.0,0.0,0.0,0.0,0.0,0.0,0.0,0.0,-0.0,0.0,-0.0,-0.0,0.0,-0.0,-0.0,-0.0,0.0,0.0,0.0,0.0,0.0,0.0,-0.0,0.0,0.0,0.0,0.0,0.0,-0.0,-0.0,-0.013435016275796487,-0.0,-0.09376507429016039,0.02386572839900775,0.0,0.0,0.0,0.0,0.0,0.0,0.0,0.0,0.0,0.0,0.0,0.0,0.0,0.0,0.0,0.0,0.0,0.07494766423681694,-0.0,0.0,0.0,0.0,0.0,0.0,-0.09989944676021263,0.0,-0.0,-0.0,0.0,0.0,0.03423816609183216,0.0,0.00667253176475443,0.0,0.0,0.0,-0.10046210371638019,0.0,0.0,-0.0,-0.0,0.0,-0.0,0.0,0.0,-0.0,0.0,-0.0,0.0,0.0,0.0,0.029719191613344242,0.0,-0.0,-0.0,-0.0,-0.0,-0.0,-0.008834844656648078,-0.0,0.0,0.0,0.0,0.0
Gene-70,-0.0,0.05382748847293753,0.0,0.0,-0.0,0.0,-0.0,0.048228486297282665,0.0,0.0,0.0,-0.027960118959252534,0.0,-0.0,0.0,0.0,0.0,0.0,0.0,0.0,0.0,-0.0,-0.0,0.0,0.0,-0.0,0.0,0.0,0.0,0.0,0.0,0.0,0.0,-0.0,0.0,0.0,0.04530945870950669,-0.0,0.0,0.0,0.0,0.0,0.0,0.0,-0.0,0.0,0.0,0.019115046527298753,0.0,0.09489113936823075,0.07391452416654404,0.0,0.0,-0.0,0.0,0.0,-0.0,0.0,0.0,0.0,0.0,0.0,0.0,-0.09354969273793709,0.0,0.0,-0.10111565582837743,-0.04413826725021757,0.0,0.0,-0.0,0.0,0.0,0.0,0.0,-0.0,0.0,0.0,0.0,-0.0,-0.0,0.0,0.0,0.015578846014988691,-0.0,0.0,-0.10077376642181976,0.0,0.0,0.0,-0.04084597230520024,0.0,0.0,0.0,0.0,0.0,-0.03255859738488718,0.0,0.0,-0.0,0.0,0.0,-0.0,0.0,0.0,0.0,0.031454745673333985,0.0,0.0,0.0
Gene-71,-0.0,0.0,0.0,0.0,0.0,0.0,-0.0,0.0,0.010759835112915069,0.0,-0.0,-0.05015549155134528,0.0,0.0,0.0,0.0,0.0,0.0020699841683167737,0.0,-0.0,0.0,-0.0,0.0,-0.0,0.0,0.0,0.0,0.0,-0.0,0.0,0.0,0.0,0.0,0.0,0.0,0.0,-0.0,0.0,0.0,0.0,-0.0,-0.0,0.0,0.0,0.0,-0.0,-0.04305662925825642,-0.0,-0.0,0.0,0.009265070158807738,0.0,0.0,0.0,0.0,0.0,0.0,0.0,0.016908172190351026,0.0,0.04883715708235245,0.0,0.0,0.07007859802038728,0.0,0.0,0.07762343072902746,-0.02226435366033544,-0.0,0.0,0.0,-0.08332162944174287,0.0,-0.0,0.0,0.008840305226601465,0.0,0.0,0.0,-0.0,0.0,0.0,0.0,0.0,0.0,0.0,0.03234544688442083,0.07166498413489969,0.0,0.0,0.0,0.0,-0.03487505050993539,0.0,0.0,0.0,0.0,0.0,0.0,0.0,0.05301342293468658,0.0,-0.0,0.0,0.0,-0.0,-0.0,0.0,0.0,0.0
Gene-72,-0.0,0.0,0.0,0.0,-0.0,0.0,0.0,0.0,-0.12743578566433092,0.0,-0.0,0.0,-0.0,-0.0,-0.0,-0.0,0.0,0.0,0.0,0.0,-0.0,-0.0,-0.0,0.0,0.0,0.0,0.02282976051586707,0.0,-0.1650631130615831,-0.028218444598677516,0.0,0.0,-0.0,0.0,-0.0,0.0,0.0,0.06591783629503473,-0.0,0.0,-0.0,0.0,0.0,0.0,-0.0,0.0,0.0,0.0,-0.07132987950476243,0.0,-0.04316548637215987,0.0,0.0,0.0,0.0,-0.04127581931851412,0.0,0.0,0.0,0.0,-0.0,0.0,-0.0,-0.0,0.0,0.0,-0.0,0.0,-0.0,0.0,-0.0,0.0,-0.0,-0.0967263921579444,0.0,0.0,-0.0,-0.11113187041599981,0.0,-0.0,0.0,0.0,0.0,-0.0,-0.0,0.0,0.060441492849783146,0.0,0.0,0.0,0.0,-0.0,0.0,0.0,0.0,0.0,-0.0,0.0,0.0,0.0,0.0,-0.03685044538609981,0.0,0.0,-0.0,0.0,-0.09285445363024242,0.0,0.0,0.0
Gene-73,-0.0,-0.0,0.0,-0.0,0.0,0.0,0.0,0.0,0.0,0.0,0.0,0.04389919054676983,0.0,0.0,0.0,0.028273040989993854,0.0,0.07703320201922291,0.0,0.06726174932357518,0.0,0.0,0.0,0.0,0.0,0.0,0.0,0.0,0.0,0.0,0.0,0.0,0.0,0.0,0.0,0.0,0.0,0.06275445810957894,-0.0,-0.0,0.0,0.0047902890001498746,0.0,0.0,0.0,-0.03544827073657537,0.0,-0.0,0.0,0.0,-0.0,-0.0,0.0,0.02037491936692348,0.0,0.0,0.0,-0.0,0.0,0.0,0.0,-0.0,0.0,0.0,0.0,-0.0,0.0,0.036957769945014804,-0.0,0.021160246121981797,0.0,0.0,0.0,0.0,0.0,0.0,-0.0,0.0,0.0,0.0,0.0,0.0,0.0,0.0,0.0,0.0,-0.0,0.0,0.0,0.07553087191333509,0.0715671482093595,-0.020798174380168403,0.05819477576005088,-0.0,-0.0,0.0,0.0,0.0,0.0,0.0,-0.0,-0.0,0.0,0.0,-0.0,0.0,-0.016914844744690877,-0.0,0.0061761516774617685,0.0
Gene-74,-0.1127523554428199,0.0,0.0,-0.0,0.0,0.0,0.0,0.0,0.0,0.0,0.0,0.0,0.0,-0.0,-0.0,0.0,0.0,0.0,0.0,0.028692779715834792,0.08271190038954106,0.027579384688002702,0.0,0.0,0.0,0.0,0.0,0.0,-0.0,0.0,0.0,0.0,0.0,0.0,0.0,0.0,0.0,0.0,0.0,0.0,0.0,-0.009151120803334788,-0.0,0.12148409341228719,0.0,-0.0,0.0,0.0,0.0,0.0,0.0,0.0,0.0,0.0,0.0,0.0,0.0,0.0,0.05133266271347251,-0.0,0.0,-0.0,0.0,0.0,0.019535196157801256,0.0,-0.0,0.0,-0.0,0.0,0.0,-0.0,0.0,0.0,0.0,0.01925865194136407,0.0,-0.0,0.0,0.0,0.0,0.0,0.0,0.0,0.0,-0.0,0.0,0.0,0.0,0.0,0.0,0.06939821243984143,0.0,-0.0,-0.031455808802617086,-0.0,-0.0,0.0,0.0,-0.0,-0.0,0.0,-0.0,-0.0,-0.0,0.0,-0.0,0.0,0.0,0.0
Gene-75,0.0,0.0,-0.0,0.0,0.0,0.0,-0.0,0.10901933432373523,0.0,0.0,0.0,0.0,0.0,-0.0,-0.0,0.0,0.0,0.004830497136429738,0.10656288051614651,0.0,-0.0,0.0,0.0,0.0,0.0,0.0,0.0,0.0,0.0,-0.0,0.0,0.0,0.0,-0.023426076927292927,-0.01513312359258573,0.0,0.0,-0.0,0.0,0.0,0.0,0.006754008652076161,0.0,-0.0,-0.0,0.0,-0.0,0.0,0.0,0.0,0.0,0.0,-0.0001453717147264194,0.0,0.0,-0.0,0.0,-0.0,0.0,-0.0,0.0,0.007620411604220525,0.0,-0.0,0.05746244937559392,0.0,-0.0,0.03937954166697706,0.05398436299538579,0.0,0.0,0.0,0.0,0.0,0.0,-0.005996343740901485,0.0,0.0,0.0,0.0,-0.0,-0.033410643402706525,-0.0,0.0,-0.05886249666487267,0.0,-0.009503104675465137,0.0,0.0,0.0,0.0,0.0,0.0,0.0,0.0,0.08222049109561193,-0.0,0.043682294992501584,0.0,0.0,0.0,0.0,0.0,0.0,0.0,0.0,0.0,0.0,0.0,0.0
Gene-76,0.0,0.0,-0.0,0.0,0.0,0.0,0.0,-0.0,-0.0,0.0,0.0,0.0,0.0,-0.14717439882710245,0.0,0.0,0.0,-0.0,0.0,0.0,0.0,0.0,0.0,-0.0,0.0,0.0,0.0,0.026257158759755053,0.0,0.0,0.0,0.0,0.0,0.0,0.02229675722722902,-0.04866573874221579,0.0,0.0,0.0,0.0,0.0,0.0,0.0,-0.0,-0.04949387970044505,0.0,-0.0,0.0,0.0,-0.0,0.0,0.0,0.0,0.0,-0.0,0.06089926289283434,0.0,0.0,0.0,0.0,-0.0,0.01773812663412643,0.0,-0.0,0.0,0.0,-0.0,0.0,0.0,-0.0,0.0,0.0,0.0,0.0,0.0,0.0,-0.0,0.0,-0.06120605987143267,0.0,0.0,0.0,0.0,0.0,0.0,0.0,0.0,0.0,0.0,0.0,0.0,-0.0,0.0,0.0,-0.0,-0.0,0.0,0.0,0.036430738441355165,-0.0,0.0,0.0,0.0,0.0,-0.0,-0.0,0.0,-0.0,-0.0,0.0
Gene-77,0.0,-0.0,-0.0,0.0,0.0,0.0,0.0,-0.0,0.0,0.0,-0.0,0.0,0.0,0.0,0.0,0.0,-0.010230770343534281,0.0,0.0,0.0,0.0,-0.06297596164373799,0.0,-0.0,0.0,0.0,0.0,0.0,-0.0,0.0,0.0,0.0,0.0,0.0,0.0,-0.0,0.0663504768301448,-0.007943106779407216,-0.0,0.005431529304293832,0.0,0.0,0.0,-0.0,-0.0,0.03739289504304992,-0.0,0.0,-0.0,0.0,0.014135522225326505,0.0,-0.0,-0.0,0.0,0.0,0.0,0.0,0.11198914147825118,0.0,0.0,0.0,0.0,-0.0,0.0,0.0,0.0,-0.0,0.0,0.0,0.0,0.0,-0.0,0.0,0.0,-0.03206890879276411,0.0,-0.0,0.0,0.0,0.0,0.0,-0.0,-0.0,0.0,0.0,-0.019494832058816768,0.034669614499145116,0.0,0.0,0.0,-0.0,0.0,-0.0,0.0,-0.08784889109192057,-0.0,-0.0,0.04362323675824994,0.0,0.0,-0.0,0.0,0.0,-0.0,-0.0,-0.0,-0.0,-0.0,-0.01916235599432886
Gene-78,-0.0,-0.0,-0.0,0.052946073350680425,0.0,0.0,0.0,0.0,0.0,0.0,-0.0,0.0,0.0,-0.09646800909280606,0.0,0.019187604339741343,-0.12539607209962145,0.0,0.004375085385391827,-0.0,0.0,0.0,0.0,0.0,0.0,0.0,-0.0,0.0,-0.0,-0.0,0.0,0.0,0.0,0.0,0.0,0.05691942656821646,-0.0,0.0,0.0,-0.0,0.0,0.0,0.0,-0.0,0.0,0.0,0.0,0.0,0.0,0.0,0.0531324451181217,0.02748703801935708,-0.0,-0.09931331103168592,0.0,0.0,0.0,-0.0,0.0,-0.0,0.0,0.0,0.0,0.0,-0.0,0.0,0.0,0.0,0.0,0.0,0.0,-0.0,-0.0,-0.0,0.0,0.0,-0.017566556985833905,0.0,0.0,-0.034450838052407756,-0.13200653727863543,0.0,-0.0,0.0,0.0,-0.0,0.0,0.0,0.0,0.0,-0.13688889231847137,0.0,-0.0,-0.0,0.03311404956608426,0.0,0.0,-0.0,-0.010923339497102412,0.0,0.0,-0.0,0.0,0.0,0.0,0.0,0.0,-0.0,0.0,0.0
Gene-79,-0.0,0.0,-0.0,0.0,0.0,0.0,-0.0,-0.0,0.0,0.0,0.0,0.08066255302262873,0.0,0.0,-0.0,0.0,0.0,0.0,0.0,0.0,0.0,0.027162624788005543,0.010681177626960687,0.0,-0.022112303470921267,-0.0,0.0,-0.0,-0.0,-0.0,0.0,0.0,0.0,0.0,0.0,0.0,0.0,-0.015559370085531952,0.0,0.0,-0.0,0.0,0.0,0.0,0.0,0.0,0.0,0.0,0.0,0.0,0.013144943450700402,0.0,0.0,0.0,-0.0,0.0,0.0,0.0,0.0,-0.0,0.0,-0.0,-0.0,0.00110607928640843,0.0,0.0,0.0,0.0,0.0,0.0,0.0,0.0,0.0,0.0,0.0,-0.0,0.00460890224688448,0.0,0.0,0.014053726838764775,0.0,-0.04504734306402684,0.0,0.0,-0.0,0.0,0.0,0.0,-0.0,0.0,0.0,0.02922529507108711,0.0,0.0,-0.0,-0.03364710886700791,0.0,0.0,-0.0,-0.0,-0.0,0.0,0.0,0.0,-0.0,-0.0965781995868059,0.0,-0.0,0.0,0.011064764380832162
Gene-80,-0.0,0.0,0.0,-0.0,-0.0016389902347487724,0.0,0.0,0.0,0.0,0.0,0.06653296874985212,0.0,-0.0,-0.0,-0.0,0.0,0.0,-0.0,0.0,-0.0,-0.0,0.0,-0.052351666050184334,-0.053144343834694616,0.0,0.0,0.0,0.0,0.0,0.0,-0.04520171221957966,0.0,0.0,0.0,0.0,-0.04262261184958991,0.07126685221031688,0.0,0.0,-0.07037083436714717,0.0,0.0,0.0,-0.0,0.0,0.0,0.0,-0.0,-0.0,0.0,0.0,0.0,0.0,0.0,0.0,0.0,0.0,0.0,0.0,0.0,0.0,0.0,0.0,0.05559813633522154,0.0,-0.0,0.0,0.0,0.0,-0.0,-0.0,-0.0,0.0,0.0,0.0,0.0,0.10187100363770892,-0.0,0.0,0.0,-0.0,0.0,-0.0,0.0,0.0,0.022655400128561008,0.0,0.0,0.0,0.0,0.0,-0.0,0.0,0.0,0.0,0.0,-0.025580892157685484,0.0,0.0,-0.0,0.0,0.0,0.0,0.0,0.0,-0.0,-0.0,-0.0,0.0,0.0
Gene-81,-0.0,0.0,0.0,0.10792748546130225,0.03978677695862425,0.0,0.0,0.0,0.0,0.01831911104717432,0.0,0.0,0.0,-0.0,0.0,0.0,0.0,0.0,0.0,-0.0,0.0,0.0,0.014871223211949298,0.0,0.0,0.0,0.0,0.0,-0.0,0.023257839583836027,0.11961012614935593,-0.07271252038011632,-0.03602539620851039,-0.0,0.0,-0.0,0.0,-0.015970532422957796,-0.0,0.0,-0.010160908808224596,0.029727826138594746,0.0,0.0,-0.0390442985403122,0.0,0.0,-0.0,-0.0,-0.0,0.0,0.0,0.0,0.0,0.0,0.0,0.048919064821477225,-0.0,0.0,0.0,-0.0,0.0,0.0,0.0,0.0,-0.0,0.0,-0.0,0.0,-0.0,0.0,0.07502120951900555,0.01539999489966483,0.0,-0.0,-0.0,0.0,-0.0,0.0,-0.0,0.0,-0.0,-0.0,0.0,0.0,-0.0016393621791717015,-0.03405322500420199,0.0,0.0,-0.0,0.0,0.0,0.0,0.0,-0.0,0.0,0.0,0.015290934532043608,0.0,0.0,0.0,0.0,0.0,0.0,0.0,-0.0,-0.0,-0.0,0.0,0.0
Gene-82,0.0,0.0,0.0,0.0,0.0,-0.0,0.0,0.0,0.0,0.0,0.0,0.0,-0.0,-0.0,0.0,0.0,0.0,0.0,0.0,0.0,0.0,0.0,0.0,0.010199469923941839,0.0,0.0,0.0,0.0,0.0,0.0,0.0,0.0,-0.0,0.0,0.0,0.0,0.0,0.0,0.0,-0.0,0.0,0.0,0.0,-0.0,-0.0027703011777655755,-0.0,0.0,-0.0,0.0,-0.0,0.0,-0.0,0.0,0.0,0.0,0.0,0.0,0.0,0.0,0.0,0.0,0.0,-0.0,-0.0,0.0,-0.004633488651347816,0.0,0.0,0.0,-0.0,0.0,0.0,0.0,0.0,-0.0,0.0,0.0,0.0,-0.0,0.0305688575990767,0.0,0.0,0.0,0.0,-0.0,0.0,0.06613282662194687,0.0,0.0,0.0,0.0,0.0,0.0,-0.0,0.0,0.0,-0.0,0.0,0.0,0.0,0.0,-0.0,0.0,-0.0,0.0,-0.0,0.0,0.03656597937223419,0.0,0.0
Gene-83,0.0,0.0,-0.0,0.0,-0.0,0.0,0.0,0.0,-0.0,-0.015160942216888261,0.0,0.0,-0.0,0.0,-0.0,0.0,0.0,-0.0,0.0,-0.0,0.0,-0.0,0.0,0.0,0.0,0.0,0.0,-0.0,0.0,-0.0,0.0,0.0,-0.0,0.0,0.0,0.0,0.0,-0.0,0.0,0.0,0.0,-0.0007414354160851018,-0.0,0.0,0.0,0.0,-0.01900133053162171,0.0,0.0,0.0,-0.0,0.0,0.0,-0.0,0.0,0.0,0.0,0.0,-0.08516280457047609,0.12128171088689246,0.0,-0.0,-0.0,0.0,0.0,-0.01437890535847085,0.0,-0.0,-0.0,0.0,0.0,0.02033265323520624,0.03863388539224357,0.0,-0.0,0.0,0.0,0.0,0.0,-0.029295837353641933,0.0,-0.0,0.0,0.0,0.0,-0.0,0.0,0.0,0.0,-0.0,0.0,-0.0,0.0,0.0,-0.0,0.0,-0.0,0.0,-0.0,0.0,-0.04243915258808586,-0.0,-0.0,0.0,0.0,-0.0,-0.0,-0.0,0.0,0.0
Gene-84,0.0,0.0,-0.0,0.0,0.0,-0.04520709754092448,-0.023948970649285882,-0.0,0.024439966158520073,0.0,-0.0,0.0,0.0,-0.0,0.0,0.0,0.0,0.0,0.0,0.0,0.0,0.0,0.0,-0.0,0.0,0.0,0.0,0.0,0.0,0.0,0.0,0.0,-0.0,0.0,0.0,0.0,0.0,0.0,0.0,0.0,0.0,0.0,0.0,0.0,-0.0,-0.0,-0.0,0.0,0.0,-0.0,-0.0,0.0,0.0,-0.0017752488475966217,0.0,-0.0,-0.0,0.0,0.0,0.0,-0.0,0.0,0.0,-0.0,0.0,0.0,0.0,0.0,0.0,-0.0,0.0,-0.0,0.0,0.0,0.0,0.007175462113315762,0.0,0.0,0.0,0.0,0.0,0.0,0.0,0.0,0.05572087669092007,0.0,0.0,-0.015294959016049246,0.0,-0.0,-0.020397034420098763,0.0,0.0,0.0,0.0,0.0,0.0,0.0,0.0,-0.0,-0.0,-0.07657300994266772,0.0,-0.0,-0.02271921260562457,0.0,0.0,0.0,0.0,0.0
Gene-85,0.0,0.0,-0.0,0.0,-0.0,0.03483210385539759,0.0,-0.041009000879464796,0.0,-0.0,0.0,0.0,0.0,0.0,-0.008768340930826438,-0.0,0.0,-0.0,0.0,0.0,0.0,0.0,0.0,0.0,0.06063728463187358,0.0,-0.0,0.0,0.0,0.0,0.0,0.0,0.0,0.0,0.0,-0.0,0.0,0.0,-0.0,-0.0,0.0,0.0,-0.005807428501501444,0.0,-0.03725929456179628,0.0,0.0,0.0,0.0,0.0,-0.0,0.0,0.0,0.0,0.0,-0.0,-0.0,0.0,0.0,0.0,-0.0,0.0,0.0,0.0,-0.0,-0.0,0.021954818282690188,-0.0,0.0,-0.0,0.0,-0.0,0.0,0.0,-0.0,0.0,-0.0,-0.0,-0.0,-0.0,0.0,0.0,0.0,0.0,0.0,0.10360270992227799,0.0,0.0,0.0,0.0,0.0,0.0,0.0,0.0,0.0,0.0,0.0,0.0,0.0,0.0,-0.035492839354454936,-0.0,0.0,-0.0,0.0,0.0,0.0,-0.0,0.0,0.0
Gene-86,0.0,0.0,0.0,0.03593448171553862,-0.17572979811237352,0.0,0.0,0.0,-0.0,-0.032056339252200916,-0.03433126402725385,-0.03459207187580655,0.0,0.0,0.0,0.0,0.01670712998579227,0.0,-0.03085534190433123,0.0,0.0,0.0,0.0,0.0,0.0,0.04332175548225501,0.0,0.0,0.0,0.0,0.0,-0.008757395482059269,0.0,0.0,0.0,0.0,0.0,0.0,0.0,0.0,0.0,0.0,0.0,0.0,0.0,0.0,0.0,0.0,0.0,0.0,0.0,-0.005542500007347275,0.0,0.0,0.0,-0.06463412868623372,0.0,0.0,0.0,0.035755590223151494,0.0,0.0,0.0,0.0,0.0,-0.01060916826092748,0.0,0.0,-0.051517902420928685,0.0,0.0,0.0,0.0,0.0,0.0,0.15585455871688791,0.0,-0.0,0.0,0.0,0.0,0.0,-0.12934429453764823,0.0,0.0,0.0,0.0,0.0,0.0,0.0551362360568126,0.0,0.0,0.0,0.0,0.0,0.0,0.0,0.0014449454780907454,0.0,0.0,0.0,0.0,0.0,0.0,0.0,0.0,0.0,0.0,0.0,0.0
Gene-87,0.0,0.0,0.0,0.0,0.0,0.0,-0.0,-0.0,0.0,0.0,0.007768336281938495,0.0,-0.0,0.0,0.0,0.0,0.0,-0.0,0.0,0.0,0.0,0.0,0.0,-0.0,0.0,0.0,-0.015166977275049906,-0.0,0.0,0.0,0.0,0.0,0.0,0.0,0.0,0.0,0.0,0.0,0.0,0.0,0.0,0.0697748305796016,0.0,-0.0,0.10358092410897123,0.0,0.0,0.0,-0.0,-0.0,0.0,-0.0,-0.0,-0.0,-0.0,0.0,0.0,0.0,0.0,0.0,-0.0,-0.0,0.0,0.0,-0.0,0.0,0.0,0.0,-0.0,-0.0,0.0,0.0,-0.060305023512953825,0.0,-0.0,0.0,-0.0,0.07998663666061727,0.0,0.0,-0.0,0.0,0.0034443746460463154,0.0,0.0,-0.04527694020788727,0.0,0.0,0.0,-0.0,0.0,0.0,0.0,0.0,-0.0,0.0,0.0,-0.0,0.0,0.0,0.0,0.0,0.0,0.0,0.0,0.0,-0.0,-0.0,-0.0,0.0
Gene-88,0.0,0.0,0.0,0.0,0.0,0.0,0.0,0.0,-0.0,0.0,0.0,0.0,0.0,0.0,0.0,-0.0,0.0,-0.11558355126511564,-0.08325595836201904,-0.0,0.0,0.0,0.0,0.03449944449917954,0.0,0.043729825043671414,0.0,0.0,-0.0,0.0,0.0,0.0,0.0,0.0,0.0,0.0,0.0,-0.03145298521445569,0.0,0.0,0.0,0.0,0.0,-0.0,0.0,0.0,0.0,-0.03227579514734244,-0.0,0.0,0.0,-0.0,-0.0,0.0,-0.0,-0.0,0.0,-0.0,0.0,-0.0,0.09397475386438477,0.0,0.0,-0.0,0.0,0.0,-0.07410404771371092,0.0,0.0,0.0,0.0,0.01780650974808292,-0.013247303068883947,0.0,0.0,0.014822363393899637,-0.0,0.0,0.0,0.0,0.0,-0.0,0.0,-0.0,-0.0,0.0,0.056970221001415314,0.0,0.0,0.0,0.0,-0.0,0.0,0.0,0.0,0.0,0.0,0.0,0.0,0.0,0.0,0.0,0.0,0.0,0.0,0.0,0.0,0.0,-0.0,-0.059499975445762826
Gene-89,0.0,0.0,0.0,0.0,0.0,0.0,-0.0,0.0,0.0,0.0712137295934008,0.0,0.0,0.0,-0.08402305919996608,0.0,0.0,0.0,0.0,0.0,-0.0,-0.0,0.0,0.0,0.13871500836260345,0.0,0.0,-0.0,0.0,-0.0,0.0,0.0,0.0,0.0,0.0,0.0,0.0,-0.0,0.0,-0.0,0.0,0.0,0.0,0.0,-0.0,-0.029725407889901537,-0.0,0.0,0.0,0.0,0.0,0.0,0.0,-0.0,-0.0,0.0,0.0,-0.01719964448085205,0.0,0.0,0.06747742925877463,-0.028807228629390957,0.0,0.0,0.0,0.0,-0.0,0.0,0.0,-0.008732693940427628,0.0,0.10248647818695317,0.035384373280412544,0.0,0.0,0.0,0.0,0.0,0.0,-0.0,0.0,0.0,0.0,-0.0,0.0,0.023822116139385358,-0.0,0.0,0.08682515203006143,0.0,-0.0,-0.0022048502355357918,0.0,0.0,-0.0,-0.0,0.0,-0.0,0.0,-0.0,0.0,0.0,-0.0,-0.0,0.0,0.0,0.0032576110151653465,0.0,0.0,-0.18188242130743562,0.0
Gene-90,0.006093772291087118,0.0,-0.0,-0.0,0.0,0.0,0.0,0.0,0.0,0.0,0.0,-0.12959249655749425,0.0,0.07107051445903752,0.0,-0.0,0.0,-0.0,0.0,0.0,-0.0,0.0,0.0,0.0,-0.0,0.020297087435848387,0.0,0.0,0.0,-0.0,0.0,-0.09905830794365271,0.0,0.0,0.0,0.0,0.005167652283372173,-0.0,0.0,0.0,-0.0,-0.0,0.0,-0.0013726574076644987,-0.0,-0.0,0.0,0.0,0.0,-0.0,-0.019605713646593886,-0.0,-0.0,0.002974268074574876,0.0,0.0,-0.0,0.0,0.0,0.0191763334239901,0.016643146122948593,0.0,0.0,-0.0,0.0,0.0,-0.0,-0.0,0.0,0.0,0.0,0.0,0.0,0.0,0.0,0.0,0.0,0.0,0.0,0.0,-0.012531375803319613,0.0,-0.0,-0.0,0.0,0.0,-0.024593656498422538,0.0,-0.0,0.0,0.0,0.0,0.0,-0.0,0.0,0.013210669895954394,0.0,0.02735581276650758,0.0,-0.0,0.0,0.0,0.0,0.0,-0.0,0.0,0.0,-0.0,-0.0,0.0
Gene-91,0.0,0.0,-0.0,0.0,-0.0,-0.0,0.0,0.0,0.0,0.0,-0.0,0.0,0.0,-0.0,0.029251523632260815,0.0,0.0,-0.09420640049302575,0.0,-0.0,0.0,-0.02302930923887988,0.0,0.0,-0.0,-0.0,-0.0,0.0,0.0,0.0,0.0,0.02333722669987594,0.0,0.0,0.0,0.0,-0.0,-0.0,0.0,-0.0,0.0,0.0,0.0,0.0,0.0,0.0,0.0,-0.0,0.0,0.0,-0.0,0.0,-0.0,0.0,0.0,0.0,0.0,0.0,0.0,-0.0,-0.0,0.0,0.0,0.0,0.0,-0.0,0.0,-0.0,0.0,-0.0,-0.0,0.0,0.0,0.0,-0.02966285034426835,-0.0579265070649898,-0.0,-0.0,-0.0,0.0,0.0,0.0,0.0,-0.0,0.0,-0.0005137260858273169,0.0,0.0,-0.0,-0.0,0.0,0.0,0.0,-0.0,0.0,-0.0,0.0,-0.0,0.0,0.0,0.0,-0.0,-0.0,0.0,0.0,0.0,0.0,-0.0,0.0,0.0
Gene-92,-0.0,-0.015210426362552633,0.0,-0.0,0.0,0.0,0.0,0.0,-0.06980104067899759,0.0,0.0,0.0,-0.0,-0.0,0.0,0.0,0.0,0.0,0.0,0.0,0.0,0.0,0.0,-0.007776533427773501,0.0,0.0,0.0,0.0,0.0,0.0,0.08219611209871946,0.0,0.0,0.0,0.0,-0.0,0.0,-0.0,-0.042331476983791916,0.0,0.0,0.0,0.0,0.0,-0.0,0.0,0.0,0.0,0.0,-0.0,0.0,-0.0,0.0,0.0,-0.0,0.04021543877191424,-0.0,0.0,0.0,0.0,0.0,0.0001596571823759137,0.0,0.0,0.0,0.0,0.0,0.0,-0.0,0.0,0.0,-0.0,-0.0,0.0,0.0,-0.0,-0.011573353952885954,0.02215236206108337,0.0,-0.08508119656472196,0.0,0.0,-0.07134281731175447,0.0,0.0,-0.0,0.0,-0.08851677706800627,0.0,0.0,0.0,0.0,0.0,0.0,0.0,-0.0,-0.0,-0.007895843247844694,-0.0,0.0,-0.0,0.0,0.07521659327815074,0.0,-0.0,0.0,-0.0,0.0,0.0,0.0
Gene-93,0.0,0.0,-0.0,-0.0,0.0,-0.0,0.0,0.0,0.0,0.0,-0.0,-0.117349647418833,0.0,0.0,0.0,0.0,0.0,0.0,0.0,-0.0,-0.0,-0.0,0.0,-0.0,0.0,0.0,0.0,-0.0,0.0,0.0,0.0,0.03616917708278587,-0.0,0.0,0.0,0.0,0.021392366408102034,0.0,-0.0,-0.0,0.0,0.0,-0.0,0.0,0.0,0.0,0.0,0.0,0.010485317119972205,0.0,0.0,0.0,0.0,-0.0,0.1372105431890484,0.0,-0.005944761778837665,0.0,0.0,0.0,-0.021735651279320735,-0.0,0.0,0.0,0.0,-0.0,0.0029178027889190735,0.0,0.0,0.0,-0.0,-0.0,0.0,0.0,0.0,0.0,0.0,0.0,0.0,0.0,0.0,0.0,0.0015822047833852714,0.0,0.0,0.0,0.0,0.0,-0.0,0.0,0.0,0.0,0.0,0.0,0.0,0.0,0.0,-0.0,0.0,0.0,-0.0,0.0,-0.0,0.0,0.0,0.0,-0.0,0.0,-0.0,0.0
Gene-94,0.0,0.0,0.06324479784087221,0.0,0.0,-0.0,0.0,0.0,-0.0,0.0,0.0,0.0,0.0,0.0,0.0,0.0,0.0,0.0,-0.061840085924080315,-0.0,0.0,0.0,0.0,0.0,0.0,0.0,-0.0,-0.0,0.0343492664616422,0.0,0.0,0.0,-0.00747186759746613,0.0,-0.0,-0.0,0.0,0.010408209176719994,0.08519550053000692,0.0,0.0,0.0,0.0,-0.0,0.0,0.0,0.06018011332783589,0.0,0.0,-0.0,0.0,-0.0,-0.011546879411457532,0.0,-0.0,0.0,0.0,0.0,0.0,0.0,-0.0,0.0,-0.0,0.0,0.0,0.0,0.0,-0.08898462111456833,-0.01552308394873977,0.0,0.0,0.0,-0.0,-0.0,0.0,0.0,-0.002449913791817443,-0.0,0.0,0.0,0.0,-0.013208564427990621,0.0,0.0,0.0,0.0,0.0,0.0,-0.0,-0.0,-0.06854551335488988,0.0,0.0,0.0,0.0,0.0,0.0,0.0,0.0,0.0,0.0,0.0,-0.0,0.0,-0.0,0.0,0.0,0.0,-0.06699875923807126,0.0
Gene-95,0.0,0.0,-0.0,0.0,0.0,0.031598661481387735,-0.0,0.0,0.0,0.0,-0.0,0.0,0.0,0.0,0.0,0.0,0.0,0.0,0.0,0.0,-0.0,-0.0,-0.0,0.0,-0.012938697490609089,-0.0,0.0,-0.010614462669050698,-0.0,0.0,0.010859573999566594,0.0,0.0,0.0,-0.0,0.0,0.0,-0.10039154942167584,0.0,0.0,-0.03467731467168212,0.0017682580310210726,-0.0,0.0,0.0,0.0,0.005615811682071197,0.0,-0.0,0.0,0.0,0.02078188938963564,0.0,0.0,-0.07660987125556917,0.0,-0.0,0.0,0.0,0.0,0.0,-0.0,-0.0,0.0,0.0,0.0,-0.0,-0.07807058846704362,0.0,0.0,0.0,0.0,0.0359120250588676,-0.0,0.0,-0.0,0.0,0.0,0.0,0.0,-0.08596855152536931,0.0,-0.006725463740231095,0.0,0.0,0.05691502465727086,-0.0,0.0,-0.0,0.0,0.0,0.0,0.05375103360280467,0.0,0.0,-0.0,0.0,0.05110619447109443,-0.0,0.0,0.0,-0.0,0.0,-0.0,0.0,-0.0,0.0,0.0,-0.0,-0.06387446089016716
Gene-96,0.0,0.0,0.0,-0.0,-0.0,0.0,0.0,-0.0,-0.03521928318883676,0.0,0.062429866957863636,0.0,-0.0,0.0,-0.0,0.0,0.0,0.0181767715310996,0.0,0.0,-0.0,-0.016040389351992666,0.0,0.0,-0.0038426375189989956,0.0,0.0,0.0,0.0,0.0,0.10611398061929393,0.0,0.0,-0.0,0.0,0.0,0.0,-0.0,0.0,-0.0,-0.0,0.0,0.0,0.005529698243804492,0.0,0.0,-0.0,0.0,0.0,0.0,0.0,0.0,0.0,0.0,-0.15917140982695027,0.0,-0.0,-0.0,0.0,0.0,0.01864850984810655,-0.0,0.0,0.0,0.03381252879124042,0.0,0.0,0.021577021133994158,0.0,0.0034638792513025413,0.0,-0.0,0.0,-0.0,0.0,-0.0,-0.0,0.0,0.0,0.0,0.0,-0.0,0.0,-0.0,0.0,0.0,0.0,0.0,0.0,0.0,0.0,-0.0,0.009415021587760558,0.0,0.0,0.0,0.0,0.06096810298675704,0.0,0.0,0.0,-0.0,0.0,-0.0,0.0,-0.0,-0.0,-0.0,-0.0,0.0
Gene-97,0.0,0.0,0.0,0.0,0.0,0.050468741777487405,0.0,0.0,0.0,0.0,0.0,-0.0852270219822145,0.0,0.0,-0.03738118653194712,0.0,0.0,0.08555444732500049,-0.1365138666644438,0.0,0.0,0.0,-0.0,0.0,0.0,0.0,0.0,0.0,0.0,0.0,0.0,-0.07232079703722342,0.0,0.0,0.0,0.0,0.0,0.0,0.028105998872327075,0.0,0.0,0.0,0.0,0.0,0.05122844062967881,-0.0,0.0,0.0,0.0,0.0,0.0,0.0,0.0,0.0,0.0,-0.027961404043091175,0.0,0.0,0.0,0.0,0.0,0.0,0.0,0.0,0.0,0.0,0.0,0.03382897015173657,0.0,0.0,0.0,-0.0,0.0,0.0,-0.020777616193699226,0.05864971587808425,0.0,0.0,0.0,0.0,0.0,0.0,-0.021669034891029334,0.0,0.0,0.0,0.0,0.0,0.0,0.0,0.0,0.0,0.0,0.0,0.0,0.0,0.0,0.0,0.0,0.0,0.0,0.0,0.0,0.0,0.0,0.0,0.0,0.0,0.0,0.24909722344703572
Gene-98,0.0,-0.0,0.0,0.0057521937297618135,0.0,-0.0,0.0,0.0,0.0,0.0,-0.0,0.0,0.0,-0.0,0.0,0.0,0.0,0.0,0.0,0.0,0.0,0.0,0.0,0.0,-0.0,0.0,0.0,0.0,0.04372505622763759,0.0,0.0,0.0,0.0,0.0,-0.0,0.0,0.0,0.0,-0.0451802299993261,0.0,0.0,0.0,0.0,0.0,0.0,0.0,0.0,0.0,0.0,-0.01467600034751594,-0.025400513605270382,-0.0,0.0,-0.0,0.0,0.0,-0.0,-0.0,0.0,0.0,0.0,-0.0,0.0,0.0,0.0,0.027056090275429226,0.0,0.0,0.0,0.0,0.0,0.0,-0.0,0.0,0.0,0.0,0.0,0.0,0.0,0.0,0.0,0.0,0.0,0.0,0.0,0.0,-0.0,0.0,0.0,0.0,0.0,-0.0,-0.08300538454896553,-0.0,0.0,0.0,-0.03282682365537318,0.0,-0.0,0.0,-0.0,-0.0,-0.0,-0.0,0.0,0.0,0.0,-0.0,0.0,0.0
Gene-99,0.0,-0.0,-0.0,0.0,0.0,-0.0,-0.0,-0.0,0.0,-0.0023226041231021455,0.0,0.0,0.0,-0.0,0.0,0.0,0.0,-0.0,0.0,0.0,-0.0,0.0,0.0,0.0,0.0,0.0,-0.0,0.0,-0.0,0.0,-0.0031135442523446653,0.0,0.0,0.0,0.0,0.0,0.0,-0.0,0.0,0.0,0.0,-0.0,0.0,0.0,0.0,0.0,0.0,-0.0,0.0,-0.0,0.0,0.0,-0.0,0.0,0.0,-0.0,0.0,-0.0,0.019775788237284958,0.0,0.05349879282644668,0.0,-0.0,-0.0,0.0,-0.0,0.0,-0.056958911391326264,0.0,0.0,0.0,0.0,0.0,0.0,0.01518466442187735,-0.0,0.0,-0.0,-0.0,0.0,0.0,0.0,0.0,0.004531198602233728,0.0,-0.0,0.0,0.0,0.0,0.0,0.0,0.0,0.0,0.0,-0.08993519553938865,0.0,0.0,-0.06807204157407036,0.0,-0.0,0.0,0.0,0.0,-0.0,-0.0,-0.0,0.006174216219496136,0.0,-0.0,0.0
Gene-100,-0.0,-0.0,0.0,-0.0001429230001824383,0.0,-0.015618637222968707,0.0,0.0,-0.0,0.0,-0.0,0.0,0.0,0.007570294418733561,0.0,0.0,0.0,0.0,0.0,-0.0,-0.007007677676550449,-0.0,0.0,-0.003296793004680719,-0.0,0.003977902283514482,-0.0,-0.0,-0.0,-0.0,0.0,-0.005910414089401322,-0.0,0.010028692053315203,-0.04194025126617753,0.0,-0.004138346573096548,0.0,-0.0,-0.0,-0.0,-0.0,9.457276586725148e-05,0.0,-0.0,-0.0,-0.004135747421710378,-0.01308250813065885,0.007960829505298191,0.0,0.0,0.020666800254522208,0.0,0.0,-0.006473727744726853,-0.0,0.005383803429797431,-0.0,0.0,-0.0,0.0,-0.0039024720529515122,-0.0,-0.0,0.0,-0.0,0.0,0.011972469313754449,-0.0,-0.0265873601661565,0.0,-0.0,0.0,-0.0,0.0,0.0,-0.0,-0.0,-0.0,-0.0039031949498522013,0.0,0.0,-0.0,0.0,0.0,0.0,0.0,0.0,0.0,-0.0,0.0,0.0,0.0,-0.0,-0.0,0.0038520312486625173,0.0,0.0,-0.0,0.0,0.0,0.015644305701864758,0.0,-0.0,0.06751373005559776,0.0,0.0,0.0,-0.1744066172190133,0.0
MutState-1,0.0,0.0,-0.0,-0.0,0.0,-0.0398029124354179,0.0,0.0,0.09755417931094862,-0.0019173778509003342,0.0,0.0,-0.0,0.0,-0.0,0.04657295980618925,0.0,-0.0,-0.0,-0.0,0.0,0.013025895083382926,0.0,-0.0,-0.05338399611018255,0.0,0.0,0.0,0.0,0.0,0.026240218847938153,-0.053670587918604906,-0.0,0.0,0.0,0.0,0.0,0.0,0.021721240302093544,0.0,0.0,0.0,0.02089387287887546,-0.0,-0.033354183579904474,-0.03365996422151589,0.0,0.0,0.0,0.0,0.003497804730730219,0.0,-0.05978267633702815,0.0,-0.0,-0.002607160339245557,0.0,0.0,0.000387226560333753,0.0,0.03385846403003153,-0.0,0.0,-0.0,-0.04678104671891572,0.0,-0.0,-0.0,-0.031735294233183886,0.0,0.0,0.0,-0.016307253035872677,0.0,0.051046716734356186,-0.0,0.0,0.0,-0.01894476072945832,0.0,0.0,0.020219201557967567,-0.0,-0.0,-0.0,0.0,-0.008581121943293829,0.0,-0.0,0.0,0.028714756735764756,0.0,-0.06275767015618797,0.0,0.0,0.0,-0.0,-0.0,0.0,0.0,0.0,0.0,-0.0,0.0,0.0,0.0,0.0,0.0,0.0,0.0
MutState-2,-0.0,-0.07465679425297925,0.0,-0.0,0.0,-0.0566364721009079,-0.0,0.0,0.0,0.0,0.044643052894638005,0.0,0.0,0.01566063188732959,-0.0,0.0,0.0,0.0,0.0,-0.0,0.0,-0.0,0.0,0.0,-0.0,0.0,0.0,-0.0,0.0,0.0,0.0,-0.0,0.0,0.0,-0.0,0.0,-0.003961536693847326,0.0,0.0,-0.01752925254858434,-0.0,0.0,0.0,0.0,0.0,0.0,0.0,-0.0,-0.0,0.0,0.0004504113895184509,0.0,0.01275605633607718,0.0,-0.0,-0.0,-0.0,0.0,0.0,-0.0,0.0,0.0,0.0,-0.0,0.0,0.0,0.010111934387438851,-0.0016915258321957428,0.0,0.06953660284586705,0.0,-0.0,0.001993963470129564,0.0,0.0,0.0,0.0012302386726406897,-0.003648808258861253,0.0,0.0,0.0,-0.008736578455482608,0.0,-0.0,0.0,-0.0,0.0,0.0,-0.0,0.0,-0.04919282571565918,0.012726929171807679,0.00685767022260345,0.05021548419205839,-0.0,-0.0053938502412234435,0.0,0.0,-0.0,0.0,0.0,0.0,0.0,0.07173864763199375,0.0,0.0,0.0,0.0,0.0,0.0
MutState-3,0.0,-0.0,0.0,0.0,-0.004268839937393805,0.0,0.027988546373972523,0.0,0.042321051544214075,0.0,0.0,0.0,0.0,-0.0,0.0518271956273535,0.0,0.0,-0.002794419780415281,0.0,-0.01387188488007472,-0.0,-0.0,0.018060442908686816,0.0,0.0,-0.054247510916980664,-0.0,-0.0,-0.0,-0.01713298568924452,0.006218123075374919,0.0,0.025767283154085233,0.0,-0.0,0.0,0.006539895429857223,-0.01554504834164779,0.0,0.0,-0.0,0.0,-0.0,-0.0,-0.013729919016444145,-0.0,-0.005533724835281995,-0.0,-0.04742464956590894,0.0,-0.015581024592492521,0.0,0.0,0.0,-0.0,0.0,0.0,0.0,0.023544204733612396,0.005332291212599538,0.0,0.010760024115154497,-0.0,0.0,0.0,0.0,0.0,0.0,0.0,-0.05957989799022743,-0.0,0.0,0.03899935328357978,-0.0,-0.007352801166842933,0.0,0.0,0.0,0.022008214710751352,0.0,-0.0,0.013761643950090018,0.0,0.0,0.0,0.003379267016709234,0.0,0.01671070672268402,-0.018651526883958873,0.0,0.0,0.0,-0.031203612118939177,0.0,0.007016189543532911,0.04156665466541221,-0.0,-0.0,0.0036779088840380872,0.0,-0.16284024527658186,0.0,0.0,0.0,0.0,0.0,-0.0,0.0,0.0,0.0
MutState-4,0.0,-0.055538332211602016,0.0,-0.0,-0.0,0.0,-0.030860973273138484,0.0,0.0,0.0,0.0,0.0,0.013786197136842477,-0.0,0.014149085265022374,0.0,0.0,0.0,0.0,-0.0,0.0,0.0,-0.0,0.0,0.0,0.0,0.0,-0.0,-0.0,-0.0,0.0,0.023919345322810506,0.0,-0.0,0.0,-0.042010503521011794,-0.01330889348530467,0.0,-0.00016806953722850354,0.0,0.0,-0.0,-0.0,-0.039271472896980304,-0.0,0.0,0.0,0.0,-0.0,0.0,0.0,0.0,-0.0,0.0,0.0,-0.021583617347353194,0.0,0.03036885518425138,-0.057192621737006226,0.018383574291172464,0.0,-0.0,0.0,0.0,-0.0,0.02606566734094566,0.0,0.0,0.03468954783091302,0.0,0.0,0.0018789521626153968,0.0,-0.0,0.0217949627990471,0.0,0.0,0.0,0.0,0.041019157405225784,-0.0,-0.0,0.0,0.0,0.0,-0.0,0.004940930166277289,0.0,0.0,0.0,0.0,0.0,0.03341317612649325,0.08004330373121998,0.0,-0.0,0.0,-0.06033279688094012,0.0,-0.0,0.0,0.0,0.0,0.0,0.0,-0.0,0.0,-0.0,0.0,0.0
MutState-5,0.0,0.0,0.0,0.0,0.0,-0.008117552680485338,0.0,0.0,0.0,0.0,-0.0,0.0,-0.0,0.0,-0.01445329489367528,-0.04829627377220016,0.0,0.0,0.0,-0.0,-0.0,0.0,0.0,0.0,0.0,-0.0,0.0,-0.0422778010330873,0.0,-0.0004891271997443044,-0.00591574073631812,0.0,-0.05519926955227637,0.0,-0.0,0.0,0.0,-0.0,0.0,0.0,0.0,0.0,-0.0,0.039025652540636634,0.0,0.0,-0.0,0.011646786828485715,0.0,0.0,0.0,0.0,0.0,-0.0,0.0,-0.0,0.021875448647510804,-0.022329947497292762,0.0,-0.0,0.0,-0.0,-0.0,-0.03125387570105156,-0.0,-0.0,0.0,0.0,0.0,0.0,0.0,-0.03110292824364425,-0.0018384660832356599,-0.0,-0.023682832384231828,-0.0,-0.01067400751342854,-0.0,-0.003909626954124794,0.0,0.0,0.0,0.0,-0.0,-0.0,0.0,0.0,-0.0,2.6243504907155205e-05,0.0,0.0,-0.0,-0.0,0.0,0.0,0.0,0.0,0.0,0.0,0.0,0.0,0.0,0.0,0.0,0.0,0.0,0.0,0.0,0.0,0.0
MutState-6,0.0,0.0,0.0,0.0,0.0,0.0,-0.0,-0.0015754666566923953,0.0,0.0,-0.01310464913607125,0.0,0.0,0.003572231172533621,0.0,0.008633301324682272,0.001123329373343123,0.0,0.0,0.0,0.0,0.0,-0.0,0.0,0.0,0.0,-0.0,-0.0,0.0,0.000793625954777652,0.0,0.0023834070535982254,0.03241504524463774,-0.0028603531910143943,0.0,-0.0,-0.0041203745280681174,0.0,0.0,0.0,0.0,0.0,-0.0,-0.0,-0.0,-0.0,0.0,-0.0,0.01486337027169175,0.03612014593133243,0.0013017483665485822,-0.0037547672515228264,-0.06901086308101927,0.0,-0.0,0.0,0.0,0.0,0.0,0.0,0.0,-0.0,0.01828816502692047,-0.0,-0.0,0.0,-0.0,-0.0,0.0,-0.0,-0.0003805348982627895,0.0,0.0,0.02688024374993845,0.0,0.0,-0.0,0.029559713560220108,0.0,0.0,-0.00583038164475072,0.0,-0.0,0.0,-0.0,0.0,-0.0,0.0,-0.0,0.016609771208692198,0.0,0.0,-0.0,0.0,0.0,-0.0,0.0,0.0,0.0,0.0,0.0,0.0,0.0,0.0,0.0,0.0,-0.0,0.0,0.032934564077062294,0.0
MutState-7,0.0,0.0,-0.0,0.0,0.0,0.0,0.0,-0.0,0.0,0.0,-0.050384907795493504,-0.0020279979664020236,0.0,0.0,0.0,-0.0,0.0,-0.018523357483592778,0.0,-0.0,0.0,0.003041466635256363,0.0,-0.0,-0.03101291413708319,-0.0,-0.0,0.0,-0.00011067357469437774,0.0,0.0,0.0,-0.00010558082762290714,0.0,-0.005023374817216988,0.0,0.0,-0.047229562136247835,-0.0,0.0,0.0,0.0,-0.0,-0.0,0.0,-0.017329015317470785,0.01382062901014919,0.0,0.034145933084579555,-0.0,0.0025005666066386387,0.0,0.0,0.0,-0.0,-0.0,-0.0,-0.0,0.0,0.0,0.0,-0.013452981383502559,0.0,0.01518109741955823,-0.0,-0.0001866946204182434,0.0,-0.0,0.012093467383555908,0.0,-0.015821184731163146,-0.0,-0.0,-0.0,0.0,0.0,-0.009941880712192484,0.0,-0.0,-0.001881072472757375,-0.0,0.0,-0.005688509571710963,0.015148227373332332,0.0,0.0,-0.056272409616004306,0.0,0.009746630431882949,0.012290527131771811,0.03926598050402347,-0.0,-0.0,0.0,0.0,0.0,0.0034030588295350687,0.02258469608783113,0.0,0.0,-0.0,0.0,0.0,0.0,0.0,0.0,0.0,0.0,0.0,0.0
MutState-8,0.0,-0.08026671035018923,0.0,0.0,-0.0,-0.0,0.0,0.0,-0.00036820781715131705,0.0,0.0,0.0007898694634000504,0.043763270806980496,0.0,-0.010301352765150845,0.0,0.0,-0.0,0.0,0.036156001815921504,0.0,0.0,0.0,-0.0,0.0,0.0,0.0,0.0,-0.0,0.0,0.0,0.0,-0.0358875117287797,-0.0,0.0,0.0,0.0,0.0016392112498366395,-0.06675893383062148,-0.0,-0.019600232003781196,-0.0,0.0009474648127819038,0.008208333097283844,0.0,0.0,0.0,0.03626669406979628,0.0,-0.0,0.0,-0.0,0.0,0.0,0.0,0.0,0.0,-0.0,0.0,0.0,-0.0,0.0,0.0,-0.0,0.025331650948281628,0.0,0.012116079223427103,0.0,0.0,0.0,0.06754938386699334,0.0,-0.03667997346853577,-0.0,0.0,0.0,0.0,-0.03929486258273996,-0.035370093157778254,0.022718786059090963,0.0,-0.0,0.0,0.0,-0.0,0.0,0.0,0.0,0.0,-0.0,-0.0,-0.0,0.0,0.014735666075544851,0.0,-0.014464376820326013,-0.0,-0.019632527387629516,-0.0,0.0,-0.0,0.0,0.0,-0.0,0.0,0.0,0.0,0.0,0.0,0.0
MutState-9,-0.0,-0.0,0.0,0.0,0.0,-0.0,0.0,0.0,-0.0,0.0,0.0,0.0,0.0,-0.009444090568281384,0.0,-0.0,0.0,-0.0,0.0,0.0,0.0,-0.0,-0.03217277178783885,0.0,-0.0,0.05297975397799779,0.01480774349813507,0.03681432154056111,-0.0,-0.0,-0.014484586695139079,-0.0017496896173343594,-0.0,0.04229062088243339,0.0,-0.0,-0.0,0.00040399239632606083,0.0,0.0,0.0,-0.0,0.024021804751046757,-0.027221652397223788,-0.0,0.0,0.0,0.0,-0.0,0.0,0.0,0.027714561343426956,0.0,-0.0,0.0,-7.757398930003054e-05,0.0,0.0,-0.022035910717510102,-0.0,-0.0,-0.014169664152992274,-0.0,0.01029952931141245,0.0,-0.07782298695797335,-0.06133661968577198,-0.0,0.0,0.0,0.0,0.0,-0.0,-0.0044434882842788416,-0.0,-0.024700720386724974,-0.017288502798017063,0.0,-0.0,0.0,0.0,0.0,0.0,0.0,0.0,0.0,-0.008877459781933335,-0.03793764090454726,-0.0,0.0,0.009170410796316886,0.020598053570916743,-0.008698294734646284,-0.0,0.01968199291415472,0.0,0.0,0.0,-0.0,-0.0,0.0,0.0,0.0,0.0,0.0,-0.0,0.0,0.0,0.0,0.0
MutState-10,0.0,0.0,0.0,0.0,0.0,0.0,0.0,0.0014390903080896441,-0.0,0.0,-0.0,0.0,-0.0,0.009867352071300312,0.0,0.0,0.0,0.04120639980515086,0.0,-0.0,-0.0,-0.008910152812729302,0.0,0.0,0.0,0.0,0.0,-0.0,0.029734770810172756,-0.0,0.0,0.0,-0.0,-0.0005973011898997253,-0.0,-0.0,0.0,0.02063108380671601,-0.0,-0.0,-0.0,0.0,-0.0137861373981105,0.0,0.0,0.0,-0.0,-0.0,0.0,0.0,-0.0,-0.0,-0.0,0.0,-0.0,0.0,0.0,0.0,0.02469556236233714,0.0,-0.0,0.0,-0.0,-0.0,-0.0,0.0,0.03913756294740574,0.0,-0.0,0.0,0.0,-0.0,0.007070593850378071,0.0,0.0060515315260719444,0.0,0.0,0.0,0.0,-0.03288258784516147,0.0,-0.06974717750193293,-0.004563203771637687,0.02311985941726399,0.0015386282280182803,0.0074417063630394025,0.028129886736871616,0.0,-0.0,-0.004633094939662176,-0.056269365671109364,-1.5575782515267203e-05,0.04085090156171988,0.0,0.0,-0.0008576945395029703,0.0,0.008220420102879713,0.0,0.0,-0.10808094593180043,-0.0,0.0,0.0,-0.0,0.0,0.0,0.0,0.0,0.0
